AdaBoostM1: Base classifiers and their weights: 

J48 pruned tree
------------------

Minimum Distance <= 0.036216
|   Distance Ratio A <= 0.98064
|   |   Distance Ratio B <= 0.996486
|   |   |   Time Gap <= 2623
|   |   |   |   Vertical Overlap <= -0.013336
|   |   |   |   |   Part of Same Closed Path <= 0
|   |   |   |   |   |   Ratio Minimum Endpoint to Endpoint Distance to Overall Minimum Distance <= 0.998142
|   |   |   |   |   |   |   Centroid Distance <= 0.039997
|   |   |   |   |   |   |   |   Time Gap <= 1664: Ignore (11.0/1.0)
|   |   |   |   |   |   |   |   Time Gap > 1664: NoJoin (6.0)
|   |   |   |   |   |   |   Centroid Distance > 0.039997
|   |   |   |   |   |   |   |   Ratio Minimum Endpoint to Any Point Distance to Overall Minimum Distance <= 0.9952
|   |   |   |   |   |   |   |   |   Vertical Overlap <= -0.026439: NoJoin (8.0)
|   |   |   |   |   |   |   |   |   Vertical Overlap > -0.026439
|   |   |   |   |   |   |   |   |   |   Horizontal Overlap <= 0.02183: Ignore (4.0)
|   |   |   |   |   |   |   |   |   |   Horizontal Overlap > 0.02183: NoJoin (4.0)
|   |   |   |   |   |   |   |   Ratio Minimum Endpoint to Any Point Distance to Overall Minimum Distance > 0.9952: NoJoin (25.0)
|   |   |   |   |   |   Ratio Minimum Endpoint to Endpoint Distance to Overall Minimum Distance > 0.998142
|   |   |   |   |   |   |   Maximum Distance <= 0.078392: Ignore (22.0)
|   |   |   |   |   |   |   Maximum Distance > 0.078392: NoJoin (4.0/1.0)
|   |   |   |   |   Part of Same Closed Path > 0: Ignore (69.0)
|   |   |   |   Vertical Overlap > -0.013336: Ignore (450.0/4.0)
|   |   |   Time Gap > 2623
|   |   |   |   Part of Same Closed Path <= 0
|   |   |   |   |   Vertical Overlap <= -0.015697
|   |   |   |   |   |   Centroid Distance <= 0.037667
|   |   |   |   |   |   |   Distance Ratio B <= 0.957664
|   |   |   |   |   |   |   |   Minimum Distance <= 0.023252: Ignore (2.0)
|   |   |   |   |   |   |   |   Minimum Distance > 0.023252
|   |   |   |   |   |   |   |   |   Centroid Distance <= 0.035957: NoJoin (9.0)
|   |   |   |   |   |   |   |   |   Centroid Distance > 0.035957: Ignore (2.0)
|   |   |   |   |   |   |   Distance Ratio B > 0.957664: NoJoin (26.0)
|   |   |   |   |   |   Centroid Distance > 0.037667: NoJoin (140.0)
|   |   |   |   |   Vertical Overlap > -0.015697
|   |   |   |   |   |   Maximum Distance <= 0.049573: Ignore (20.0)
|   |   |   |   |   |   Maximum Distance > 0.049573
|   |   |   |   |   |   |   Minimum Endpoint to Endpoint Distance <= 0.017068: Ignore (8.0)
|   |   |   |   |   |   |   Minimum Endpoint to Endpoint Distance > 0.017068
|   |   |   |   |   |   |   |   Ratio Minimum Endpoint to Any Point Distance to Overall Minimum Distance <= 0.979102: NoJoin (14.0)
|   |   |   |   |   |   |   |   Ratio Minimum Endpoint to Any Point Distance to Overall Minimum Distance > 0.979102
|   |   |   |   |   |   |   |   |   Horizontal Overlap <= -0.032935: Ignore (9.0)
|   |   |   |   |   |   |   |   |   Horizontal Overlap > -0.032935
|   |   |   |   |   |   |   |   |   |   Vertical Overlap <= 0.017983
|   |   |   |   |   |   |   |   |   |   |   Maximum Distance <= 0.058993
|   |   |   |   |   |   |   |   |   |   |   |   Ratio Minimum Endpoint to Any Point Distance to Overall Minimum Distance <= 0.991571: NoJoin (6.0/1.0)
|   |   |   |   |   |   |   |   |   |   |   |   Ratio Minimum Endpoint to Any Point Distance to Overall Minimum Distance > 0.991571
|   |   |   |   |   |   |   |   |   |   |   |   |   Maximum Distance <= 0.051896
|   |   |   |   |   |   |   |   |   |   |   |   |   |   Horizontal Overlap <= -0.003954: Ignore (4.0/1.0)
|   |   |   |   |   |   |   |   |   |   |   |   |   |   Horizontal Overlap > -0.003954: NoJoin (2.0)
|   |   |   |   |   |   |   |   |   |   |   |   |   Maximum Distance > 0.051896: Ignore (10.0)
|   |   |   |   |   |   |   |   |   |   |   Maximum Distance > 0.058993
|   |   |   |   |   |   |   |   |   |   |   |   Ratio Minimum Endpoint to Endpoint Distance to Overall Minimum Distance <= 0.975956
|   |   |   |   |   |   |   |   |   |   |   |   |   Ratio Minimum Endpoint to Endpoint Distance to Overall Minimum Distance <= 0.952994: NoJoin (4.0)
|   |   |   |   |   |   |   |   |   |   |   |   |   Ratio Minimum Endpoint to Endpoint Distance to Overall Minimum Distance > 0.952994: Ignore (5.0)
|   |   |   |   |   |   |   |   |   |   |   |   Ratio Minimum Endpoint to Endpoint Distance to Overall Minimum Distance > 0.975956: NoJoin (34.0/1.0)
|   |   |   |   |   |   |   |   |   |   Vertical Overlap > 0.017983
|   |   |   |   |   |   |   |   |   |   |   Horizontal Overlap <= -0.023796: NoJoin (4.0)
|   |   |   |   |   |   |   |   |   |   |   Horizontal Overlap > -0.023796: Ignore (14.0)
|   |   |   |   Part of Same Closed Path > 0: Ignore (26.0/1.0)
|   |   Distance Ratio B > 0.996486
|   |   |   Minimum Endpoint to Endpoint Distance <= 0.041182: Join (49.0)
|   |   |   Minimum Endpoint to Endpoint Distance > 0.041182: NoJoin (4.0)
|   Distance Ratio A > 0.98064
|   |   Distance Ratio B <= 0.986472
|   |   |   Minimum Distance <= 0.014599
|   |   |   |   Minimum Distance <= 0.008573: Join (30.0)
|   |   |   |   Minimum Distance > 0.008573
|   |   |   |   |   Time Gap <= 271: Join (7.0)
|   |   |   |   |   Time Gap > 271
|   |   |   |   |   |   Centroid Distance <= 0.025428
|   |   |   |   |   |   |   Distance Ratio B <= 0.980515: Ignore (4.0/1.0)
|   |   |   |   |   |   |   Distance Ratio B > 0.980515: Join (7.0)
|   |   |   |   |   |   Centroid Distance > 0.025428
|   |   |   |   |   |   |   Distance Ratio A <= 0.984652: NoJoin (8.0/1.0)
|   |   |   |   |   |   |   Distance Ratio A > 0.984652
|   |   |   |   |   |   |   |   Centroid Distance <= 0.06092
|   |   |   |   |   |   |   |   |   Centroid Distance <= 0.037316
|   |   |   |   |   |   |   |   |   |   Vertical Overlap <= 0.008949: Ignore (4.0)
|   |   |   |   |   |   |   |   |   |   Vertical Overlap > 0.008949: NoJoin (2.0)
|   |   |   |   |   |   |   |   |   Centroid Distance > 0.037316
|   |   |   |   |   |   |   |   |   |   Vertical Overlap <= 0.033181
|   |   |   |   |   |   |   |   |   |   |   Ratio Minimum Endpoint to Any Point Distance to Overall Minimum Distance <= 0.952716: Ignore (2.0)
|   |   |   |   |   |   |   |   |   |   |   Ratio Minimum Endpoint to Any Point Distance to Overall Minimum Distance > 0.952716: Join (8.0)
|   |   |   |   |   |   |   |   |   |   Vertical Overlap > 0.033181: Ignore (4.0)
|   |   |   |   |   |   |   |   Centroid Distance > 0.06092: NoJoin (2.0)
|   |   |   Minimum Distance > 0.014599: NoJoin (21.0/1.0)
|   |   Distance Ratio B > 0.986472
|   |   |   Time Gap <= 1911
|   |   |   |   Minimum Distance <= 0.00918: Join (2873.0/16.0)
|   |   |   |   Minimum Distance > 0.00918
|   |   |   |   |   Vertical Overlap <= 0.014613
|   |   |   |   |   |   Distance Ratio B <= 0.997453
|   |   |   |   |   |   |   Horizontal Overlap <= 0.002302
|   |   |   |   |   |   |   |   Maximum Distance <= 0.100599: NoJoin (2.0)
|   |   |   |   |   |   |   |   Maximum Distance > 0.100599: Join (2.0)
|   |   |   |   |   |   |   Horizontal Overlap > 0.002302: Join (5.0)
|   |   |   |   |   |   Distance Ratio B > 0.997453: NoJoin (5.0)
|   |   |   |   |   Vertical Overlap > 0.014613
|   |   |   |   |   |   Distance Ratio B <= 0.997527
|   |   |   |   |   |   |   Distance Ratio A <= 0.982148: Ignore (6.0/1.0)
|   |   |   |   |   |   |   Distance Ratio A > 0.982148: Join (12.0/1.0)
|   |   |   |   |   |   Distance Ratio B > 0.997527: Join (50.0)
|   |   |   Time Gap > 1911
|   |   |   |   Minimum Endpoint to Endpoint Distance <= 0.007243
|   |   |   |   |   Horizontal Overlap <= 0.003425: Join (90.0)
|   |   |   |   |   Horizontal Overlap > 0.003425
|   |   |   |   |   |   Vertical Overlap <= 0.018311
|   |   |   |   |   |   |   Vertical Overlap <= 0.006277: Join (30.0)
|   |   |   |   |   |   |   Vertical Overlap > 0.006277
|   |   |   |   |   |   |   |   Maximum Distance <= 0.046822: Join (12.0)
|   |   |   |   |   |   |   |   Maximum Distance > 0.046822
|   |   |   |   |   |   |   |   |   Centroid Distance <= 0.025274: NoJoin (6.0)
|   |   |   |   |   |   |   |   |   Centroid Distance > 0.025274
|   |   |   |   |   |   |   |   |   |   Maximum Distance <= 0.066484: Join (4.0)
|   |   |   |   |   |   |   |   |   |   Maximum Distance > 0.066484: NoJoin (5.0/2.0)
|   |   |   |   |   |   Vertical Overlap > 0.018311: Join (42.0)
|   |   |   |   Minimum Endpoint to Endpoint Distance > 0.007243
|   |   |   |   |   Ratio Minimum Endpoint to Endpoint Distance to Overall Minimum Distance <= 0.929197: Join (40.0)
|   |   |   |   |   Ratio Minimum Endpoint to Endpoint Distance to Overall Minimum Distance > 0.929197
|   |   |   |   |   |   Vertical Overlap <= 0.025048
|   |   |   |   |   |   |   Horizontal Overlap <= -0.000177
|   |   |   |   |   |   |   |   Minimum Endpoint to Any Point Distance <= 0.015048: Join (27.0/3.0)
|   |   |   |   |   |   |   |   Minimum Endpoint to Any Point Distance > 0.015048: NoJoin (3.0)
|   |   |   |   |   |   |   Horizontal Overlap > -0.000177
|   |   |   |   |   |   |   |   Maximum Distance <= 0.033299: Join (7.0)
|   |   |   |   |   |   |   |   Maximum Distance > 0.033299
|   |   |   |   |   |   |   |   |   Centroid Distance <= 0.054546
|   |   |   |   |   |   |   |   |   |   Minimum Endpoint to Endpoint Distance <= 0.015538
|   |   |   |   |   |   |   |   |   |   |   Vertical Overlap <= 0.002934: Join (5.0)
|   |   |   |   |   |   |   |   |   |   |   Vertical Overlap > 0.002934
|   |   |   |   |   |   |   |   |   |   |   |   Vertical Overlap <= 0.019764
|   |   |   |   |   |   |   |   |   |   |   |   |   Time Gap <= 45029
|   |   |   |   |   |   |   |   |   |   |   |   |   |   Part of Same Closed Path <= 0
|   |   |   |   |   |   |   |   |   |   |   |   |   |   |   Distance Ratio B <= 0.992574: Join (2.0)
|   |   |   |   |   |   |   |   |   |   |   |   |   |   |   Distance Ratio B > 0.992574: NoJoin (14.0/1.0)
|   |   |   |   |   |   |   |   |   |   |   |   |   |   Part of Same Closed Path > 0
|   |   |   |   |   |   |   |   |   |   |   |   |   |   |   Centroid Distance <= 0.03496: NoJoin (21.0)
|   |   |   |   |   |   |   |   |   |   |   |   |   |   |   Centroid Distance > 0.03496
|   |   |   |   |   |   |   |   |   |   |   |   |   |   |   |   Distance Ratio B <= 0.99515: NoJoin (5.0)
|   |   |   |   |   |   |   |   |   |   |   |   |   |   |   |   Distance Ratio B > 0.99515: Join (5.0/1.0)
|   |   |   |   |   |   |   |   |   |   |   |   |   Time Gap > 45029: Join (3.0)
|   |   |   |   |   |   |   |   |   |   |   |   Vertical Overlap > 0.019764: Join (7.0/1.0)
|   |   |   |   |   |   |   |   |   |   Minimum Endpoint to Endpoint Distance > 0.015538
|   |   |   |   |   |   |   |   |   |   |   Horizontal Overlap <= 0.002085: Join (3.0/1.0)
|   |   |   |   |   |   |   |   |   |   |   Horizontal Overlap > 0.002085: NoJoin (26.0)
|   |   |   |   |   |   |   |   |   Centroid Distance > 0.054546: Join (5.0)
|   |   |   |   |   |   Vertical Overlap > 0.025048: Join (47.0/1.0)
Minimum Distance > 0.036216
|   Centroid Distance <= 0.081576
|   |   Time Gap <= 2823
|   |   |   Vertical Overlap <= -0.039668
|   |   |   |   Centroid Distance <= 0.054094: Ignore (3.0/1.0)
|   |   |   |   Centroid Distance > 0.054094: NoJoin (25.0)
|   |   |   Vertical Overlap > -0.039668
|   |   |   |   Part of Same Closed Path <= 0
|   |   |   |   |   Time Gap <= 2406
|   |   |   |   |   |   Maximum Distance <= 0.079556
|   |   |   |   |   |   |   Ratio Minimum Endpoint to Endpoint Distance to Overall Minimum Distance <= 0.984307
|   |   |   |   |   |   |   |   Ratio Minimum Endpoint to Endpoint Distance to Overall Minimum Distance <= 0.981133: Ignore (15.0)
|   |   |   |   |   |   |   |   Ratio Minimum Endpoint to Endpoint Distance to Overall Minimum Distance > 0.981133
|   |   |   |   |   |   |   |   |   Minimum Distance <= 0.038553: Ignore (2.0)
|   |   |   |   |   |   |   |   |   Minimum Distance > 0.038553: NoJoin (4.0)
|   |   |   |   |   |   |   Ratio Minimum Endpoint to Endpoint Distance to Overall Minimum Distance > 0.984307: Ignore (65.0)
|   |   |   |   |   |   Maximum Distance > 0.079556
|   |   |   |   |   |   |   Ratio Minimum Endpoint to Any Point Distance to Overall Minimum Distance <= 0.998039
|   |   |   |   |   |   |   |   Minimum Endpoint to Any Point Distance <= 0.047365: NoJoin (3.0)
|   |   |   |   |   |   |   |   Minimum Endpoint to Any Point Distance > 0.047365: Ignore (33.0/4.0)
|   |   |   |   |   |   |   Ratio Minimum Endpoint to Any Point Distance to Overall Minimum Distance > 0.998039
|   |   |   |   |   |   |   |   Ratio Minimum Endpoint to Endpoint Distance to Overall Minimum Distance <= 0.998258: NoJoin (12.0/1.0)
|   |   |   |   |   |   |   |   Ratio Minimum Endpoint to Endpoint Distance to Overall Minimum Distance > 0.998258: Ignore (4.0/1.0)
|   |   |   |   |   Time Gap > 2406
|   |   |   |   |   |   Vertical Overlap <= 0.003586: NoJoin (10.0)
|   |   |   |   |   |   Vertical Overlap > 0.003586
|   |   |   |   |   |   |   Distance Ratio A <= 0.896441: NoJoin (3.0)
|   |   |   |   |   |   |   Distance Ratio A > 0.896441
|   |   |   |   |   |   |   |   Time Gap <= 2717
|   |   |   |   |   |   |   |   |   Ratio Minimum Endpoint to Any Point Distance to Overall Minimum Distance <= 0.985613: Ignore (2.0)
|   |   |   |   |   |   |   |   |   Ratio Minimum Endpoint to Any Point Distance to Overall Minimum Distance > 0.985613
|   |   |   |   |   |   |   |   |   |   Distance Ratio B <= 0.918173: Ignore (3.0/1.0)
|   |   |   |   |   |   |   |   |   |   Distance Ratio B > 0.918173: NoJoin (4.0)
|   |   |   |   |   |   |   |   Time Gap > 2717: Ignore (6.0)
|   |   |   |   Part of Same Closed Path > 0: Ignore (54.0/1.0)
|   |   Time Gap > 2823
|   |   |   Vertical Overlap <= 0.001686: NoJoin (561.0/6.0)
|   |   |   Vertical Overlap > 0.001686
|   |   |   |   Part of Same Closed Path <= 0
|   |   |   |   |   Ratio Minimum Endpoint to Any Point Distance to Overall Minimum Distance <= 0.992272
|   |   |   |   |   |   Ratio Minimum Endpoint to Any Point Distance to Overall Minimum Distance <= 0.985827: NoJoin (28.0/1.0)
|   |   |   |   |   |   Ratio Minimum Endpoint to Any Point Distance to Overall Minimum Distance > 0.985827: Ignore (35.0/13.0)
|   |   |   |   |   Ratio Minimum Endpoint to Any Point Distance to Overall Minimum Distance > 0.992272: NoJoin (130.0/9.0)
|   |   |   |   Part of Same Closed Path > 0: Ignore (16.0)
|   Centroid Distance > 0.081576: NoJoin (46731.0/15.0)

Number of Leaves  : 	97

Size of the tree : 	193


Weight: 6.32

J48 pruned tree
------------------

Centroid Distance <= 0.129104
|   Minimum Distance <= 0.01473
|   |   Vertical Overlap <= 0.032667
|   |   |   Ratio Minimum Endpoint to Endpoint Distance to Overall Minimum Distance <= 0.997872
|   |   |   |   Time Gap <= 316: Join (320.08/1.5)
|   |   |   |   Time Gap > 316
|   |   |   |   |   Time Gap <= 15280
|   |   |   |   |   |   Horizontal Overlap <= 0.011461
|   |   |   |   |   |   |   Ratio Minimum Endpoint to Endpoint Distance to Overall Minimum Distance <= 0.954865: Join (70.13/0.5)
|   |   |   |   |   |   |   Ratio Minimum Endpoint to Endpoint Distance to Overall Minimum Distance > 0.954865
|   |   |   |   |   |   |   |   Maximum Distance <= 0.034688
|   |   |   |   |   |   |   |   |   Distance Ratio B <= 0.981312: Ignore (7.01)
|   |   |   |   |   |   |   |   |   Distance Ratio B > 0.981312: Join (45.08/0.5)
|   |   |   |   |   |   |   |   Maximum Distance > 0.034688
|   |   |   |   |   |   |   |   |   Minimum Endpoint to Endpoint Distance <= 0.006494
|   |   |   |   |   |   |   |   |   |   Minimum Endpoint to Any Point Distance <= 0.000752
|   |   |   |   |   |   |   |   |   |   |   Minimum Endpoint to Any Point Distance <= 0.000721
|   |   |   |   |   |   |   |   |   |   |   |   Distance Ratio A <= 0.999286: NoJoin (277.7)
|   |   |   |   |   |   |   |   |   |   |   |   Distance Ratio A > 0.999286: Join (19.03/0.5)
|   |   |   |   |   |   |   |   |   |   |   Minimum Endpoint to Any Point Distance > 0.000721: NoJoin (277.7)
|   |   |   |   |   |   |   |   |   |   Minimum Endpoint to Any Point Distance > 0.000752: Join (127.73/1.5)
|   |   |   |   |   |   |   |   |   Minimum Endpoint to Endpoint Distance > 0.006494
|   |   |   |   |   |   |   |   |   |   Minimum Distance <= 0.008241
|   |   |   |   |   |   |   |   |   |   |   Ratio Minimum Endpoint to Any Point Distance to Overall Minimum Distance <= 0.999044
|   |   |   |   |   |   |   |   |   |   |   |   Time Gap <= 951
|   |   |   |   |   |   |   |   |   |   |   |   |   Minimum Endpoint to Endpoint Distance <= 0.011678: Join (30.05)
|   |   |   |   |   |   |   |   |   |   |   |   |   Minimum Endpoint to Endpoint Distance > 0.011678: NoJoin (1122.31/11.52)
|   |   |   |   |   |   |   |   |   |   |   |   Time Gap > 951
|   |   |   |   |   |   |   |   |   |   |   |   |   Time Gap <= 5397
|   |   |   |   |   |   |   |   |   |   |   |   |   |   Time Gap <= 1655: NoJoin (1956.4/12.52)
|   |   |   |   |   |   |   |   |   |   |   |   |   |   Time Gap > 1655
|   |   |   |   |   |   |   |   |   |   |   |   |   |   |   Ratio Minimum Endpoint to Any Point Distance to Overall Minimum Distance <= 0.998946: Join (20.54/5.01)
|   |   |   |   |   |   |   |   |   |   |   |   |   |   |   Ratio Minimum Endpoint to Any Point Distance to Overall Minimum Distance > 0.998946: NoJoin (277.7)
|   |   |   |   |   |   |   |   |   |   |   |   |   Time Gap > 5397: NoJoin (1398.0/2.0)
|   |   |   |   |   |   |   |   |   |   |   Ratio Minimum Endpoint to Any Point Distance to Overall Minimum Distance > 0.999044
|   |   |   |   |   |   |   |   |   |   |   |   Ratio Minimum Endpoint to Endpoint Distance to Overall Minimum Distance <= 0.996239: Join (20.04/1.5)
|   |   |   |   |   |   |   |   |   |   |   |   Ratio Minimum Endpoint to Endpoint Distance to Overall Minimum Distance > 0.996239: NoJoin (278.7/1.0)
|   |   |   |   |   |   |   |   |   |   Minimum Distance > 0.008241
|   |   |   |   |   |   |   |   |   |   |   Vertical Overlap <= -0.011386: NoJoin (277.7)
|   |   |   |   |   |   |   |   |   |   |   Vertical Overlap > -0.011386
|   |   |   |   |   |   |   |   |   |   |   |   Distance Ratio A <= 0.979956: Ignore (14.03/2.0)
|   |   |   |   |   |   |   |   |   |   |   |   Distance Ratio A > 0.979956
|   |   |   |   |   |   |   |   |   |   |   |   |   Ratio Minimum Endpoint to Any Point Distance to Overall Minimum Distance <= 0.996582
|   |   |   |   |   |   |   |   |   |   |   |   |   |   Horizontal Overlap <= -0.003239: Ignore (2.0/0.5)
|   |   |   |   |   |   |   |   |   |   |   |   |   |   Horizontal Overlap > -0.003239
|   |   |   |   |   |   |   |   |   |   |   |   |   |   |   Minimum Distance <= 0.009709: Join (2.5/0.5)
|   |   |   |   |   |   |   |   |   |   |   |   |   |   |   Minimum Distance > 0.009709: NoJoin (2.5)
|   |   |   |   |   |   |   |   |   |   |   |   |   Ratio Minimum Endpoint to Any Point Distance to Overall Minimum Distance > 0.996582: Join (12.02/0.5)
|   |   |   |   |   |   Horizontal Overlap > 0.011461
|   |   |   |   |   |   |   Minimum Distance <= 0.00031
|   |   |   |   |   |   |   |   Minimum Endpoint to Endpoint Distance <= 0.004319: Join (20.04)
|   |   |   |   |   |   |   |   Minimum Endpoint to Endpoint Distance > 0.004319: NoJoin (566.91/8.01)
|   |   |   |   |   |   |   Minimum Distance > 0.00031
|   |   |   |   |   |   |   |   Ratio Minimum Endpoint to Endpoint Distance to Overall Minimum Distance <= 0.989783
|   |   |   |   |   |   |   |   |   Time Gap <= 5148: Join (19.54/1.5)
|   |   |   |   |   |   |   |   |   Time Gap > 5148: NoJoin (3.01/0.5)
|   |   |   |   |   |   |   |   Ratio Minimum Endpoint to Endpoint Distance to Overall Minimum Distance > 0.989783
|   |   |   |   |   |   |   |   |   Ratio Minimum Endpoint to Any Point Distance to Overall Minimum Distance <= 0.998656: Join (608.49/0.5)
|   |   |   |   |   |   |   |   |   Ratio Minimum Endpoint to Any Point Distance to Overall Minimum Distance > 0.998656
|   |   |   |   |   |   |   |   |   |   Minimum Distance <= 0.008814: Join (32.06)
|   |   |   |   |   |   |   |   |   |   Minimum Distance > 0.008814: NoJoin (3.01/0.5)
|   |   |   |   |   Time Gap > 15280
|   |   |   |   |   |   Minimum Endpoint to Any Point Distance <= 0.01213: Join (586.95/7.51)
|   |   |   |   |   |   Minimum Endpoint to Any Point Distance > 0.01213: NoJoin (283.21/1.5)
|   |   |   Ratio Minimum Endpoint to Endpoint Distance to Overall Minimum Distance > 0.997872
|   |   |   |   Time Gap <= 1853
|   |   |   |   |   Vertical Overlap <= -0.003409
|   |   |   |   |   |   Distance Ratio B <= 0.980883: Ignore (4.51)
|   |   |   |   |   |   Distance Ratio B > 0.980883: Join (26.55/0.5)
|   |   |   |   |   Vertical Overlap > -0.003409: Join (794.82/2.5)
|   |   |   |   Time Gap > 1853
|   |   |   |   |   Distance Ratio A <= 0.989997: NoJoin (6.01/2.5)
|   |   |   |   |   Distance Ratio A > 0.989997: Join (22.54/0.5)
|   |   Vertical Overlap > 0.032667
|   |   |   Horizontal Overlap <= -0.004726: Ignore (287.21/6.01)
|   |   |   Horizontal Overlap > -0.004726
|   |   |   |   Distance Ratio B <= 0.99428
|   |   |   |   |   Distance Ratio A <= 0.981469: Ignore (6.01)
|   |   |   |   |   Distance Ratio A > 0.981469
|   |   |   |   |   |   Distance Ratio B <= 0.983222: Ignore (3.51/1.0)
|   |   |   |   |   |   Distance Ratio B > 0.983222: Join (20.54)
|   |   |   |   Distance Ratio B > 0.99428: Join (784.11/1.0)
|   Minimum Distance > 0.01473
|   |   Horizontal Overlap <= -0.061836
|   |   |   Minimum Distance <= 0.062713: NoJoin (556.9/278.2)
|   |   |   Minimum Distance > 0.062713
|   |   |   |   Minimum Distance <= 0.094045
|   |   |   |   |   Ratio Minimum Endpoint to Endpoint Distance to Overall Minimum Distance <= 0.954278: NoJoin (73.63)
|   |   |   |   |   Ratio Minimum Endpoint to Endpoint Distance to Overall Minimum Distance > 0.954278
|   |   |   |   |   |   Vertical Overlap <= 0.007289
|   |   |   |   |   |   |   Maximum Distance <= 0.088944: Ignore (279.2/1.5)
|   |   |   |   |   |   |   Maximum Distance > 0.088944: NoJoin (174.31/0.5)
|   |   |   |   |   |   Vertical Overlap > 0.007289
|   |   |   |   |   |   |   Ratio Minimum Endpoint to Any Point Distance to Overall Minimum Distance <= 0.993668
|   |   |   |   |   |   |   |   Centroid Distance <= 0.101944: Ignore (3067.69/11.02)
|   |   |   |   |   |   |   |   Centroid Distance > 0.101944
|   |   |   |   |   |   |   |   |   Minimum Distance <= 0.093771: NoJoin (29.05)
|   |   |   |   |   |   |   |   |   Minimum Distance > 0.093771: Ignore (277.7)
|   |   |   |   |   |   |   Ratio Minimum Endpoint to Any Point Distance to Overall Minimum Distance > 0.993668
|   |   |   |   |   |   |   |   Distance Ratio A <= 0.896912
|   |   |   |   |   |   |   |   |   Centroid Distance <= 0.091085: Ignore (1132.83/20.54)
|   |   |   |   |   |   |   |   |   Centroid Distance > 0.091085
|   |   |   |   |   |   |   |   |   |   Part of Same Closed Path <= 0: NoJoin (82.15)
|   |   |   |   |   |   |   |   |   |   Part of Same Closed Path > 0: Ignore (277.7)
|   |   |   |   |   |   |   |   Distance Ratio A > 0.896912: NoJoin (43.58/0.5)
|   |   |   |   Minimum Distance > 0.094045: NoJoin (289.02)
|   |   Horizontal Overlap > -0.061836
|   |   |   Time Gap <= 46261
|   |   |   |   Ratio Minimum Endpoint to Any Point Distance to Overall Minimum Distance <= 0.995206
|   |   |   |   |   Maximum Distance <= 0.067412
|   |   |   |   |   |   Vertical Overlap <= -0.022522
|   |   |   |   |   |   |   Part of Same Closed Path <= 0: NoJoin (18.53/1.5)
|   |   |   |   |   |   |   Part of Same Closed Path > 0: Ignore (3.01)
|   |   |   |   |   |   Vertical Overlap > -0.022522: Ignore (390.9/7.01)
|   |   |   |   |   Maximum Distance > 0.067412
|   |   |   |   |   |   Horizontal Overlap <= 0.070161
|   |   |   |   |   |   |   Ratio Minimum Endpoint to Endpoint Distance to Overall Minimum Distance <= 0.991397
|   |   |   |   |   |   |   |   Ratio Minimum Endpoint to Endpoint Distance to Overall Minimum Distance <= 0.963789
|   |   |   |   |   |   |   |   |   Part of Same Closed Path <= 0: NoJoin (66.12/4.51)
|   |   |   |   |   |   |   |   |   Part of Same Closed Path > 0: Ignore (3.51)
|   |   |   |   |   |   |   |   Ratio Minimum Endpoint to Endpoint Distance to Overall Minimum Distance > 0.963789
|   |   |   |   |   |   |   |   |   Time Gap <= 2304
|   |   |   |   |   |   |   |   |   |   Minimum Endpoint to Any Point Distance <= 0.066442
|   |   |   |   |   |   |   |   |   |   |   Ratio Minimum Endpoint to Endpoint Distance to Overall Minimum Distance <= 0.981294: Ignore (12.52/0.5)
|   |   |   |   |   |   |   |   |   |   |   Ratio Minimum Endpoint to Endpoint Distance to Overall Minimum Distance > 0.981294
|   |   |   |   |   |   |   |   |   |   |   |   Ratio Minimum Endpoint to Any Point Distance to Overall Minimum Distance <= 0.994208
|   |   |   |   |   |   |   |   |   |   |   |   |   Vertical Overlap <= 0.009051: NoJoin (4.51)
|   |   |   |   |   |   |   |   |   |   |   |   |   Vertical Overlap > 0.009051: Ignore (5.51)
|   |   |   |   |   |   |   |   |   |   |   |   Ratio Minimum Endpoint to Any Point Distance to Overall Minimum Distance > 0.994208: NoJoin (278.7/0.5)
|   |   |   |   |   |   |   |   |   |   Minimum Endpoint to Any Point Distance > 0.066442: NoJoin (565.41/2.0)
|   |   |   |   |   |   |   |   |   Time Gap > 2304: NoJoin (4357.8/16.53)
|   |   |   |   |   |   |   Ratio Minimum Endpoint to Endpoint Distance to Overall Minimum Distance > 0.991397
|   |   |   |   |   |   |   |   Time Gap <= 2722
|   |   |   |   |   |   |   |   |   Vertical Overlap <= -0.028911: NoJoin (8.52)
|   |   |   |   |   |   |   |   |   Vertical Overlap > -0.028911: Ignore (15.53/2.5)
|   |   |   |   |   |   |   |   Time Gap > 2722: NoJoin (154.28)
|   |   |   |   |   |   Horizontal Overlap > 0.070161: Ignore (280.2/1.5)
|   |   |   |   Ratio Minimum Endpoint to Any Point Distance to Overall Minimum Distance > 0.995206
|   |   |   |   |   Ratio Minimum Endpoint to Endpoint Distance to Overall Minimum Distance <= 0.957728: NoJoin (610.49/1.5)
|   |   |   |   |   Ratio Minimum Endpoint to Endpoint Distance to Overall Minimum Distance > 0.957728
|   |   |   |   |   |   Horizontal Overlap <= -0.033011
|   |   |   |   |   |   |   Maximum Distance <= 0.109177
|   |   |   |   |   |   |   |   Maximum Distance <= 0.088692
|   |   |   |   |   |   |   |   |   Distance Ratio A <= 0.922555
|   |   |   |   |   |   |   |   |   |   Horizontal Overlap <= -0.05341: Ignore (561.4/3.01)
|   |   |   |   |   |   |   |   |   |   Horizontal Overlap > -0.05341
|   |   |   |   |   |   |   |   |   |   |   Time Gap <= 2889
|   |   |   |   |   |   |   |   |   |   |   |   Maximum Distance <= 0.079534: Ignore (15.03/1.0)
|   |   |   |   |   |   |   |   |   |   |   |   Maximum Distance > 0.079534: NoJoin (2.0)
|   |   |   |   |   |   |   |   |   |   |   Time Gap > 2889: NoJoin (9.52/1.5)
|   |   |   |   |   |   |   |   |   Distance Ratio A > 0.922555: Ignore (1419.04/3.01)
|   |   |   |   |   |   |   |   Maximum Distance > 0.088692
|   |   |   |   |   |   |   |   |   Maximum Distance <= 0.108795
|   |   |   |   |   |   |   |   |   |   Time Gap <= 3182
|   |   |   |   |   |   |   |   |   |   |   Horizontal Overlap <= -0.051022: Ignore (2.0)
|   |   |   |   |   |   |   |   |   |   |   Horizontal Overlap > -0.051022: NoJoin (3.01)
|   |   |   |   |   |   |   |   |   |   Time Gap > 3182: NoJoin (36.57)
|   |   |   |   |   |   |   |   |   Maximum Distance > 0.108795: Ignore (277.7)
|   |   |   |   |   |   |   Maximum Distance > 0.109177: NoJoin (96.17)
|   |   |   |   |   |   Horizontal Overlap > -0.033011
|   |   |   |   |   |   |   Ratio Minimum Endpoint to Endpoint Distance to Overall Minimum Distance <= 0.962506: Ignore (558.4/2.0)
|   |   |   |   |   |   |   Ratio Minimum Endpoint to Endpoint Distance to Overall Minimum Distance > 0.962506
|   |   |   |   |   |   |   |   Vertical Overlap <= 0.007094
|   |   |   |   |   |   |   |   |   Centroid Distance <= 0.12904
|   |   |   |   |   |   |   |   |   |   Maximum Distance <= 0.051016
|   |   |   |   |   |   |   |   |   |   |   Vertical Overlap <= -0.014698
|   |   |   |   |   |   |   |   |   |   |   |   Time Gap <= 1560: Ignore (20.54/0.5)
|   |   |   |   |   |   |   |   |   |   |   |   Time Gap > 1560: NoJoin (14.53/1.0)
|   |   |   |   |   |   |   |   |   |   |   Vertical Overlap > -0.014698: Ignore (20.04)
|   |   |   |   |   |   |   |   |   |   Maximum Distance > 0.051016
|   |   |   |   |   |   |   |   |   |   |   Minimum Endpoint to Endpoint Distance <= 0.037406
|   |   |   |   |   |   |   |   |   |   |   |   Part of Same Closed Path <= 0
|   |   |   |   |   |   |   |   |   |   |   |   |   Vertical Overlap <= -0.015706: NoJoin (333.8/2.0)
|   |   |   |   |   |   |   |   |   |   |   |   |   Vertical Overlap > -0.015706
|   |   |   |   |   |   |   |   |   |   |   |   |   |   Time Gap <= 1742: Ignore (6.01/1.0)
|   |   |   |   |   |   |   |   |   |   |   |   |   |   Time Gap > 1742: NoJoin (8.52/3.51)
|   |   |   |   |   |   |   |   |   |   |   |   Part of Same Closed Path > 0: Ignore (15.03)
|   |   |   |   |   |   |   |   |   |   |   Minimum Endpoint to Endpoint Distance > 0.037406: NoJoin (1728.4/8.52)
|   |   |   |   |   |   |   |   |   Centroid Distance > 0.12904: Ignore (277.7)
|   |   |   |   |   |   |   |   Vertical Overlap > 0.007094
|   |   |   |   |   |   |   |   |   Distance Ratio B <= 0.994446
|   |   |   |   |   |   |   |   |   |   Time Gap <= 3360: Ignore (363.35/0.5)
|   |   |   |   |   |   |   |   |   |   Time Gap > 3360
|   |   |   |   |   |   |   |   |   |   |   Maximum Distance <= 0.070974: Ignore (5.51)
|   |   |   |   |   |   |   |   |   |   |   Maximum Distance > 0.070974
|   |   |   |   |   |   |   |   |   |   |   |   Distance Ratio B <= 0.983482: NoJoin (5.51/0.5)
|   |   |   |   |   |   |   |   |   |   |   |   Distance Ratio B > 0.983482: Ignore (2.0/0.5)
|   |   |   |   |   |   |   |   |   Distance Ratio B > 0.994446: Join (15.53/1.0)
|   |   |   Time Gap > 46261
|   |   |   |   Centroid Distance <= 0.068782: Ignore (851.12/15.03)
|   |   |   |   Centroid Distance > 0.068782: NoJoin (74.63)
Centroid Distance > 0.129104: NoJoin (21786.73)

Number of Leaves  : 	97

Size of the tree : 	193


Weight: 4.7

J48 pruned tree
------------------

Centroid Distance <= 0.129104
|   Distance Ratio B <= 0.976204
|   |   Ratio Minimum Endpoint to Any Point Distance to Overall Minimum Distance <= 0.978996
|   |   |   Minimum Endpoint to Any Point Distance <= 0.074603
|   |   |   |   Time Gap <= 1455: Ignore (30.57/0.25)
|   |   |   |   Time Gap > 1455: NoJoin (435.84/0.51)
|   |   |   Minimum Endpoint to Any Point Distance > 0.074603
|   |   |   |   Time Gap <= 3911: Ignore (15717.58/32.08)
|   |   |   |   Time Gap > 3911: NoJoin (143.25)
|   |   Ratio Minimum Endpoint to Any Point Distance to Overall Minimum Distance > 0.978996
|   |   |   Part of Same Closed Path <= 0
|   |   |   |   Distance Ratio B <= 0.886149
|   |   |   |   |   Vertical Overlap <= 0.014631
|   |   |   |   |   |   Distance Ratio A <= 0.886688
|   |   |   |   |   |   |   Time Gap <= 1619
|   |   |   |   |   |   |   |   Horizontal Overlap <= -0.062258: Ignore (28.8/0.76)
|   |   |   |   |   |   |   |   Horizontal Overlap > -0.062258: NoJoin (144.66/0.25)
|   |   |   |   |   |   |   Time Gap > 1619: NoJoin (1550.58)
|   |   |   |   |   |   Distance Ratio A > 0.886688
|   |   |   |   |   |   |   Centroid Distance <= 0.072499: Ignore (56.33/0.25)
|   |   |   |   |   |   |   Centroid Distance > 0.072499: NoJoin (8.09)
|   |   |   |   |   Vertical Overlap > 0.014631
|   |   |   |   |   |   Horizontal Overlap <= -0.072524: NoJoin (312.01)
|   |   |   |   |   |   Horizontal Overlap > -0.072524
|   |   |   |   |   |   |   Distance Ratio A <= 0.858381: Ignore (422.36/2.02)
|   |   |   |   |   |   |   Distance Ratio A > 0.858381
|   |   |   |   |   |   |   |   Vertical Overlap <= 0.018244: Ignore (254.04/58.36)
|   |   |   |   |   |   |   |   Vertical Overlap > 0.018244: NoJoin (398.29)
|   |   |   |   Distance Ratio B > 0.886149
|   |   |   |   |   Ratio Minimum Endpoint to Any Point Distance to Overall Minimum Distance <= 0.987068
|   |   |   |   |   |   Vertical Overlap <= 0.007909
|   |   |   |   |   |   |   Time Gap <= 2287: Ignore (3.79/1.52)
|   |   |   |   |   |   |   Time Gap > 2287: NoJoin (103.83)
|   |   |   |   |   |   Vertical Overlap > 0.007909
|   |   |   |   |   |   |   Time Gap <= 8998
|   |   |   |   |   |   |   |   Horizontal Overlap <= -0.026915: Ignore (845.9/3.03)
|   |   |   |   |   |   |   |   Horizontal Overlap > -0.026915
|   |   |   |   |   |   |   |   |   Minimum Endpoint to Endpoint Distance <= 0.036736: Ignore (29.56)
|   |   |   |   |   |   |   |   |   Minimum Endpoint to Endpoint Distance > 0.036736: NoJoin (28.8/0.51)
|   |   |   |   |   |   |   Time Gap > 8998
|   |   |   |   |   |   |   |   Ratio Minimum Endpoint to Any Point Distance to Overall Minimum Distance <= 0.985511: NoJoin (57.6/0.25)
|   |   |   |   |   |   |   |   Ratio Minimum Endpoint to Any Point Distance to Overall Minimum Distance > 0.985511: Ignore (28.04)
|   |   |   |   |   Ratio Minimum Endpoint to Any Point Distance to Overall Minimum Distance > 0.987068
|   |   |   |   |   |   Minimum Endpoint to Endpoint Distance <= 0.02454
|   |   |   |   |   |   |   Vertical Overlap <= -0.011965
|   |   |   |   |   |   |   |   Distance Ratio B <= 0.960541: Ignore (58.36/0.25)
|   |   |   |   |   |   |   |   Distance Ratio B > 0.960541: NoJoin (8.85/2.02)
|   |   |   |   |   |   |   Vertical Overlap > -0.011965: Ignore (211.45)
|   |   |   |   |   |   Minimum Endpoint to Endpoint Distance > 0.02454
|   |   |   |   |   |   |   Minimum Endpoint to Any Point Distance <= 0.089955
|   |   |   |   |   |   |   |   Distance Ratio A <= 0.962405
|   |   |   |   |   |   |   |   |   Minimum Endpoint to Endpoint Distance <= 0.03477
|   |   |   |   |   |   |   |   |   |   Minimum Endpoint to Endpoint Distance <= 0.025155: NoJoin (28.29)
|   |   |   |   |   |   |   |   |   |   Minimum Endpoint to Endpoint Distance > 0.025155
|   |   |   |   |   |   |   |   |   |   |   Time Gap <= 50940
|   |   |   |   |   |   |   |   |   |   |   |   Vertical Overlap <= -0.010852
|   |   |   |   |   |   |   |   |   |   |   |   |   Time Gap <= 4084
|   |   |   |   |   |   |   |   |   |   |   |   |   |   Centroid Distance <= 0.038844: Ignore (140.71/0.51)
|   |   |   |   |   |   |   |   |   |   |   |   |   |   Centroid Distance > 0.038844
|   |   |   |   |   |   |   |   |   |   |   |   |   |   |   Minimum Endpoint to Any Point Distance <= 0.03196: NoJoin (3.03)
|   |   |   |   |   |   |   |   |   |   |   |   |   |   |   Minimum Endpoint to Any Point Distance > 0.03196: Ignore (28.55/0.51)
|   |   |   |   |   |   |   |   |   |   |   |   |   Time Gap > 4084: NoJoin (13.39)
|   |   |   |   |   |   |   |   |   |   |   |   Vertical Overlap > -0.010852: Ignore (297.5/1.26)
|   |   |   |   |   |   |   |   |   |   |   Time Gap > 50940: NoJoin (28.04)
|   |   |   |   |   |   |   |   |   Minimum Endpoint to Endpoint Distance > 0.03477
|   |   |   |   |   |   |   |   |   |   Centroid Distance <= 0.037612: NoJoin (283.26/2.78)
|   |   |   |   |   |   |   |   |   |   Centroid Distance > 0.037612
|   |   |   |   |   |   |   |   |   |   |   Maximum Distance <= 0.065892
|   |   |   |   |   |   |   |   |   |   |   |   Ratio Minimum Endpoint to Endpoint Distance to Overall Minimum Distance <= 0.98598
|   |   |   |   |   |   |   |   |   |   |   |   |   Vertical Overlap <= 0.01292: NoJoin (60.12/2.27)
|   |   |   |   |   |   |   |   |   |   |   |   |   Vertical Overlap > 0.01292: Ignore (2.78/0.25)
|   |   |   |   |   |   |   |   |   |   |   |   Ratio Minimum Endpoint to Endpoint Distance to Overall Minimum Distance > 0.98598
|   |   |   |   |   |   |   |   |   |   |   |   |   Vertical Overlap <= -0.025753
|   |   |   |   |   |   |   |   |   |   |   |   |   |   Time Gap <= 1024: Ignore (28.29/0.25)
|   |   |   |   |   |   |   |   |   |   |   |   |   |   Time Gap > 1024: NoJoin (16.68)
|   |   |   |   |   |   |   |   |   |   |   |   |   Vertical Overlap > -0.025753: Ignore (462.87/0.51)
|   |   |   |   |   |   |   |   |   |   |   Maximum Distance > 0.065892
|   |   |   |   |   |   |   |   |   |   |   |   Minimum Endpoint to Endpoint Distance <= 0.085223
|   |   |   |   |   |   |   |   |   |   |   |   |   Horizontal Overlap <= -0.055218
|   |   |   |   |   |   |   |   |   |   |   |   |   |   Distance Ratio B <= 0.890598: NoJoin (146.01/0.25)
|   |   |   |   |   |   |   |   |   |   |   |   |   |   Distance Ratio B > 0.890598
|   |   |   |   |   |   |   |   |   |   |   |   |   |   |   Minimum Endpoint to Endpoint Distance <= 0.066905: NoJoin (90.69/1.26)
|   |   |   |   |   |   |   |   |   |   |   |   |   |   |   Minimum Endpoint to Endpoint Distance > 0.066905
|   |   |   |   |   |   |   |   |   |   |   |   |   |   |   |   Ratio Minimum Endpoint to Any Point Distance to Overall Minimum Distance <= 0.992943: NoJoin (308.86/56.84)
|   |   |   |   |   |   |   |   |   |   |   |   |   |   |   |   Ratio Minimum Endpoint to Any Point Distance to Overall Minimum Distance > 0.992943
|   |   |   |   |   |   |   |   |   |   |   |   |   |   |   |   |   Maximum Distance <= 0.086397: NoJoin (28.29/0.25)
|   |   |   |   |   |   |   |   |   |   |   |   |   |   |   |   |   Maximum Distance > 0.086397
|   |   |   |   |   |   |   |   |   |   |   |   |   |   |   |   |   |   Horizontal Overlap <= -0.066409
|   |   |   |   |   |   |   |   |   |   |   |   |   |   |   |   |   |   |   Distance Ratio B <= 0.892357: Ignore (280.48/0.25)
|   |   |   |   |   |   |   |   |   |   |   |   |   |   |   |   |   |   |   Distance Ratio B > 0.892357: NoJoin (122.27)
|   |   |   |   |   |   |   |   |   |   |   |   |   |   |   |   |   |   Horizontal Overlap > -0.066409
|   |   |   |   |   |   |   |   |   |   |   |   |   |   |   |   |   |   |   Centroid Distance <= 0.086232: Ignore (871.99/3.29)
|   |   |   |   |   |   |   |   |   |   |   |   |   |   |   |   |   |   |   Centroid Distance > 0.086232
|   |   |   |   |   |   |   |   |   |   |   |   |   |   |   |   |   |   |   |   Ratio Minimum Endpoint to Any Point Distance to Overall Minimum Distance <= 0.99369: Ignore (140.11)
|   |   |   |   |   |   |   |   |   |   |   |   |   |   |   |   |   |   |   |   Ratio Minimum Endpoint to Any Point Distance to Overall Minimum Distance > 0.99369: NoJoin (8.85)
|   |   |   |   |   |   |   |   |   |   |   |   |   Horizontal Overlap > -0.055218
|   |   |   |   |   |   |   |   |   |   |   |   |   |   Centroid Distance <= 0.060424
|   |   |   |   |   |   |   |   |   |   |   |   |   |   |   Minimum Endpoint to Endpoint Distance <= 0.063417
|   |   |   |   |   |   |   |   |   |   |   |   |   |   |   |   Vertical Overlap <= 0.011696
|   |   |   |   |   |   |   |   |   |   |   |   |   |   |   |   |   Ratio Minimum Endpoint to Endpoint Distance to Overall Minimum Distance <= 0.997934: NoJoin (937.86/140.96)
|   |   |   |   |   |   |   |   |   |   |   |   |   |   |   |   |   Ratio Minimum Endpoint to Endpoint Distance to Overall Minimum Distance > 0.997934
|   |   |   |   |   |   |   |   |   |   |   |   |   |   |   |   |   |   Centroid Distance <= 0.05467: Ignore (197.71/2.02)
|   |   |   |   |   |   |   |   |   |   |   |   |   |   |   |   |   |   Centroid Distance > 0.05467: NoJoin (31.33)
|   |   |   |   |   |   |   |   |   |   |   |   |   |   |   |   Vertical Overlap > 0.011696
|   |   |   |   |   |   |   |   |   |   |   |   |   |   |   |   |   Minimum Distance <= 0.046636: Ignore (451.5/1.52)
|   |   |   |   |   |   |   |   |   |   |   |   |   |   |   |   |   Minimum Distance > 0.046636
|   |   |   |   |   |   |   |   |   |   |   |   |   |   |   |   |   |   Maximum Distance <= 0.075925: Ignore (29.3/0.25)
|   |   |   |   |   |   |   |   |   |   |   |   |   |   |   |   |   |   Maximum Distance > 0.075925: NoJoin (29.05)
|   |   |   |   |   |   |   |   |   |   |   |   |   |   |   Minimum Endpoint to Endpoint Distance > 0.063417: Ignore (364.34/0.51)
|   |   |   |   |   |   |   |   |   |   |   |   |   |   Centroid Distance > 0.060424
|   |   |   |   |   |   |   |   |   |   |   |   |   |   |   Time Gap <= 66244
|   |   |   |   |   |   |   |   |   |   |   |   |   |   |   |   Ratio Minimum Endpoint to Any Point Distance to Overall Minimum Distance <= 0.989423
|   |   |   |   |   |   |   |   |   |   |   |   |   |   |   |   |   Vertical Overlap <= 0.008916: NoJoin (6.07)
|   |   |   |   |   |   |   |   |   |   |   |   |   |   |   |   |   Vertical Overlap > 0.008916: Ignore (84.12/0.25)
|   |   |   |   |   |   |   |   |   |   |   |   |   |   |   |   Ratio Minimum Endpoint to Any Point Distance to Overall Minimum Distance > 0.989423
|   |   |   |   |   |   |   |   |   |   |   |   |   |   |   |   |   Horizontal Overlap <= -0.051669
|   |   |   |   |   |   |   |   |   |   |   |   |   |   |   |   |   |   Ratio Minimum Endpoint to Endpoint Distance to Overall Minimum Distance <= 0.980942: Ignore (56.33/0.76)
|   |   |   |   |   |   |   |   |   |   |   |   |   |   |   |   |   |   Ratio Minimum Endpoint to Endpoint Distance to Overall Minimum Distance > 0.980942: NoJoin (204.53/1.01)
|   |   |   |   |   |   |   |   |   |   |   |   |   |   |   |   |   Horizontal Overlap > -0.051669: NoJoin (1604.57/3.03)
|   |   |   |   |   |   |   |   |   |   |   |   |   |   |   Time Gap > 66244: Ignore (144.41/4.04)
|   |   |   |   |   |   |   |   |   |   |   |   Minimum Endpoint to Endpoint Distance > 0.085223: NoJoin (228.39)
|   |   |   |   |   |   |   |   Distance Ratio A > 0.962405
|   |   |   |   |   |   |   |   |   Minimum Distance <= 0.016382: Ignore (27.79)
|   |   |   |   |   |   |   |   |   Minimum Distance > 0.016382
|   |   |   |   |   |   |   |   |   |   Time Gap <= 2187
|   |   |   |   |   |   |   |   |   |   |   Vertical Overlap <= -0.014446: NoJoin (29.05/0.25)
|   |   |   |   |   |   |   |   |   |   |   Vertical Overlap > -0.014446: Ignore (9.1)
|   |   |   |   |   |   |   |   |   |   Time Gap > 2187: NoJoin (484.68/0.25)
|   |   |   |   |   |   |   Minimum Endpoint to Any Point Distance > 0.089955
|   |   |   |   |   |   |   |   Time Gap <= 2240: Ignore (423.87/3.54)
|   |   |   |   |   |   |   |   Time Gap > 2240: NoJoin (26.54)
|   |   |   Part of Same Closed Path > 0
|   |   |   |   Ratio Minimum Endpoint to Any Point Distance to Overall Minimum Distance <= 0.979855: NoJoin (140.62/0.51)
|   |   |   |   Ratio Minimum Endpoint to Any Point Distance to Overall Minimum Distance > 0.979855
|   |   |   |   |   Time Gap <= 429
|   |   |   |   |   |   Ratio Minimum Endpoint to Endpoint Distance to Overall Minimum Distance <= 0.987008: NoJoin (140.11)
|   |   |   |   |   |   Ratio Minimum Endpoint to Endpoint Distance to Overall Minimum Distance > 0.987008: Ignore (65.18)
|   |   |   |   |   Time Gap > 429: Ignore (1032.19/1.52)
|   Distance Ratio B > 0.976204
|   |   Vertical Overlap <= 0.032667
|   |   |   Ratio Minimum Endpoint to Any Point Distance to Overall Minimum Distance <= 0.954723
|   |   |   |   Minimum Distance <= 0.008407: Join (138.2)
|   |   |   |   Minimum Distance > 0.008407: Ignore (140.96/1.01)
|   |   |   Ratio Minimum Endpoint to Any Point Distance to Overall Minimum Distance > 0.954723
|   |   |   |   Horizontal Overlap <= -0.007497
|   |   |   |   |   Time Gap <= 4312
|   |   |   |   |   |   Distance Ratio A <= 0.981895: Ignore (118.99/1.01)
|   |   |   |   |   |   Distance Ratio A > 0.981895: Join (30.57/0.76)
|   |   |   |   |   Time Gap > 4312: NoJoin (143.14)
|   |   |   |   Horizontal Overlap > -0.007497
|   |   |   |   |   Ratio Minimum Endpoint to Endpoint Distance to Overall Minimum Distance <= 0.998708
|   |   |   |   |   |   Distance Ratio B <= 0.982781: NoJoin (423.96/57.6)
|   |   |   |   |   |   Distance Ratio B > 0.982781
|   |   |   |   |   |   |   Distance Ratio A <= 0.986397
|   |   |   |   |   |   |   |   Minimum Endpoint to Any Point Distance <= 0.024306
|   |   |   |   |   |   |   |   |   Vertical Overlap <= 0.018543: Join (286.38/3.54)
|   |   |   |   |   |   |   |   |   Vertical Overlap > 0.018543
|   |   |   |   |   |   |   |   |   |   Vertical Overlap <= 0.019496: Ignore (28.04)
|   |   |   |   |   |   |   |   |   |   Vertical Overlap > 0.019496
|   |   |   |   |   |   |   |   |   |   |   Distance Ratio A <= 0.977428: Ignore (30.82/0.51)
|   |   |   |   |   |   |   |   |   |   |   Distance Ratio A > 0.977428: Join (58.61/0.25)
|   |   |   |   |   |   |   |   Minimum Endpoint to Any Point Distance > 0.024306: NoJoin (30.31)
|   |   |   |   |   |   |   Distance Ratio A > 0.986397
|   |   |   |   |   |   |   |   Vertical Overlap <= 0.009505
|   |   |   |   |   |   |   |   |   Centroid Distance <= 0.060424
|   |   |   |   |   |   |   |   |   |   Horizontal Overlap <= -0.000037: Join (712.9)
|   |   |   |   |   |   |   |   |   |   Horizontal Overlap > -0.000037
|   |   |   |   |   |   |   |   |   |   |   Minimum Endpoint to Any Point Distance <= 0.003331
|   |   |   |   |   |   |   |   |   |   |   |   Minimum Distance <= 0.000489: Join (437.46/0.25)
|   |   |   |   |   |   |   |   |   |   |   |   Minimum Distance > 0.000489
|   |   |   |   |   |   |   |   |   |   |   |   |   Ratio Minimum Endpoint to Any Point Distance to Overall Minimum Distance <= 0.995829: NoJoin (29.56/1.77)
|   |   |   |   |   |   |   |   |   |   |   |   |   Ratio Minimum Endpoint to Any Point Distance to Overall Minimum Distance > 0.995829: Join (31.09)
|   |   |   |   |   |   |   |   |   |   |   Minimum Endpoint to Any Point Distance > 0.003331
|   |   |   |   |   |   |   |   |   |   |   |   Minimum Endpoint to Endpoint Distance <= 0.005282
|   |   |   |   |   |   |   |   |   |   |   |   |   Ratio Minimum Endpoint to Any Point Distance to Overall Minimum Distance <= 0.995295: Join (161.85)
|   |   |   |   |   |   |   |   |   |   |   |   |   Ratio Minimum Endpoint to Any Point Distance to Overall Minimum Distance > 0.995295
|   |   |   |   |   |   |   |   |   |   |   |   |   |   Ratio Minimum Endpoint to Endpoint Distance to Overall Minimum Distance <= 0.994228: NoJoin (27.79)
|   |   |   |   |   |   |   |   |   |   |   |   |   |   Ratio Minimum Endpoint to Endpoint Distance to Overall Minimum Distance > 0.994228: Join (3.54)
|   |   |   |   |   |   |   |   |   |   |   |   Minimum Endpoint to Endpoint Distance > 0.005282
|   |   |   |   |   |   |   |   |   |   |   |   |   Time Gap <= 1483
|   |   |   |   |   |   |   |   |   |   |   |   |   |   Distance Ratio A <= 0.999968: Join (152.84)
|   |   |   |   |   |   |   |   |   |   |   |   |   |   Distance Ratio A > 0.999968
|   |   |   |   |   |   |   |   |   |   |   |   |   |   |   Vertical Overlap <= 0.007058
|   |   |   |   |   |   |   |   |   |   |   |   |   |   |   |   Distance Ratio B <= 0.999829: Join (31.58)
|   |   |   |   |   |   |   |   |   |   |   |   |   |   |   |   Distance Ratio B > 0.999829
|   |   |   |   |   |   |   |   |   |   |   |   |   |   |   |   |   Ratio Minimum Endpoint to Endpoint Distance to Overall Minimum Distance <= 0.984859
|   |   |   |   |   |   |   |   |   |   |   |   |   |   |   |   |   |   Minimum Distance <= 0.008818: Join (4.04)
|   |   |   |   |   |   |   |   |   |   |   |   |   |   |   |   |   |   Minimum Distance > 0.008818: NoJoin (28.04)
|   |   |   |   |   |   |   |   |   |   |   |   |   |   |   |   |   Ratio Minimum Endpoint to Endpoint Distance to Overall Minimum Distance > 0.984859: NoJoin (284.52/4.3)
|   |   |   |   |   |   |   |   |   |   |   |   |   |   |   Vertical Overlap > 0.007058: Join (61.14)
|   |   |   |   |   |   |   |   |   |   |   |   |   Time Gap > 1483
|   |   |   |   |   |   |   |   |   |   |   |   |   |   Minimum Endpoint to Endpoint Distance <= 0.008712
|   |   |   |   |   |   |   |   |   |   |   |   |   |   |   Vertical Overlap <= 0.007032: Join (4.3)
|   |   |   |   |   |   |   |   |   |   |   |   |   |   |   Vertical Overlap > 0.007032: NoJoin (83.87/0.51)
|   |   |   |   |   |   |   |   |   |   |   |   |   |   Minimum Endpoint to Endpoint Distance > 0.008712: NoJoin (395.67/1.77)
|   |   |   |   |   |   |   |   |   Centroid Distance > 0.060424: NoJoin (170.43/1.77)
|   |   |   |   |   |   |   |   Vertical Overlap > 0.009505
|   |   |   |   |   |   |   |   |   Minimum Endpoint to Endpoint Distance <= 0.020473
|   |   |   |   |   |   |   |   |   |   Horizontal Overlap <= 0.006053
|   |   |   |   |   |   |   |   |   |   |   Time Gap <= 313: Join (46.5)
|   |   |   |   |   |   |   |   |   |   |   Time Gap > 313
|   |   |   |   |   |   |   |   |   |   |   |   Maximum Distance <= 0.081039
|   |   |   |   |   |   |   |   |   |   |   |   |   Vertical Overlap <= 0.018274
|   |   |   |   |   |   |   |   |   |   |   |   |   |   Maximum Distance <= 0.039102
|   |   |   |   |   |   |   |   |   |   |   |   |   |   |   Vertical Overlap <= 0.009912: NoJoin (140.11)
|   |   |   |   |   |   |   |   |   |   |   |   |   |   |   Vertical Overlap > 0.009912: Join (37.39)
|   |   |   |   |   |   |   |   |   |   |   |   |   |   Maximum Distance > 0.039102
|   |   |   |   |   |   |   |   |   |   |   |   |   |   |   Minimum Endpoint to Any Point Distance <= 0.002462: NoJoin (367.63/31.58)
|   |   |   |   |   |   |   |   |   |   |   |   |   |   |   Minimum Endpoint to Any Point Distance > 0.002462
|   |   |   |   |   |   |   |   |   |   |   |   |   |   |   |   Minimum Endpoint to Endpoint Distance <= 0.007721
|   |   |   |   |   |   |   |   |   |   |   |   |   |   |   |   |   Centroid Distance <= 0.018691: NoJoin (28.29/0.25)
|   |   |   |   |   |   |   |   |   |   |   |   |   |   |   |   |   Centroid Distance > 0.018691: Join (5.56)
|   |   |   |   |   |   |   |   |   |   |   |   |   |   |   |   Minimum Endpoint to Endpoint Distance > 0.007721: NoJoin (1766.65/3.29)
|   |   |   |   |   |   |   |   |   |   |   |   |   Vertical Overlap > 0.018274: Join (41.94/0.25)
|   |   |   |   |   |   |   |   |   |   |   |   Maximum Distance > 0.081039
|   |   |   |   |   |   |   |   |   |   |   |   |   Distance Ratio A <= 0.991795: NoJoin (140.36)
|   |   |   |   |   |   |   |   |   |   |   |   |   Distance Ratio A > 0.991795: Join (59.11)
|   |   |   |   |   |   |   |   |   |   Horizontal Overlap > 0.006053
|   |   |   |   |   |   |   |   |   |   |   Time Gap <= 1066: Join (237.48)
|   |   |   |   |   |   |   |   |   |   |   Time Gap > 1066
|   |   |   |   |   |   |   |   |   |   |   |   Part of Same Closed Path <= 0
|   |   |   |   |   |   |   |   |   |   |   |   |   Centroid Distance <= 0.028288: NoJoin (57.85/1.77)
|   |   |   |   |   |   |   |   |   |   |   |   |   Centroid Distance > 0.028288: Join (197.96/0.51)
|   |   |   |   |   |   |   |   |   |   |   |   Part of Same Closed Path > 0
|   |   |   |   |   |   |   |   |   |   |   |   |   Vertical Overlap <= 0.022853: NoJoin (735.51/5.81)
|   |   |   |   |   |   |   |   |   |   |   |   |   Vertical Overlap > 0.022853: Join (65.43)
|   |   |   |   |   |   |   |   |   Minimum Endpoint to Endpoint Distance > 0.020473
|   |   |   |   |   |   |   |   |   |   Horizontal Overlap <= 0.004886: Join (367.83/1.01)
|   |   |   |   |   |   |   |   |   |   Horizontal Overlap > 0.004886: NoJoin (114.18/2.02)
|   |   |   |   |   Ratio Minimum Endpoint to Endpoint Distance to Overall Minimum Distance > 0.998708: Join (390.4/1.52)
|   |   Vertical Overlap > 0.032667
|   |   |   Distance Ratio B <= 0.997018
|   |   |   |   Ratio Minimum Endpoint to Any Point Distance to Overall Minimum Distance <= 0.991412: Join (197.2/0.51)
|   |   |   |   Ratio Minimum Endpoint to Any Point Distance to Overall Minimum Distance > 0.991412
|   |   |   |   |   Distance Ratio A <= 0.987766
|   |   |   |   |   |   Time Gap <= 2499: Ignore (376.73/0.76)
|   |   |   |   |   |   Time Gap > 2499
|   |   |   |   |   |   |   Distance Ratio A <= 0.980823: Ignore (29.05)
|   |   |   |   |   |   |   Distance Ratio A > 0.980823: Join (28.8/0.25)
|   |   |   |   |   Distance Ratio A > 0.987766: Join (99.28/0.51)
|   |   |   Distance Ratio B > 0.997018: Join (614.47)
Centroid Distance > 0.129104: NoJoin (10992.44)

Number of Leaves  : 	122

Size of the tree : 	243


Weight: 4.73

J48 pruned tree
------------------

Distance Ratio B <= 0.980883
|   Maximum Distance <= 0.12214
|   |   Distance Ratio B <= 0.886149
|   |   |   Ratio Minimum Endpoint to Any Point Distance to Overall Minimum Distance <= 0.999544
|   |   |   |   Vertical Overlap <= 0.013484
|   |   |   |   |   Distance Ratio A <= 0.886629
|   |   |   |   |   |   Vertical Overlap <= -0.031011
|   |   |   |   |   |   |   Vertical Overlap <= -0.031882: NoJoin (53.54)
|   |   |   |   |   |   |   Vertical Overlap > -0.031882: Ignore (14.02)
|   |   |   |   |   |   Vertical Overlap > -0.031011: NoJoin (538.64/0.13)
|   |   |   |   |   Distance Ratio A > 0.886629
|   |   |   |   |   |   Distance Ratio A <= 0.889481: Ignore (28.03)
|   |   |   |   |   |   Distance Ratio A > 0.889481: NoJoin (15.68/0.13)
|   |   |   |   Vertical Overlap > 0.013484
|   |   |   |   |   Horizontal Overlap <= -0.072591: NoJoin (100.92)
|   |   |   |   |   Horizontal Overlap > -0.072591: Ignore (482.47/156.95)
|   |   |   Ratio Minimum Endpoint to Any Point Distance to Overall Minimum Distance > 0.999544: NoJoin (1826.9/0.13)
|   |   Distance Ratio B > 0.886149
|   |   |   Time Gap <= 4224
|   |   |   |   Ratio Minimum Endpoint to Endpoint Distance to Overall Minimum Distance <= 0.996949
|   |   |   |   |   Maximum Distance <= 0.100444
|   |   |   |   |   |   Distance Ratio A <= 0.938685
|   |   |   |   |   |   |   Ratio Minimum Endpoint to Endpoint Distance to Overall Minimum Distance <= 0.94371: NoJoin (70.68)
|   |   |   |   |   |   |   Ratio Minimum Endpoint to Endpoint Distance to Overall Minimum Distance > 0.94371
|   |   |   |   |   |   |   |   Distance Ratio B <= 0.890964
|   |   |   |   |   |   |   |   |   Ratio Minimum Endpoint to Any Point Distance to Overall Minimum Distance <= 0.996872: Ignore (28.67/0.25)
|   |   |   |   |   |   |   |   |   Ratio Minimum Endpoint to Any Point Distance to Overall Minimum Distance > 0.996872: NoJoin (42.56)
|   |   |   |   |   |   |   |   Distance Ratio B > 0.890964
|   |   |   |   |   |   |   |   |   Ratio Minimum Endpoint to Endpoint Distance to Overall Minimum Distance <= 0.977898: Ignore (11238.51/15.17)
|   |   |   |   |   |   |   |   |   Ratio Minimum Endpoint to Endpoint Distance to Overall Minimum Distance > 0.977898
|   |   |   |   |   |   |   |   |   |   Time Gap <= 3206
|   |   |   |   |   |   |   |   |   |   |   Ratio Minimum Endpoint to Endpoint Distance to Overall Minimum Distance <= 0.985712
|   |   |   |   |   |   |   |   |   |   |   |   Vertical Overlap <= 0.010543: NoJoin (128.28/0.25)
|   |   |   |   |   |   |   |   |   |   |   |   Vertical Overlap > 0.010543: Ignore (171.23/14.27)
|   |   |   |   |   |   |   |   |   |   |   Ratio Minimum Endpoint to Endpoint Distance to Overall Minimum Distance > 0.985712: Ignore (6872.82/2.29)
|   |   |   |   |   |   |   |   |   |   Time Gap > 3206
|   |   |   |   |   |   |   |   |   |   |   Distance Ratio A <= 0.895381: Ignore (14.66/0.25)
|   |   |   |   |   |   |   |   |   |   |   Distance Ratio A > 0.895381: NoJoin (115.92/0.13)
|   |   |   |   |   |   Distance Ratio A > 0.938685
|   |   |   |   |   |   |   Maximum Distance <= 0.051016
|   |   |   |   |   |   |   |   Vertical Overlap <= -0.015639
|   |   |   |   |   |   |   |   |   Distance Ratio A <= 0.988938: Ignore (15.55/0.64)
|   |   |   |   |   |   |   |   |   Distance Ratio A > 0.988938: NoJoin (14.02)
|   |   |   |   |   |   |   |   Vertical Overlap > -0.015639: Ignore (1772.39)
|   |   |   |   |   |   |   Maximum Distance > 0.051016
|   |   |   |   |   |   |   |   Minimum Distance <= 0.016735
|   |   |   |   |   |   |   |   |   Distance Ratio A <= 0.995272: Ignore (87.3/0.51)
|   |   |   |   |   |   |   |   |   Distance Ratio A > 0.995272: Join (28.81)
|   |   |   |   |   |   |   |   Minimum Distance > 0.016735
|   |   |   |   |   |   |   |   |   Ratio Minimum Endpoint to Endpoint Distance to Overall Minimum Distance <= 0.976683: Ignore (58.11/0.89)
|   |   |   |   |   |   |   |   |   Ratio Minimum Endpoint to Endpoint Distance to Overall Minimum Distance > 0.976683
|   |   |   |   |   |   |   |   |   |   Minimum Endpoint to Endpoint Distance <= 0.067585
|   |   |   |   |   |   |   |   |   |   |   Time Gap <= 1250
|   |   |   |   |   |   |   |   |   |   |   |   Vertical Overlap <= -0.030204: NoJoin (14.4)
|   |   |   |   |   |   |   |   |   |   |   |   Vertical Overlap > -0.030204: Ignore (35.94/0.25)
|   |   |   |   |   |   |   |   |   |   |   Time Gap > 1250
|   |   |   |   |   |   |   |   |   |   |   |   Ratio Minimum Endpoint to Endpoint Distance to Overall Minimum Distance <= 0.985251: NoJoin (325.77/0.51)
|   |   |   |   |   |   |   |   |   |   |   |   Ratio Minimum Endpoint to Endpoint Distance to Overall Minimum Distance > 0.985251
|   |   |   |   |   |   |   |   |   |   |   |   |   Minimum Distance <= 0.032514
|   |   |   |   |   |   |   |   |   |   |   |   |   |   Ratio Minimum Endpoint to Any Point Distance to Overall Minimum Distance <= 0.99719
|   |   |   |   |   |   |   |   |   |   |   |   |   |   |   Ratio Minimum Endpoint to Any Point Distance to Overall Minimum Distance <= 0.994848: NoJoin (58.23/1.4)
|   |   |   |   |   |   |   |   |   |   |   |   |   |   |   Ratio Minimum Endpoint to Any Point Distance to Overall Minimum Distance > 0.994848: Ignore (29.31/0.38)
|   |   |   |   |   |   |   |   |   |   |   |   |   |   Ratio Minimum Endpoint to Any Point Distance to Overall Minimum Distance > 0.99719: NoJoin (185.84/0.38)
|   |   |   |   |   |   |   |   |   |   |   |   |   Minimum Distance > 0.032514: Ignore (29.57)
|   |   |   |   |   |   |   |   |   |   Minimum Endpoint to Endpoint Distance > 0.067585: Ignore (28.55)
|   |   |   |   |   Maximum Distance > 0.100444
|   |   |   |   |   |   Ratio Minimum Endpoint to Any Point Distance to Overall Minimum Distance <= 0.980045: NoJoin (141.73)
|   |   |   |   |   |   Ratio Minimum Endpoint to Any Point Distance to Overall Minimum Distance > 0.980045
|   |   |   |   |   |   |   Time Gap <= 3391
|   |   |   |   |   |   |   |   Horizontal Overlap <= -0.015279
|   |   |   |   |   |   |   |   |   Ratio Minimum Endpoint to Endpoint Distance to Overall Minimum Distance <= 0.987061: Ignore (412.45/29.18)
|   |   |   |   |   |   |   |   |   Ratio Minimum Endpoint to Endpoint Distance to Overall Minimum Distance > 0.987061: NoJoin (14.78/0.13)
|   |   |   |   |   |   |   |   Horizontal Overlap > -0.015279
|   |   |   |   |   |   |   |   |   Ratio Minimum Endpoint to Any Point Distance to Overall Minimum Distance <= 0.99405: Ignore (14.79/0.38)
|   |   |   |   |   |   |   |   |   Ratio Minimum Endpoint to Any Point Distance to Overall Minimum Distance > 0.99405: NoJoin (44.99/0.38)
|   |   |   |   |   |   |   Time Gap > 3391: NoJoin (72.26)
|   |   |   |   Ratio Minimum Endpoint to Endpoint Distance to Overall Minimum Distance > 0.996949
|   |   |   |   |   Distance Ratio A <= 0.996879
|   |   |   |   |   |   Vertical Overlap <= -0.029686
|   |   |   |   |   |   |   Centroid Distance <= 0.043961: Ignore (70.34)
|   |   |   |   |   |   |   Centroid Distance > 0.043961
|   |   |   |   |   |   |   |   Horizontal Overlap <= 0.056413: NoJoin (306.03/0.13)
|   |   |   |   |   |   |   |   Horizontal Overlap > 0.056413: Ignore (14.02)
|   |   |   |   |   |   Vertical Overlap > -0.029686
|   |   |   |   |   |   |   Ratio Minimum Endpoint to Endpoint Distance to Overall Minimum Distance <= 0.996995: NoJoin (70.8/0.13)
|   |   |   |   |   |   |   Ratio Minimum Endpoint to Endpoint Distance to Overall Minimum Distance > 0.996995
|   |   |   |   |   |   |   |   Maximum Distance <= 0.079584
|   |   |   |   |   |   |   |   |   Ratio Minimum Endpoint to Endpoint Distance to Overall Minimum Distance <= 0.997219
|   |   |   |   |   |   |   |   |   |   Ratio Minimum Endpoint to Endpoint Distance to Overall Minimum Distance <= 0.997196: Ignore (16.06/0.13)
|   |   |   |   |   |   |   |   |   |   Ratio Minimum Endpoint to Endpoint Distance to Overall Minimum Distance > 0.997196: NoJoin (14.4)
|   |   |   |   |   |   |   |   |   Ratio Minimum Endpoint to Endpoint Distance to Overall Minimum Distance > 0.997219: Ignore (608.18/1.02)
|   |   |   |   |   |   |   |   Maximum Distance > 0.079584
|   |   |   |   |   |   |   |   |   Minimum Endpoint to Any Point Distance <= 0.055413: NoJoin (43.84/0.51)
|   |   |   |   |   |   |   |   |   Minimum Endpoint to Any Point Distance > 0.055413: Ignore (298.18/28.93)
|   |   |   |   |   Distance Ratio A > 0.996879: Join (70.8)
|   |   |   Time Gap > 4224
|   |   |   |   Minimum Endpoint to Endpoint Distance <= 0.017901: Ignore (1626.57)
|   |   |   |   Minimum Endpoint to Endpoint Distance > 0.017901
|   |   |   |   |   Maximum Distance <= 0.110894
|   |   |   |   |   |   Centroid Distance <= 0.077683
|   |   |   |   |   |   |   Horizontal Overlap <= -0.061752: Ignore (226.81/0.25)
|   |   |   |   |   |   |   Horizontal Overlap > -0.061752
|   |   |   |   |   |   |   |   Distance Ratio A <= 0.888472: Ignore (71.57/0.76)
|   |   |   |   |   |   |   |   Distance Ratio A > 0.888472
|   |   |   |   |   |   |   |   |   Minimum Endpoint to Any Point Distance <= 0.067933
|   |   |   |   |   |   |   |   |   |   Minimum Endpoint to Any Point Distance <= 0.063887
|   |   |   |   |   |   |   |   |   |   |   Time Gap <= 34515
|   |   |   |   |   |   |   |   |   |   |   |   Minimum Endpoint to Any Point Distance <= 0.060991
|   |   |   |   |   |   |   |   |   |   |   |   |   Time Gap <= 4878
|   |   |   |   |   |   |   |   |   |   |   |   |   |   Distance Ratio B <= 0.955741
|   |   |   |   |   |   |   |   |   |   |   |   |   |   |   Maximum Distance <= 0.06157
|   |   |   |   |   |   |   |   |   |   |   |   |   |   |   |   Minimum Endpoint to Endpoint Distance <= 0.053899: NoJoin (87.25/0.64)
|   |   |   |   |   |   |   |   |   |   |   |   |   |   |   |   Minimum Endpoint to Endpoint Distance > 0.053899: Ignore (14.4)
|   |   |   |   |   |   |   |   |   |   |   |   |   |   |   Maximum Distance > 0.06157: NoJoin (301.76)
|   |   |   |   |   |   |   |   |   |   |   |   |   |   Distance Ratio B > 0.955741
|   |   |   |   |   |   |   |   |   |   |   |   |   |   |   Vertical Overlap <= 0.008841: NoJoin (15.04)
|   |   |   |   |   |   |   |   |   |   |   |   |   |   |   Vertical Overlap > 0.008841: Ignore (28.03)
|   |   |   |   |   |   |   |   |   |   |   |   |   Time Gap > 4878
|   |   |   |   |   |   |   |   |   |   |   |   |   |   Ratio Minimum Endpoint to Endpoint Distance to Overall Minimum Distance <= 0.984309
|   |   |   |   |   |   |   |   |   |   |   |   |   |   |   Centroid Distance <= 0.066723
|   |   |   |   |   |   |   |   |   |   |   |   |   |   |   |   Vertical Overlap <= 0.024026
|   |   |   |   |   |   |   |   |   |   |   |   |   |   |   |   |   Horizontal Overlap <= 0.010746
|   |   |   |   |   |   |   |   |   |   |   |   |   |   |   |   |   |   Minimum Endpoint to Endpoint Distance <= 0.064709
|   |   |   |   |   |   |   |   |   |   |   |   |   |   |   |   |   |   |   Ratio Minimum Endpoint to Any Point Distance to Overall Minimum Distance <= 0.994406
|   |   |   |   |   |   |   |   |   |   |   |   |   |   |   |   |   |   |   |   Ratio Minimum Endpoint to Any Point Distance to Overall Minimum Distance <= 0.979102: NoJoin (14.65)
|   |   |   |   |   |   |   |   |   |   |   |   |   |   |   |   |   |   |   |   Ratio Minimum Endpoint to Any Point Distance to Overall Minimum Distance > 0.979102: Ignore (198.62/0.89)
|   |   |   |   |   |   |   |   |   |   |   |   |   |   |   |   |   |   |   Ratio Minimum Endpoint to Any Point Distance to Overall Minimum Distance > 0.994406: NoJoin (45.5/0.25)
|   |   |   |   |   |   |   |   |   |   |   |   |   |   |   |   |   |   Minimum Endpoint to Endpoint Distance > 0.064709: Ignore (197.21/0.13)
|   |   |   |   |   |   |   |   |   |   |   |   |   |   |   |   |   Horizontal Overlap > 0.010746: NoJoin (15.55)
|   |   |   |   |   |   |   |   |   |   |   |   |   |   |   |   Vertical Overlap > 0.024026: NoJoin (29.19)
|   |   |   |   |   |   |   |   |   |   |   |   |   |   |   Centroid Distance > 0.066723: NoJoin (46.27)
|   |   |   |   |   |   |   |   |   |   |   |   |   |   Ratio Minimum Endpoint to Endpoint Distance to Overall Minimum Distance > 0.984309
|   |   |   |   |   |   |   |   |   |   |   |   |   |   |   Vertical Overlap <= 0.015994
|   |   |   |   |   |   |   |   |   |   |   |   |   |   |   |   Maximum Distance <= 0.052997
|   |   |   |   |   |   |   |   |   |   |   |   |   |   |   |   |   Time Gap <= 7690: NoJoin (17.72/0.38)
|   |   |   |   |   |   |   |   |   |   |   |   |   |   |   |   |   Time Gap > 7690: Ignore (57.21/0.13)
|   |   |   |   |   |   |   |   |   |   |   |   |   |   |   |   Maximum Distance > 0.052997: NoJoin (339.34/0.38)
|   |   |   |   |   |   |   |   |   |   |   |   |   |   |   Vertical Overlap > 0.015994: Ignore (198.06/14.66)
|   |   |   |   |   |   |   |   |   |   |   |   Minimum Endpoint to Any Point Distance > 0.060991: NoJoin (129.94)
|   |   |   |   |   |   |   |   |   |   |   Time Gap > 34515
|   |   |   |   |   |   |   |   |   |   |   |   Maximum Distance <= 0.07023
|   |   |   |   |   |   |   |   |   |   |   |   |   Horizontal Overlap <= -0.028842: Ignore (14.66)
|   |   |   |   |   |   |   |   |   |   |   |   |   Horizontal Overlap > -0.028842: NoJoin (28.42/0.13)
|   |   |   |   |   |   |   |   |   |   |   |   Maximum Distance > 0.07023: NoJoin (410.32/0.25)
|   |   |   |   |   |   |   |   |   |   Minimum Endpoint to Any Point Distance > 0.063887: Ignore (114.38/1.66)
|   |   |   |   |   |   |   |   |   Minimum Endpoint to Any Point Distance > 0.067933: NoJoin (157.67)
|   |   |   |   |   |   Centroid Distance > 0.077683: NoJoin (240.62)
|   |   |   |   |   Maximum Distance > 0.110894
|   |   |   |   |   |   Ratio Minimum Endpoint to Endpoint Distance to Overall Minimum Distance <= 0.96574: NoJoin (59.26)
|   |   |   |   |   |   Ratio Minimum Endpoint to Endpoint Distance to Overall Minimum Distance > 0.96574
|   |   |   |   |   |   |   Vertical Overlap <= 0.016186: NoJoin (27.27)
|   |   |   |   |   |   |   Vertical Overlap > 0.016186: Ignore (1839.74/16.06)
|   Maximum Distance > 0.12214
|   |   Part of Same Closed Path <= 0
|   |   |   Centroid Distance <= 0.129104
|   |   |   |   Centroid Distance <= 0.129069
|   |   |   |   |   Horizontal Overlap <= -0.094025
|   |   |   |   |   |   Horizontal Overlap <= -0.0941: NoJoin (64.38)
|   |   |   |   |   |   Horizontal Overlap > -0.0941: Ignore (70.68)
|   |   |   |   |   Horizontal Overlap > -0.094025
|   |   |   |   |   |   Time Gap <= 21766
|   |   |   |   |   |   |   Distance Ratio B <= 0.967036: NoJoin (4172.67)
|   |   |   |   |   |   |   Distance Ratio B > 0.967036
|   |   |   |   |   |   |   |   Horizontal Overlap <= -0.010392: Ignore (14.4)
|   |   |   |   |   |   |   |   Horizontal Overlap > -0.010392: NoJoin (14.53)
|   |   |   |   |   |   Time Gap > 21766
|   |   |   |   |   |   |   Time Gap <= 21780: Ignore (70.68)
|   |   |   |   |   |   |   Time Gap > 21780: NoJoin (336.89)
|   |   |   |   Centroid Distance > 0.129069
|   |   |   |   |   Horizontal Overlap <= 0.024799: NoJoin (14.91)
|   |   |   |   |   Horizontal Overlap > 0.024799: Ignore (70.68)
|   |   |   Centroid Distance > 0.129104: NoJoin (5541.81)
|   |   Part of Same Closed Path > 0: Ignore (85.08)
Distance Ratio B > 0.980883
|   Minimum Distance <= 0.008407
|   |   Time Gap <= 1438
|   |   |   Distance Ratio A <= 0.993376
|   |   |   |   Centroid Distance <= 0.038292: Join (113.42)
|   |   |   |   Centroid Distance > 0.038292: NoJoin (214.58/2.55)
|   |   |   Distance Ratio A > 0.993376
|   |   |   |   Time Gap <= 1201
|   |   |   |   |   Time Gap <= 749
|   |   |   |   |   |   Centroid Distance <= 0.018468
|   |   |   |   |   |   |   Minimum Endpoint to Endpoint Distance <= 0.012371: Join (159.46)
|   |   |   |   |   |   |   Minimum Endpoint to Endpoint Distance > 0.012371
|   |   |   |   |   |   |   |   Ratio Minimum Endpoint to Endpoint Distance to Overall Minimum Distance <= 0.965424: Join (61.3)
|   |   |   |   |   |   |   |   Ratio Minimum Endpoint to Endpoint Distance to Overall Minimum Distance > 0.965424
|   |   |   |   |   |   |   |   |   Minimum Distance <= 0.000128: NoJoin (70.68)
|   |   |   |   |   |   |   |   |   Minimum Distance > 0.000128
|   |   |   |   |   |   |   |   |   |   Minimum Endpoint to Endpoint Distance <= 0.012504: NoJoin (70.68)
|   |   |   |   |   |   |   |   |   |   Minimum Endpoint to Endpoint Distance > 0.012504: Join (3.19)
|   |   |   |   |   |   Centroid Distance > 0.018468: Join (1029.81)
|   |   |   |   |   Time Gap > 749
|   |   |   |   |   |   Distance Ratio A <= 0.999236: Join (135.47)
|   |   |   |   |   |   Distance Ratio A > 0.999236
|   |   |   |   |   |   |   Vertical Overlap <= 0.006962: Join (79.02)
|   |   |   |   |   |   |   Vertical Overlap > 0.006962
|   |   |   |   |   |   |   |   Maximum Distance <= 0.054014: Join (46.01)
|   |   |   |   |   |   |   |   Maximum Distance > 0.054014
|   |   |   |   |   |   |   |   |   Vertical Overlap <= 0.015529: NoJoin (397.6/44.22)
|   |   |   |   |   |   |   |   |   Vertical Overlap > 0.015529
|   |   |   |   |   |   |   |   |   |   Distance Ratio A <= 0.999957: NoJoin (71.57/0.89)
|   |   |   |   |   |   |   |   |   |   Distance Ratio A > 0.999957: Join (63.73)
|   |   |   |   Time Gap > 1201: Join (1849.85)
|   |   Time Gap > 1438
|   |   |   Maximum Distance <= 0.033299: Join (162.38)
|   |   |   Maximum Distance > 0.033299
|   |   |   |   Minimum Endpoint to Any Point Distance <= 0.005423
|   |   |   |   |   Time Gap <= 1441: NoJoin (70.68)
|   |   |   |   |   Time Gap > 1441
|   |   |   |   |   |   Vertical Overlap <= 0.006293: Join (138.8/0.13)
|   |   |   |   |   |   Vertical Overlap > 0.006293
|   |   |   |   |   |   |   Horizontal Overlap <= 0.006784
|   |   |   |   |   |   |   |   Time Gap <= 2190: Join (32.5)
|   |   |   |   |   |   |   |   Time Gap > 2190
|   |   |   |   |   |   |   |   |   Minimum Distance <= 0.000332: Join (16.95/0.13)
|   |   |   |   |   |   |   |   |   Minimum Distance > 0.000332
|   |   |   |   |   |   |   |   |   |   Distance Ratio B <= 0.995723: Join (14.66)
|   |   |   |   |   |   |   |   |   |   Distance Ratio B > 0.995723
|   |   |   |   |   |   |   |   |   |   |   Horizontal Overlap <= 0.001458
|   |   |   |   |   |   |   |   |   |   |   |   Ratio Minimum Endpoint to Endpoint Distance to Overall Minimum Distance <= 0.988753: NoJoin (14.79/0.25)
|   |   |   |   |   |   |   |   |   |   |   |   Ratio Minimum Endpoint to Endpoint Distance to Overall Minimum Distance > 0.988753: Join (15.17)
|   |   |   |   |   |   |   |   |   |   |   Horizontal Overlap > 0.001458: NoJoin (169.86/1.27)
|   |   |   |   |   |   |   Horizontal Overlap > 0.006784
|   |   |   |   |   |   |   |   Time Gap <= 31589
|   |   |   |   |   |   |   |   |   Minimum Endpoint to Any Point Distance <= 0.001068
|   |   |   |   |   |   |   |   |   |   Vertical Overlap <= 0.021464: NoJoin (28.93/0.51)
|   |   |   |   |   |   |   |   |   |   Vertical Overlap > 0.021464: Join (16.7)
|   |   |   |   |   |   |   |   |   Minimum Endpoint to Any Point Distance > 0.001068
|   |   |   |   |   |   |   |   |   |   Minimum Distance <= 0.004794
|   |   |   |   |   |   |   |   |   |   |   Ratio Minimum Endpoint to Any Point Distance to Overall Minimum Distance <= 0.994115
|   |   |   |   |   |   |   |   |   |   |   |   Horizontal Overlap <= 0.011347: Join (43.08)
|   |   |   |   |   |   |   |   |   |   |   |   Horizontal Overlap > 0.011347: NoJoin (28.42/0.13)
|   |   |   |   |   |   |   |   |   |   |   Ratio Minimum Endpoint to Any Point Distance to Overall Minimum Distance > 0.994115: Join (335.16/0.51)
|   |   |   |   |   |   |   |   |   |   Minimum Distance > 0.004794: NoJoin (14.14/0.13)
|   |   |   |   |   |   |   |   Time Gap > 31589: NoJoin (28.29/0.25)
|   |   |   |   Minimum Endpoint to Any Point Distance > 0.005423
|   |   |   |   |   Ratio Minimum Endpoint to Endpoint Distance to Overall Minimum Distance <= 0.941262: Join (32.88/0.13)
|   |   |   |   |   Ratio Minimum Endpoint to Endpoint Distance to Overall Minimum Distance > 0.941262
|   |   |   |   |   |   Ratio Minimum Endpoint to Any Point Distance to Overall Minimum Distance <= 0.999833
|   |   |   |   |   |   |   Vertical Overlap <= 0.013533
|   |   |   |   |   |   |   |   Distance Ratio A <= 0.988064: Join (42.69)
|   |   |   |   |   |   |   |   Distance Ratio A > 0.988064
|   |   |   |   |   |   |   |   |   Time Gap <= 40680
|   |   |   |   |   |   |   |   |   |   Horizontal Overlap <= 0.003015
|   |   |   |   |   |   |   |   |   |   |   Ratio Minimum Endpoint to Any Point Distance to Overall Minimum Distance <= 0.998589
|   |   |   |   |   |   |   |   |   |   |   |   Minimum Endpoint to Any Point Distance <= 0.027018
|   |   |   |   |   |   |   |   |   |   |   |   |   Minimum Endpoint to Any Point Distance <= 0.005645: NoJoin (14.02)
|   |   |   |   |   |   |   |   |   |   |   |   |   Minimum Endpoint to Any Point Distance > 0.005645: Join (117.5/0.13)
|   |   |   |   |   |   |   |   |   |   |   |   Minimum Endpoint to Any Point Distance > 0.027018: NoJoin (14.4)
|   |   |   |   |   |   |   |   |   |   |   Ratio Minimum Endpoint to Any Point Distance to Overall Minimum Distance > 0.998589: NoJoin (70.8/0.13)
|   |   |   |   |   |   |   |   |   |   Horizontal Overlap > 0.003015: NoJoin (257.19/1.78)
|   |   |   |   |   |   |   |   |   Time Gap > 40680: Join (28.93)
|   |   |   |   |   |   |   Vertical Overlap > 0.013533
|   |   |   |   |   |   |   |   Maximum Distance <= 0.07329: NoJoin (567.03/1.53)
|   |   |   |   |   |   |   |   Maximum Distance > 0.07329
|   |   |   |   |   |   |   |   |   Time Gap <= 2875: Join (31.1)
|   |   |   |   |   |   |   |   |   Time Gap > 2875
|   |   |   |   |   |   |   |   |   |   Centroid Distance <= 0.026338: Join (14.14)
|   |   |   |   |   |   |   |   |   |   Centroid Distance > 0.026338: NoJoin (184.55/1.02)
|   |   |   |   |   |   Ratio Minimum Endpoint to Any Point Distance to Overall Minimum Distance > 0.999833
|   |   |   |   |   |   |   Part of Same Closed Path <= 0: Join (57.86)
|   |   |   |   |   |   |   Part of Same Closed Path > 0: NoJoin (29.18/0.76)
|   Minimum Distance > 0.008407
|   |   Minimum Endpoint to Endpoint Distance <= 0.033438
|   |   |   Time Gap <= 5956
|   |   |   |   Distance Ratio B <= 0.997045
|   |   |   |   |   Maximum Distance <= 0.092925
|   |   |   |   |   |   Minimum Endpoint to Endpoint Distance <= 0.010446: Join (85.84)
|   |   |   |   |   |   Minimum Endpoint to Endpoint Distance > 0.010446
|   |   |   |   |   |   |   Centroid Distance <= 0.029922
|   |   |   |   |   |   |   |   Minimum Distance <= 0.010013: Join (57.73)
|   |   |   |   |   |   |   |   Minimum Distance > 0.010013
|   |   |   |   |   |   |   |   |   Vertical Overlap <= 0.009563: NoJoin (14.4)
|   |   |   |   |   |   |   |   |   Vertical Overlap > 0.009563: Ignore (14.27)
|   |   |   |   |   |   |   Centroid Distance > 0.029922
|   |   |   |   |   |   |   |   Time Gap <= 684
|   |   |   |   |   |   |   |   |   Ratio Minimum Endpoint to Endpoint Distance to Overall Minimum Distance <= 0.99448: NoJoin (57.35/0.13)
|   |   |   |   |   |   |   |   |   Ratio Minimum Endpoint to Endpoint Distance to Overall Minimum Distance > 0.99448: Ignore (28.42/0.25)
|   |   |   |   |   |   |   |   Time Gap > 684
|   |   |   |   |   |   |   |   |   Horizontal Overlap <= 0.009773
|   |   |   |   |   |   |   |   |   |   Vertical Overlap <= 0.007423
|   |   |   |   |   |   |   |   |   |   |   Distance Ratio A <= 0.985922: Ignore (29.06/0.13)
|   |   |   |   |   |   |   |   |   |   |   Distance Ratio A > 0.985922: NoJoin (14.79/0.38)
|   |   |   |   |   |   |   |   |   |   Vertical Overlap > 0.007423
|   |   |   |   |   |   |   |   |   |   |   Minimum Distance <= 0.012428
|   |   |   |   |   |   |   |   |   |   |   |   Horizontal Overlap <= -0.00279: Join (28.42)
|   |   |   |   |   |   |   |   |   |   |   |   Horizontal Overlap > -0.00279: Ignore (57.99/0.38)
|   |   |   |   |   |   |   |   |   |   |   Minimum Distance > 0.012428: Ignore (330.23/14.27)
|   |   |   |   |   |   |   |   |   Horizontal Overlap > 0.009773
|   |   |   |   |   |   |   |   |   |   Ratio Minimum Endpoint to Any Point Distance to Overall Minimum Distance <= 0.999744: Join (85.21)
|   |   |   |   |   |   |   |   |   |   Ratio Minimum Endpoint to Any Point Distance to Overall Minimum Distance > 0.999744: NoJoin (14.53)
|   |   |   |   |   Maximum Distance > 0.092925
|   |   |   |   |   |   Horizontal Overlap <= -0.009316: Ignore (15.93)
|   |   |   |   |   |   Horizontal Overlap > -0.009316: Join (218.14/2.68)
|   |   |   |   Distance Ratio B > 0.997045: Join (295.53/0.25)
|   |   |   Time Gap > 5956
|   |   |   |   Ratio Minimum Endpoint to Any Point Distance to Overall Minimum Distance <= 0.957153: Ignore (14.14)
|   |   |   |   Ratio Minimum Endpoint to Any Point Distance to Overall Minimum Distance > 0.957153
|   |   |   |   |   Maximum Distance <= 0.063186: Join (14.02)
|   |   |   |   |   Maximum Distance > 0.063186: NoJoin (86.8/0.38)
|   |   Minimum Endpoint to Endpoint Distance > 0.033438: NoJoin (134.4/0.51)

Number of Leaves  : 	152

Size of the tree : 	303


Weight: 4.95

J48 pruned tree
------------------

Distance Ratio B <= 0.980984
|   Centroid Distance <= 0.079471
|   |   Distance Ratio A <= 0.883277
|   |   |   Ratio Minimum Endpoint to Endpoint Distance to Overall Minimum Distance <= 0.997718
|   |   |   |   Distance Ratio B <= 0.882517: NoJoin (3946.89/0.06)
|   |   |   |   Distance Ratio B > 0.882517
|   |   |   |   |   Ratio Minimum Endpoint to Any Point Distance to Overall Minimum Distance <= 0.991708: Ignore (7.12/0.06)
|   |   |   |   |   Ratio Minimum Endpoint to Any Point Distance to Overall Minimum Distance > 0.991708: NoJoin (44.88)
|   |   |   Ratio Minimum Endpoint to Endpoint Distance to Overall Minimum Distance > 0.997718
|   |   |   |   Ratio Minimum Endpoint to Endpoint Distance to Overall Minimum Distance <= 0.997797: Ignore (35.59)
|   |   |   |   Ratio Minimum Endpoint to Endpoint Distance to Overall Minimum Distance > 0.997797: NoJoin (26.81)
|   |   Distance Ratio A > 0.883277
|   |   |   Ratio Minimum Endpoint to Endpoint Distance to Overall Minimum Distance <= 0.959977
|   |   |   |   Centroid Distance <= 0.059983
|   |   |   |   |   Distance Ratio B <= 0.965452
|   |   |   |   |   |   Ratio Minimum Endpoint to Endpoint Distance to Overall Minimum Distance <= 0.957743
|   |   |   |   |   |   |   Time Gap <= 2274: Ignore (21.17)
|   |   |   |   |   |   |   Time Gap > 2274
|   |   |   |   |   |   |   |   Centroid Distance <= 0.058655
|   |   |   |   |   |   |   |   |   Ratio Minimum Endpoint to Any Point Distance to Overall Minimum Distance <= 0.992868
|   |   |   |   |   |   |   |   |   |   Maximum Distance <= 0.077037: Ignore (21.17)
|   |   |   |   |   |   |   |   |   |   Maximum Distance > 0.077037: NoJoin (25.39/0.13)
|   |   |   |   |   |   |   |   |   Ratio Minimum Endpoint to Any Point Distance to Overall Minimum Distance > 0.992868: NoJoin (85.97)
|   |   |   |   |   |   |   |   Centroid Distance > 0.058655: Ignore (14.18/0.06)
|   |   |   |   |   |   Ratio Minimum Endpoint to Endpoint Distance to Overall Minimum Distance > 0.957743: Ignore (44.82/0.13)
|   |   |   |   |   Distance Ratio B > 0.965452: Join (7.38/0.13)
|   |   |   |   Centroid Distance > 0.059983
|   |   |   |   |   Horizontal Overlap <= -0.056395: Ignore (25.13/9.04)
|   |   |   |   |   Horizontal Overlap > -0.056395: NoJoin (1157.52/7.19)
|   |   |   Ratio Minimum Endpoint to Endpoint Distance to Overall Minimum Distance > 0.959977
|   |   |   |   Vertical Overlap <= 0.03462
|   |   |   |   |   Time Gap <= 542
|   |   |   |   |   |   Ratio Minimum Endpoint to Endpoint Distance to Overall Minimum Distance <= 0.98371: NoJoin (1036.53/7.38)
|   |   |   |   |   |   Ratio Minimum Endpoint to Endpoint Distance to Overall Minimum Distance > 0.98371
|   |   |   |   |   |   |   Distance Ratio A <= 0.994165
|   |   |   |   |   |   |   |   Ratio Minimum Endpoint to Endpoint Distance to Overall Minimum Distance <= 0.989146
|   |   |   |   |   |   |   |   |   Horizontal Overlap <= 0.002526: Ignore (7.19)
|   |   |   |   |   |   |   |   |   Horizontal Overlap > 0.002526: NoJoin (7.25)
|   |   |   |   |   |   |   |   Ratio Minimum Endpoint to Endpoint Distance to Overall Minimum Distance > 0.989146: Ignore (114.22)
|   |   |   |   |   |   |   Distance Ratio A > 0.994165: Join (7.25)
|   |   |   |   |   Time Gap > 542
|   |   |   |   |   |   Minimum Endpoint to Endpoint Distance <= 0.077276
|   |   |   |   |   |   |   Maximum Distance <= 0.073216
|   |   |   |   |   |   |   |   Maximum Distance <= 0.067645
|   |   |   |   |   |   |   |   |   Vertical Overlap <= -0.015742
|   |   |   |   |   |   |   |   |   |   Time Gap <= 1070: Ignore (36.26/0.06)
|   |   |   |   |   |   |   |   |   |   Time Gap > 1070
|   |   |   |   |   |   |   |   |   |   |   Part of Same Closed Path <= 0
|   |   |   |   |   |   |   |   |   |   |   |   Ratio Minimum Endpoint to Endpoint Distance to Overall Minimum Distance <= 0.999003
|   |   |   |   |   |   |   |   |   |   |   |   |   Horizontal Overlap <= 0.011421
|   |   |   |   |   |   |   |   |   |   |   |   |   |   Horizontal Overlap <= 0.005275
|   |   |   |   |   |   |   |   |   |   |   |   |   |   |   Horizontal Overlap <= -0.006273
|   |   |   |   |   |   |   |   |   |   |   |   |   |   |   |   Distance Ratio A <= 0.941179: NoJoin (7.57)
|   |   |   |   |   |   |   |   |   |   |   |   |   |   |   |   Distance Ratio A > 0.941179: Ignore (7.31/0.19)
|   |   |   |   |   |   |   |   |   |   |   |   |   |   |   Horizontal Overlap > -0.006273: NoJoin (130.08/0.06)
|   |   |   |   |   |   |   |   |   |   |   |   |   |   Horizontal Overlap > 0.005275
|   |   |   |   |   |   |   |   |   |   |   |   |   |   |   Maximum Distance <= 0.051582: NoJoin (18.52/0.06)
|   |   |   |   |   |   |   |   |   |   |   |   |   |   |   Maximum Distance > 0.051582: Ignore (37.91/0.45)
|   |   |   |   |   |   |   |   |   |   |   |   |   Horizontal Overlap > 0.011421: NoJoin (153.38/0.06)
|   |   |   |   |   |   |   |   |   |   |   |   Ratio Minimum Endpoint to Endpoint Distance to Overall Minimum Distance > 0.999003
|   |   |   |   |   |   |   |   |   |   |   |   |   Time Gap <= 2462: Ignore (21.3)
|   |   |   |   |   |   |   |   |   |   |   |   |   Time Gap > 2462
|   |   |   |   |   |   |   |   |   |   |   |   |   |   Centroid Distance <= 0.031198: Ignore (7.12/0.06)
|   |   |   |   |   |   |   |   |   |   |   |   |   |   Centroid Distance > 0.031198: NoJoin (18.6)
|   |   |   |   |   |   |   |   |   |   |   Part of Same Closed Path > 0: Ignore (16.8)
|   |   |   |   |   |   |   |   |   Vertical Overlap > -0.015742
|   |   |   |   |   |   |   |   |   |   Maximum Distance <= 0.050192: Ignore (1010.11)
|   |   |   |   |   |   |   |   |   |   Maximum Distance > 0.050192
|   |   |   |   |   |   |   |   |   |   |   Distance Ratio A <= 0.968714
|   |   |   |   |   |   |   |   |   |   |   |   Distance Ratio B <= 0.898377: NoJoin (28.82)
|   |   |   |   |   |   |   |   |   |   |   |   Distance Ratio B > 0.898377
|   |   |   |   |   |   |   |   |   |   |   |   |   Centroid Distance <= 0.036303
|   |   |   |   |   |   |   |   |   |   |   |   |   |   Minimum Endpoint to Endpoint Distance <= 0.02851: Ignore (33.48)
|   |   |   |   |   |   |   |   |   |   |   |   |   |   Minimum Endpoint to Endpoint Distance > 0.02851
|   |   |   |   |   |   |   |   |   |   |   |   |   |   |   Time Gap <= 1838: Ignore (9.42)
|   |   |   |   |   |   |   |   |   |   |   |   |   |   |   Time Gap > 1838: NoJoin (56.76)
|   |   |   |   |   |   |   |   |   |   |   |   |   Centroid Distance > 0.036303
|   |   |   |   |   |   |   |   |   |   |   |   |   |   Time Gap <= 23677
|   |   |   |   |   |   |   |   |   |   |   |   |   |   |   Ratio Minimum Endpoint to Endpoint Distance to Overall Minimum Distance <= 0.985651
|   |   |   |   |   |   |   |   |   |   |   |   |   |   |   |   Ratio Minimum Endpoint to Any Point Distance to Overall Minimum Distance <= 0.998816
|   |   |   |   |   |   |   |   |   |   |   |   |   |   |   |   |   Ratio Minimum Endpoint to Endpoint Distance to Overall Minimum Distance <= 0.985438
|   |   |   |   |   |   |   |   |   |   |   |   |   |   |   |   |   |   Horizontal Overlap <= -0.027177: Ignore (141.15)
|   |   |   |   |   |   |   |   |   |   |   |   |   |   |   |   |   |   Horizontal Overlap > -0.027177
|   |   |   |   |   |   |   |   |   |   |   |   |   |   |   |   |   |   |   Minimum Distance <= 0.025426: Ignore (14.51)
|   |   |   |   |   |   |   |   |   |   |   |   |   |   |   |   |   |   |   Minimum Distance > 0.025426: NoJoin (14.12)
|   |   |   |   |   |   |   |   |   |   |   |   |   |   |   |   |   Ratio Minimum Endpoint to Endpoint Distance to Overall Minimum Distance > 0.985438: NoJoin (7.06)
|   |   |   |   |   |   |   |   |   |   |   |   |   |   |   |   Ratio Minimum Endpoint to Any Point Distance to Overall Minimum Distance > 0.998816: NoJoin (9.1)
|   |   |   |   |   |   |   |   |   |   |   |   |   |   |   Ratio Minimum Endpoint to Endpoint Distance to Overall Minimum Distance > 0.985651: Ignore (302.06/0.13)
|   |   |   |   |   |   |   |   |   |   |   |   |   |   Time Gap > 23677: NoJoin (28.75/0.13)
|   |   |   |   |   |   |   |   |   |   |   Distance Ratio A > 0.968714
|   |   |   |   |   |   |   |   |   |   |   |   Ratio Minimum Endpoint to Any Point Distance to Overall Minimum Distance <= 0.988673: Ignore (21.76)
|   |   |   |   |   |   |   |   |   |   |   |   Ratio Minimum Endpoint to Any Point Distance to Overall Minimum Distance > 0.988673
|   |   |   |   |   |   |   |   |   |   |   |   |   Vertical Overlap <= -0.015178: Ignore (7.06)
|   |   |   |   |   |   |   |   |   |   |   |   |   Vertical Overlap > -0.015178: NoJoin (119.98/0.51)
|   |   |   |   |   |   |   |   Maximum Distance > 0.067645
|   |   |   |   |   |   |   |   |   Minimum Endpoint to Any Point Distance <= 0.054288
|   |   |   |   |   |   |   |   |   |   Ratio Minimum Endpoint to Endpoint Distance to Overall Minimum Distance <= 0.996818: Ignore (4969.3/81.59)
|   |   |   |   |   |   |   |   |   |   Ratio Minimum Endpoint to Endpoint Distance to Overall Minimum Distance > 0.996818
|   |   |   |   |   |   |   |   |   |   |   Ratio Minimum Endpoint to Any Point Distance to Overall Minimum Distance <= 0.999698: NoJoin (48.11/0.39)
|   |   |   |   |   |   |   |   |   |   |   Ratio Minimum Endpoint to Any Point Distance to Overall Minimum Distance > 0.999698: Ignore (86.0/0.26)
|   |   |   |   |   |   |   |   |   Minimum Endpoint to Any Point Distance > 0.054288
|   |   |   |   |   |   |   |   |   |   Vertical Overlap <= 0.012625: NoJoin (106.12/0.06)
|   |   |   |   |   |   |   |   |   |   Vertical Overlap > 0.012625: Ignore (14.57)
|   |   |   |   |   |   |   Maximum Distance > 0.073216
|   |   |   |   |   |   |   |   Vertical Overlap <= 0.011595
|   |   |   |   |   |   |   |   |   Centroid Distance <= 0.024407: Join (35.59)
|   |   |   |   |   |   |   |   |   Centroid Distance > 0.024407
|   |   |   |   |   |   |   |   |   |   Minimum Endpoint to Any Point Distance <= 0.070937
|   |   |   |   |   |   |   |   |   |   |   Ratio Minimum Endpoint to Endpoint Distance to Overall Minimum Distance <= 0.96352
|   |   |   |   |   |   |   |   |   |   |   |   Distance Ratio A <= 0.92865: Ignore (42.65)
|   |   |   |   |   |   |   |   |   |   |   |   Distance Ratio A > 0.92865: NoJoin (7.12)
|   |   |   |   |   |   |   |   |   |   |   Ratio Minimum Endpoint to Endpoint Distance to Overall Minimum Distance > 0.96352
|   |   |   |   |   |   |   |   |   |   |   |   Time Gap <= 63767
|   |   |   |   |   |   |   |   |   |   |   |   |   Minimum Endpoint to Endpoint Distance <= 0.025227
|   |   |   |   |   |   |   |   |   |   |   |   |   |   Ratio Minimum Endpoint to Any Point Distance to Overall Minimum Distance <= 0.994041: Ignore (32.51/0.06)
|   |   |   |   |   |   |   |   |   |   |   |   |   |   Ratio Minimum Endpoint to Any Point Distance to Overall Minimum Distance > 0.994041: NoJoin (16.67/0.19)
|   |   |   |   |   |   |   |   |   |   |   |   |   Minimum Endpoint to Endpoint Distance > 0.025227
|   |   |   |   |   |   |   |   |   |   |   |   |   |   Part of Same Closed Path <= 0
|   |   |   |   |   |   |   |   |   |   |   |   |   |   |   Distance Ratio B <= 0.889648
|   |   |   |   |   |   |   |   |   |   |   |   |   |   |   |   Time Gap <= 2673: Ignore (23.41/0.06)
|   |   |   |   |   |   |   |   |   |   |   |   |   |   |   |   Time Gap > 2673: NoJoin (49.25)
|   |   |   |   |   |   |   |   |   |   |   |   |   |   |   Distance Ratio B > 0.889648
|   |   |   |   |   |   |   |   |   |   |   |   |   |   |   |   Vertical Overlap <= 0.010769
|   |   |   |   |   |   |   |   |   |   |   |   |   |   |   |   |   Time Gap <= 1821
|   |   |   |   |   |   |   |   |   |   |   |   |   |   |   |   |   |   Time Gap <= 1782: NoJoin (95.66/0.13)
|   |   |   |   |   |   |   |   |   |   |   |   |   |   |   |   |   |   Time Gap > 1782: Ignore (7.25)
|   |   |   |   |   |   |   |   |   |   |   |   |   |   |   |   |   Time Gap > 1821: NoJoin (713.34)
|   |   |   |   |   |   |   |   |   |   |   |   |   |   |   |   Vertical Overlap > 0.010769
|   |   |   |   |   |   |   |   |   |   |   |   |   |   |   |   |   Ratio Minimum Endpoint to Endpoint Distance to Overall Minimum Distance <= 0.97792: Ignore (7.06)
|   |   |   |   |   |   |   |   |   |   |   |   |   |   |   |   |   Ratio Minimum Endpoint to Endpoint Distance to Overall Minimum Distance > 0.97792: NoJoin (18.14)
|   |   |   |   |   |   |   |   |   |   |   |   |   |   Part of Same Closed Path > 0
|   |   |   |   |   |   |   |   |   |   |   |   |   |   |   Horizontal Overlap <= -0.002344: Ignore (21.3)
|   |   |   |   |   |   |   |   |   |   |   |   |   |   |   Horizontal Overlap > -0.002344
|   |   |   |   |   |   |   |   |   |   |   |   |   |   |   |   Time Gap <= 2712: Ignore (7.31)
|   |   |   |   |   |   |   |   |   |   |   |   |   |   |   |   Time Gap > 2712: NoJoin (79.11)
|   |   |   |   |   |   |   |   |   |   |   |   Time Gap > 63767
|   |   |   |   |   |   |   |   |   |   |   |   |   Centroid Distance <= 0.069564: Ignore (44.63)
|   |   |   |   |   |   |   |   |   |   |   |   |   Centroid Distance > 0.069564: NoJoin (14.51)
|   |   |   |   |   |   |   |   |   |   Minimum Endpoint to Any Point Distance > 0.070937: Ignore (86.39/0.71)
|   |   |   |   |   |   |   |   Vertical Overlap > 0.011595
|   |   |   |   |   |   |   |   |   Time Gap <= 3026
|   |   |   |   |   |   |   |   |   |   Ratio Minimum Endpoint to Any Point Distance to Overall Minimum Distance <= 0.961273: NoJoin (35.59)
|   |   |   |   |   |   |   |   |   |   Ratio Minimum Endpoint to Any Point Distance to Overall Minimum Distance > 0.961273
|   |   |   |   |   |   |   |   |   |   |   Vertical Overlap <= 0.019563
|   |   |   |   |   |   |   |   |   |   |   |   Ratio Minimum Endpoint to Endpoint Distance to Overall Minimum Distance <= 0.989332: Ignore (987.96/0.13)
|   |   |   |   |   |   |   |   |   |   |   |   Ratio Minimum Endpoint to Endpoint Distance to Overall Minimum Distance > 0.989332
|   |   |   |   |   |   |   |   |   |   |   |   |   Ratio Minimum Endpoint to Endpoint Distance to Overall Minimum Distance <= 0.99105: NoJoin (9.23)
|   |   |   |   |   |   |   |   |   |   |   |   |   Ratio Minimum Endpoint to Endpoint Distance to Overall Minimum Distance > 0.99105
|   |   |   |   |   |   |   |   |   |   |   |   |   |   Distance Ratio A <= 0.894473: NoJoin (7.12/0.06)
|   |   |   |   |   |   |   |   |   |   |   |   |   |   Distance Ratio A > 0.894473: Ignore (74.44)
|   |   |   |   |   |   |   |   |   |   |   Vertical Overlap > 0.019563
|   |   |   |   |   |   |   |   |   |   |   |   Vertical Overlap <= 0.019748: NoJoin (35.59)
|   |   |   |   |   |   |   |   |   |   |   |   Vertical Overlap > 0.019748: Ignore (61.91/0.06)
|   |   |   |   |   |   |   |   |   Time Gap > 3026
|   |   |   |   |   |   |   |   |   |   Part of Same Closed Path <= 0
|   |   |   |   |   |   |   |   |   |   |   Time Gap <= 5044: NoJoin (74.32)
|   |   |   |   |   |   |   |   |   |   |   Time Gap > 5044
|   |   |   |   |   |   |   |   |   |   |   |   Minimum Endpoint to Endpoint Distance <= 0.06898
|   |   |   |   |   |   |   |   |   |   |   |   |   Ratio Minimum Endpoint to Any Point Distance to Overall Minimum Distance <= 0.998424
|   |   |   |   |   |   |   |   |   |   |   |   |   |   Time Gap <= 89865
|   |   |   |   |   |   |   |   |   |   |   |   |   |   |   Maximum Distance <= 0.075385: NoJoin (21.37/7.06)
|   |   |   |   |   |   |   |   |   |   |   |   |   |   |   Maximum Distance > 0.075385
|   |   |   |   |   |   |   |   |   |   |   |   |   |   |   |   Time Gap <= 6138
|   |   |   |   |   |   |   |   |   |   |   |   |   |   |   |   |   Maximum Distance <= 0.07916: Ignore (7.06)
|   |   |   |   |   |   |   |   |   |   |   |   |   |   |   |   |   Maximum Distance > 0.07916: NoJoin (16.48)
|   |   |   |   |   |   |   |   |   |   |   |   |   |   |   |   Time Gap > 6138: Ignore (158.41/0.26)
|   |   |   |   |   |   |   |   |   |   |   |   |   |   Time Gap > 89865: NoJoin (28.23)
|   |   |   |   |   |   |   |   |   |   |   |   |   Ratio Minimum Endpoint to Any Point Distance to Overall Minimum Distance > 0.998424: NoJoin (30.6)
|   |   |   |   |   |   |   |   |   |   |   |   Minimum Endpoint to Endpoint Distance > 0.06898
|   |   |   |   |   |   |   |   |   |   |   |   |   Horizontal Overlap <= -0.047627: NoJoin (139.28/7.12)
|   |   |   |   |   |   |   |   |   |   |   |   |   Horizontal Overlap > -0.047627: Ignore (7.06)
|   |   |   |   |   |   |   |   |   |   Part of Same Closed Path > 0: Ignore (35.29)
|   |   |   |   |   |   Minimum Endpoint to Endpoint Distance > 0.077276: Ignore (4775.1/0.51)
|   |   |   |   Vertical Overlap > 0.03462: NoJoin (1163.3/81.31)
|   Centroid Distance > 0.079471
|   |   Part of Same Closed Path <= 0
|   |   |   Minimum Endpoint to Endpoint Distance <= 0.06736
|   |   |   |   Distance Ratio A <= 0.855796: Ignore (35.65/0.06)
|   |   |   |   Distance Ratio A > 0.855796
|   |   |   |   |   Minimum Endpoint to Endpoint Distance <= 0.067316
|   |   |   |   |   |   Minimum Endpoint to Any Point Distance <= 0.029864: Ignore (7.25)
|   |   |   |   |   |   Minimum Endpoint to Any Point Distance > 0.029864: NoJoin (196.19)
|   |   |   |   |   Minimum Endpoint to Endpoint Distance > 0.067316: Ignore (35.65/0.06)
|   |   |   Minimum Endpoint to Endpoint Distance > 0.06736
|   |   |   |   Time Gap <= 2229
|   |   |   |   |   Horizontal Overlap <= -0.068807
|   |   |   |   |   |   Centroid Distance <= 0.115944
|   |   |   |   |   |   |   Ratio Minimum Endpoint to Any Point Distance to Overall Minimum Distance <= 0.993519: Ignore (192.58/14.63)
|   |   |   |   |   |   |   Ratio Minimum Endpoint to Any Point Distance to Overall Minimum Distance > 0.993519
|   |   |   |   |   |   |   |   Centroid Distance <= 0.081041: Ignore (9.04)
|   |   |   |   |   |   |   |   Centroid Distance > 0.081041: NoJoin (40.4)
|   |   |   |   |   |   Centroid Distance > 0.115944: NoJoin (41.98)
|   |   |   |   |   Horizontal Overlap > -0.068807
|   |   |   |   |   |   Distance Ratio B <= 0.928982
|   |   |   |   |   |   |   Ratio Minimum Endpoint to Any Point Distance to Overall Minimum Distance <= 0.981674
|   |   |   |   |   |   |   |   Centroid Distance <= 0.093604: Ignore (35.59)
|   |   |   |   |   |   |   |   Centroid Distance > 0.093604: NoJoin (29.27)
|   |   |   |   |   |   |   Ratio Minimum Endpoint to Any Point Distance to Overall Minimum Distance > 0.981674
|   |   |   |   |   |   |   |   Minimum Distance <= 0.071654: NoJoin (2836.63)
|   |   |   |   |   |   |   |   Minimum Distance > 0.071654
|   |   |   |   |   |   |   |   |   Centroid Distance <= 0.082711: Ignore (7.06)
|   |   |   |   |   |   |   |   |   Centroid Distance > 0.082711: NoJoin (115.85)
|   |   |   |   |   |   Distance Ratio B > 0.928982
|   |   |   |   |   |   |   Minimum Endpoint to Endpoint Distance <= 0.087732: NoJoin (9.42)
|   |   |   |   |   |   |   Minimum Endpoint to Endpoint Distance > 0.087732: Ignore (42.65)
|   |   |   |   Time Gap > 2229
|   |   |   |   |   Distance Ratio A <= 0.926277
|   |   |   |   |   |   Ratio Minimum Endpoint to Any Point Distance to Overall Minimum Distance <= 0.979925
|   |   |   |   |   |   |   Ratio Minimum Endpoint to Any Point Distance to Overall Minimum Distance <= 0.979855: NoJoin (281.68)
|   |   |   |   |   |   |   Ratio Minimum Endpoint to Any Point Distance to Overall Minimum Distance > 0.979855: Ignore (36.74/1.16)
|   |   |   |   |   |   Ratio Minimum Endpoint to Any Point Distance to Overall Minimum Distance > 0.979925
|   |   |   |   |   |   |   Minimum Distance <= 0.075165: NoJoin (11408.15)
|   |   |   |   |   |   |   Minimum Distance > 0.075165
|   |   |   |   |   |   |   |   Minimum Distance <= 0.077259
|   |   |   |   |   |   |   |   |   Vertical Overlap <= 0.014613: NoJoin (41.78)
|   |   |   |   |   |   |   |   |   Vertical Overlap > 0.014613: Ignore (72.27/1.09)
|   |   |   |   |   |   |   |   Minimum Distance > 0.077259: NoJoin (2995.35)
|   |   |   |   |   Distance Ratio A > 0.926277
|   |   |   |   |   |   Horizontal Overlap <= -0.063001
|   |   |   |   |   |   |   Minimum Distance <= 0.06595: Ignore (71.31/0.13)
|   |   |   |   |   |   |   Minimum Distance > 0.06595: NoJoin (4.88)
|   |   |   |   |   |   Horizontal Overlap > -0.063001: NoJoin (862.03)
|   |   Part of Same Closed Path > 0: Ignore (71.31)
Distance Ratio B > 0.980984
|   Distance Ratio A <= 0.984759
|   |   Minimum Endpoint to Endpoint Distance <= 0.039387
|   |   |   Distance Ratio B <= 0.996251
|   |   |   |   Distance Ratio A <= 0.981143
|   |   |   |   |   Time Gap <= 8388: Ignore (309.83)
|   |   |   |   |   Time Gap > 8388
|   |   |   |   |   |   Time Gap <= 43544: NoJoin (14.38)
|   |   |   |   |   |   Time Gap > 43544: Ignore (16.09)
|   |   |   |   Distance Ratio A > 0.981143
|   |   |   |   |   Distance Ratio B <= 0.989822
|   |   |   |   |   |   Vertical Overlap <= -0.006524: NoJoin (21.95/0.19)
|   |   |   |   |   |   Vertical Overlap > -0.006524
|   |   |   |   |   |   |   Minimum Endpoint to Endpoint Distance <= 0.01626: Join (153.2/7.25)
|   |   |   |   |   |   |   Minimum Endpoint to Endpoint Distance > 0.01626
|   |   |   |   |   |   |   |   Distance Ratio B <= 0.986647: NoJoin (14.63)
|   |   |   |   |   |   |   |   Distance Ratio B > 0.986647: Join (7.06)
|   |   |   |   |   Distance Ratio B > 0.989822
|   |   |   |   |   |   Distance Ratio B <= 0.992574: Ignore (42.84)
|   |   |   |   |   |   Distance Ratio B > 0.992574
|   |   |   |   |   |   |   Horizontal Overlap <= -0.006611: Ignore (7.06)
|   |   |   |   |   |   |   Horizontal Overlap > -0.006611: Join (14.38)
|   |   |   Distance Ratio B > 0.996251
|   |   |   |   Minimum Endpoint to Any Point Distance <= 0.01156: Ignore (15.72/1.6)
|   |   |   |   Minimum Endpoint to Any Point Distance > 0.01156: Join (174.2/0.13)
|   |   Minimum Endpoint to Endpoint Distance > 0.039387: NoJoin (52.47)
|   Distance Ratio A > 0.984759
|   |   Distance Ratio B <= 0.986472
|   |   |   Minimum Distance <= 0.009843
|   |   |   |   Centroid Distance <= 0.055286: Join (86.91/0.06)
|   |   |   |   Centroid Distance > 0.055286: NoJoin (7.25)
|   |   |   Minimum Distance > 0.009843
|   |   |   |   Maximum Distance <= 0.098784
|   |   |   |   |   Time Gap <= 254: Join (9.04)
|   |   |   |   |   Time Gap > 254
|   |   |   |   |   |   Minimum Endpoint to Endpoint Distance <= 0.022385: Ignore (66.06/0.06)
|   |   |   |   |   |   Minimum Endpoint to Endpoint Distance > 0.022385: NoJoin (7.38)
|   |   |   |   Maximum Distance > 0.098784: Join (21.69/0.06)
|   |   Distance Ratio B > 0.986472
|   |   |   Time Gap <= 4060
|   |   |   |   Centroid Distance <= 0.028424
|   |   |   |   |   Time Gap <= 391: Join (201.27)
|   |   |   |   |   Time Gap > 391
