AdaBoostM1: Base classifiers and their weights: 

J48 pruned tree
------------------

Minimum Endpoint to Any Point Distance <= 0.013353
|   Minimum Distance <= 0.007606
|   |   Minimum Endpoint to Any Point Distance <= 0.007684: Join (2292.0/36.0)
|   |   Minimum Endpoint to Any Point Distance > 0.007684
|   |   |   Vertical Overlap <= 0.052089
|   |   |   |   Horizontal Overlap <= 0.1716
|   |   |   |   |   Distance Ratio B <= 0.997875: Join (41.0/5.0)
|   |   |   |   |   Distance Ratio B > 0.997875
|   |   |   |   |   |   Distance Ratio B <= 0.998726: NoJoin (6.0/1.0)
|   |   |   |   |   |   Distance Ratio B > 0.998726: Join (65.0/7.0)
|   |   |   |   Horizontal Overlap > 0.1716: NoJoin (3.0/1.0)
|   |   |   Vertical Overlap > 0.052089: NoJoin (4.0)
|   Minimum Distance > 0.007606
|   |   Distance Ratio A <= 0.981354
|   |   |   Centroid Distance <= 0.108897
|   |   |   |   Horizontal Overlap <= 0.002881
|   |   |   |   |   Minimum Endpoint to Endpoint Distance <= 0.01781: Ignore (5.0)
|   |   |   |   |   Minimum Endpoint to Endpoint Distance > 0.01781: NoJoin (3.0)
|   |   |   |   Horizontal Overlap > 0.002881: NoJoin (11.0)
|   |   |   Centroid Distance > 0.108897
|   |   |   |   Distance Ratio A <= 0.975706: NoJoin (3.0/1.0)
|   |   |   |   Distance Ratio A > 0.975706: Ignore (13.0)
|   |   Distance Ratio A > 0.981354
|   |   |   Distance Ratio B <= 0.980419
|   |   |   |   Vertical Overlap <= 0.00304: Ignore (4.0)
|   |   |   |   Vertical Overlap > 0.00304: Join (3.0/1.0)
|   |   |   Distance Ratio B > 0.980419
|   |   |   |   Centroid Distance <= 0.048756
|   |   |   |   |   Distance Ratio B <= 0.982373: Join (2.0)
|   |   |   |   |   Distance Ratio B > 0.982373
|   |   |   |   |   |   Vertical Overlap <= -0.005484: NoJoin (15.0)
|   |   |   |   |   |   Vertical Overlap > -0.005484
|   |   |   |   |   |   |   Vertical Overlap <= 0.003207: Join (3.0)
|   |   |   |   |   |   |   Vertical Overlap > 0.003207: NoJoin (4.0)
|   |   |   |   Centroid Distance > 0.048756
|   |   |   |   |   Vertical Overlap <= 0.00654
|   |   |   |   |   |   Minimum Endpoint to Endpoint Distance <= 0.019755
|   |   |   |   |   |   |   Vertical Overlap <= -0.008477: NoJoin (7.0)
|   |   |   |   |   |   |   Vertical Overlap > -0.008477
|   |   |   |   |   |   |   |   Ratio Minimum Endpoint to Any Point Distance to Overall Minimum Distance <= 0.998051: NoJoin (5.0/1.0)
|   |   |   |   |   |   |   |   Ratio Minimum Endpoint to Any Point Distance to Overall Minimum Distance > 0.998051
|   |   |   |   |   |   |   |   |   Vertical Overlap <= -0.000996: Join (18.0)
|   |   |   |   |   |   |   |   |   Vertical Overlap > -0.000996
|   |   |   |   |   |   |   |   |   |   Vertical Overlap <= 0.000938: NoJoin (5.0/1.0)
|   |   |   |   |   |   |   |   |   |   Vertical Overlap > 0.000938: Join (5.0)
|   |   |   |   |   |   Minimum Endpoint to Endpoint Distance > 0.019755: Join (21.0)
|   |   |   |   |   Vertical Overlap > 0.00654
|   |   |   |   |   |   Ratio Minimum Endpoint to Any Point Distance to Overall Minimum Distance <= 0.999185: NoJoin (11.0/1.0)
|   |   |   |   |   |   Ratio Minimum Endpoint to Any Point Distance to Overall Minimum Distance > 0.999185
|   |   |   |   |   |   |   Maximum Distance <= 0.276904: NoJoin (2.0)
|   |   |   |   |   |   |   Maximum Distance > 0.276904: Join (5.0)
Minimum Endpoint to Any Point Distance > 0.013353
|   Minimum Distance <= 0.015699
|   |   Minimum Endpoint to Endpoint Distance <= 0.010588
|   |   |   Horizontal Overlap <= 0.017607
|   |   |   |   Distance Ratio B <= 0.989238: NoJoin (5.0/1.0)
|   |   |   |   Distance Ratio B > 0.989238: Join (75.0)
|   |   |   Horizontal Overlap > 0.017607
|   |   |   |   Minimum Distance <= 0.003624
|   |   |   |   |   Distance Ratio A <= 0.999962: NoJoin (2.0)
|   |   |   |   |   Distance Ratio A > 0.999962
|   |   |   |   |   |   Maximum Distance <= 0.362987: Join (3.0)
|   |   |   |   |   |   Maximum Distance > 0.362987: NoJoin (2.0)
|   |   |   |   Minimum Distance > 0.003624: NoJoin (25.0)
|   |   Minimum Endpoint to Endpoint Distance > 0.010588
|   |   |   Horizontal Overlap <= 0.003579
|   |   |   |   Distance Ratio A <= 0.981055
|   |   |   |   |   Ratio Minimum Endpoint to Endpoint Distance to Overall Minimum Distance <= 0.982451: NoJoin (9.0)
|   |   |   |   |   Ratio Minimum Endpoint to Endpoint Distance to Overall Minimum Distance > 0.982451
|   |   |   |   |   |   Horizontal Overlap <= -0.012413: Ignore (5.0)
|   |   |   |   |   |   Horizontal Overlap > -0.012413
|   |   |   |   |   |   |   Ratio Minimum Endpoint to Any Point Distance to Overall Minimum Distance <= 0.999238
|   |   |   |   |   |   |   |   Time Gap <= 17290
|   |   |   |   |   |   |   |   |   Minimum Distance <= 0.01319: Ignore (3.0/1.0)
|   |   |   |   |   |   |   |   |   Minimum Distance > 0.01319: NoJoin (4.0)
|   |   |   |   |   |   |   |   Time Gap > 17290: Ignore (4.0)
|   |   |   |   |   |   |   Ratio Minimum Endpoint to Any Point Distance to Overall Minimum Distance > 0.999238: NoJoin (6.0)
|   |   |   |   Distance Ratio A > 0.981055
|   |   |   |   |   Vertical Overlap <= 0.017557
|   |   |   |   |   |   Distance Ratio B <= 0.980276
|   |   |   |   |   |   |   Maximum Distance <= 0.163332: NoJoin (2.0)
|   |   |   |   |   |   |   Maximum Distance > 0.163332: Ignore (3.0/1.0)
|   |   |   |   |   |   Distance Ratio B > 0.980276
|   |   |   |   |   |   |   Ratio Minimum Endpoint to Any Point Distance to Overall Minimum Distance <= 0.911333: Join (14.0)
|   |   |   |   |   |   |   Ratio Minimum Endpoint to Any Point Distance to Overall Minimum Distance > 0.911333
|   |   |   |   |   |   |   |   Minimum Endpoint to Endpoint Distance <= 0.085971
|   |   |   |   |   |   |   |   |   Time Gap <= 1572: Join (8.0)
|   |   |   |   |   |   |   |   |   Time Gap > 1572
|   |   |   |   |   |   |   |   |   |   Vertical Overlap <= 0.007127
|   |   |   |   |   |   |   |   |   |   |   Horizontal Overlap <= -0.013536: NoJoin (3.0)
|   |   |   |   |   |   |   |   |   |   |   Horizontal Overlap > -0.013536
|   |   |   |   |   |   |   |   |   |   |   |   Distance Ratio A <= 0.995788: Join (12.0/1.0)
|   |   |   |   |   |   |   |   |   |   |   |   Distance Ratio A > 0.995788
|   |   |   |   |   |   |   |   |   |   |   |   |   Distance Ratio B <= 0.999421: NoJoin (4.0)
|   |   |   |   |   |   |   |   |   |   |   |   |   Distance Ratio B > 0.999421: Join (4.0/1.0)
|   |   |   |   |   |   |   |   |   |   Vertical Overlap > 0.007127: NoJoin (4.0)
|   |   |   |   |   |   |   |   Minimum Endpoint to Endpoint Distance > 0.085971: NoJoin (7.0)
|   |   |   |   |   Vertical Overlap > 0.017557: NoJoin (17.0)
|   |   |   Horizontal Overlap > 0.003579
|   |   |   |   Minimum Distance <= 0.000479
|   |   |   |   |   Vertical Overlap <= 0.016509
|   |   |   |   |   |   Distance Ratio B <= 0.999869: Join (6.0)
|   |   |   |   |   |   Distance Ratio B > 0.999869
|   |   |   |   |   |   |   Time Gap <= 6923: Join (10.0/1.0)
|   |   |   |   |   |   |   Time Gap > 6923
|   |   |   |   |   |   |   |   Minimum Distance <= 0.000111: Join (4.0)
|   |   |   |   |   |   |   |   Minimum Distance > 0.000111
|   |   |   |   |   |   |   |   |   Centroid Distance <= 0.16618: NoJoin (13.0/2.0)
|   |   |   |   |   |   |   |   |   Centroid Distance > 0.16618: Join (3.0)
|   |   |   |   |   Vertical Overlap > 0.016509
|   |   |   |   |   |   Ratio Minimum Endpoint to Any Point Distance to Overall Minimum Distance <= 0.775777: Join (3.0)
|   |   |   |   |   |   Ratio Minimum Endpoint to Any Point Distance to Overall Minimum Distance > 0.775777: NoJoin (46.0/5.0)
|   |   |   |   Minimum Distance > 0.000479
|   |   |   |   |   Distance Ratio B <= 0.981121: NoJoin (144.0/8.0)
|   |   |   |   |   Distance Ratio B > 0.981121
|   |   |   |   |   |   Minimum Endpoint to Endpoint Distance <= 0.086129
|   |   |   |   |   |   |   Horizontal Overlap <= 0.02857
|   |   |   |   |   |   |   |   Minimum Endpoint to Any Point Distance <= 0.063483
|   |   |   |   |   |   |   |   |   Minimum Endpoint to Endpoint Distance <= 0.047028
|   |   |   |   |   |   |   |   |   |   Ratio Minimum Endpoint to Any Point Distance to Overall Minimum Distance <= 0.944586: Join (10.0/1.0)
|   |   |   |   |   |   |   |   |   |   Ratio Minimum Endpoint to Any Point Distance to Overall Minimum Distance > 0.944586
|   |   |   |   |   |   |   |   |   |   |   Minimum Endpoint to Endpoint Distance <= 0.026094
|   |   |   |   |   |   |   |   |   |   |   |   Ratio Minimum Endpoint to Endpoint Distance to Overall Minimum Distance <= 0.993835
|   |   |   |   |   |   |   |   |   |   |   |   |   Horizontal Overlap <= 0.017757: Join (11.0/1.0)
|   |   |   |   |   |   |   |   |   |   |   |   |   Horizontal Overlap > 0.017757: NoJoin (3.0)
|   |   |   |   |   |   |   |   |   |   |   |   Ratio Minimum Endpoint to Endpoint Distance to Overall Minimum Distance > 0.993835: NoJoin (12.0/1.0)
|   |   |   |   |   |   |   |   |   |   |   Minimum Endpoint to Endpoint Distance > 0.026094: NoJoin (11.0)
|   |   |   |   |   |   |   |   |   Minimum Endpoint to Endpoint Distance > 0.047028
|   |   |   |   |   |   |   |   |   |   Time Gap <= 2642: Join (4.0/1.0)
|   |   |   |   |   |   |   |   |   |   Time Gap > 2642: NoJoin (41.0)
|   |   |   |   |   |   |   |   Minimum Endpoint to Any Point Distance > 0.063483
|   |   |   |   |   |   |   |   |   Vertical Overlap <= -0.004329: NoJoin (3.0)
|   |   |   |   |   |   |   |   |   Vertical Overlap > -0.004329
|   |   |   |   |   |   |   |   |   |   Horizontal Overlap <= 0.007372
|   |   |   |   |   |   |   |   |   |   |   Maximum Distance <= 0.18603: Join (2.0)
|   |   |   |   |   |   |   |   |   |   |   Maximum Distance > 0.18603: NoJoin (3.0)
|   |   |   |   |   |   |   |   |   |   Horizontal Overlap > 0.007372: Join (17.0/1.0)
|   |   |   |   |   |   |   Horizontal Overlap > 0.02857
|   |   |   |   |   |   |   |   Ratio Minimum Endpoint to Endpoint Distance to Overall Minimum Distance <= 0.984487
|   |   |   |   |   |   |   |   |   Time Gap <= 440: Join (5.0/2.0)
|   |   |   |   |   |   |   |   |   Time Gap > 440
|   |   |   |   |   |   |   |   |   |   Ratio Minimum Endpoint to Any Point Distance to Overall Minimum Distance <= 0.890321
|   |   |   |   |   |   |   |   |   |   |   Minimum Endpoint to Any Point Distance <= 0.073042: Join (6.0/1.0)
|   |   |   |   |   |   |   |   |   |   |   Minimum Endpoint to Any Point Distance > 0.073042: NoJoin (7.0)
|   |   |   |   |   |   |   |   |   |   Ratio Minimum Endpoint to Any Point Distance to Overall Minimum Distance > 0.890321: NoJoin (100.0/5.0)
|   |   |   |   |   |   |   |   Ratio Minimum Endpoint to Endpoint Distance to Overall Minimum Distance > 0.984487: NoJoin (73.0)
|   |   |   |   |   |   Minimum Endpoint to Endpoint Distance > 0.086129: NoJoin (397.0/9.0)
|   Minimum Distance > 0.015699
|   |   Maximum Distance <= 0.2175
|   |   |   Distance Ratio A <= 0.977455
|   |   |   |   Distance Ratio B <= 0.984155
|   |   |   |   |   Ratio Minimum Endpoint to Endpoint Distance to Overall Minimum Distance <= 0.976956: NoJoin (738.0/22.0)
|   |   |   |   |   Ratio Minimum Endpoint to Endpoint Distance to Overall Minimum Distance > 0.976956
|   |   |   |   |   |   Maximum Distance <= 0.160348
|   |   |   |   |   |   |   Vertical Overlap <= -0.005551: NoJoin (1659.0/243.0)
|   |   |   |   |   |   |   Vertical Overlap > -0.005551
|   |   |   |   |   |   |   |   Maximum Distance <= 0.089865
|   |   |   |   |   |   |   |   |   Time Gap <= 41808
|   |   |   |   |   |   |   |   |   |   Ratio Minimum Endpoint to Any Point Distance to Overall Minimum Distance <= 0.998776: NoJoin (25.0/6.0)
|   |   |   |   |   |   |   |   |   |   Ratio Minimum Endpoint to Any Point Distance to Overall Minimum Distance > 0.998776
|   |   |   |   |   |   |   |   |   |   |   Ratio Minimum Endpoint to Endpoint Distance to Overall Minimum Distance <= 0.991187: NoJoin (2.0)
|   |   |   |   |   |   |   |   |   |   |   Ratio Minimum Endpoint to Endpoint Distance to Overall Minimum Distance > 0.991187
|   |   |   |   |   |   |   |   |   |   |   |   Maximum Distance <= 0.071598: Ignore (9.0)
|   |   |   |   |   |   |   |   |   |   |   |   Maximum Distance > 0.071598
|   |   |   |   |   |   |   |   |   |   |   |   |   Minimum Distance <= 0.029146: NoJoin (2.0)
|   |   |   |   |   |   |   |   |   |   |   |   |   Minimum Distance > 0.029146
|   |   |   |   |   |   |   |   |   |   |   |   |   |   Ratio Minimum Endpoint to Any Point Distance to Overall Minimum Distance <= 0.999822
|   |   |   |   |   |   |   |   |   |   |   |   |   |   |   Vertical Overlap <= 0.003921: NoJoin (2.0)
|   |   |   |   |   |   |   |   |   |   |   |   |   |   |   Vertical Overlap > 0.003921: Ignore (2.0)
|   |   |   |   |   |   |   |   |   |   |   |   |   |   Ratio Minimum Endpoint to Any Point Distance to Overall Minimum Distance > 0.999822: Ignore (4.0)
|   |   |   |   |   |   |   |   |   Time Gap > 41808: Ignore (17.0/1.0)
|   |   |   |   |   |   |   |   Maximum Distance > 0.089865
|   |   |   |   |   |   |   |   |   Minimum Endpoint to Any Point Distance <= 0.032139
|   |   |   |   |   |   |   |   |   |   Centroid Distance <= 0.051333: NoJoin (6.0)
|   |   |   |   |   |   |   |   |   |   Centroid Distance > 0.051333
|   |   |   |   |   |   |   |   |   |   |   Ratio Minimum Endpoint to Endpoint Distance to Overall Minimum Distance <= 0.993118: Ignore (8.0)
|   |   |   |   |   |   |   |   |   |   |   Ratio Minimum Endpoint to Endpoint Distance to Overall Minimum Distance > 0.993118
|   |   |   |   |   |   |   |   |   |   |   |   Ratio Minimum Endpoint to Any Point Distance to Overall Minimum Distance <= 0.996847: NoJoin (4.0)
|   |   |   |   |   |   |   |   |   |   |   |   Ratio Minimum Endpoint to Any Point Distance to Overall Minimum Distance > 0.996847
|   |   |   |   |   |   |   |   |   |   |   |   |   Ratio Minimum Endpoint to Endpoint Distance to Overall Minimum Distance <= 0.998353: Ignore (6.0)
|   |   |   |   |   |   |   |   |   |   |   |   |   Ratio Minimum Endpoint to Endpoint Distance to Overall Minimum Distance > 0.998353
|   |   |   |   |   |   |   |   |   |   |   |   |   |   Ratio Minimum Endpoint to Any Point Distance to Overall Minimum Distance <= 0.99996: NoJoin (3.0)
|   |   |   |   |   |   |   |   |   |   |   |   |   |   Ratio Minimum Endpoint to Any Point Distance to Overall Minimum Distance > 0.99996
|   |   |   |   |   |   |   |   |   |   |   |   |   |   |   Vertical Overlap <= 0.001885: Ignore (11.0/3.0)
|   |   |   |   |   |   |   |   |   |   |   |   |   |   |   Vertical Overlap > 0.001885: NoJoin (3.0)
|   |   |   |   |   |   |   |   |   Minimum Endpoint to Any Point Distance > 0.032139
|   |   |   |   |   |   |   |   |   |   Minimum Endpoint to Endpoint Distance <= 0.120391: NoJoin (209.0/46.0)
|   |   |   |   |   |   |   |   |   |   Minimum Endpoint to Endpoint Distance > 0.120391
|   |   |   |   |   |   |   |   |   |   |   Ratio Minimum Endpoint to Any Point Distance to Overall Minimum Distance <= 0.995811: NoJoin (2.0)
|   |   |   |   |   |   |   |   |   |   |   Ratio Minimum Endpoint to Any Point Distance to Overall Minimum Distance > 0.995811
|   |   |   |   |   |   |   |   |   |   |   |   Maximum Distance <= 0.154769: Ignore (9.0)
|   |   |   |   |   |   |   |   |   |   |   |   Maximum Distance > 0.154769: NoJoin (3.0/1.0)
|   |   |   |   |   |   Maximum Distance > 0.160348: NoJoin (2800.0/283.0)
|   |   |   |   Distance Ratio B > 0.984155: NoJoin (300.0)
|   |   |   Distance Ratio A > 0.977455: NoJoin (421.0)
|   |   Maximum Distance > 0.2175: NoJoin (36062.0/1336.0)

Number of Leaves  : 	99

Size of the tree : 	197


Weight: 3.07

J48 pruned tree
------------------

Minimum Distance <= 0.012608
|   Distance Ratio A <= 0.999924
|   |   Distance Ratio A <= 0.981036
|   |   |   Vertical Overlap <= 0.055927
|   |   |   |   Ratio Minimum Endpoint to Any Point Distance to Overall Minimum Distance <= 0.99597: NoJoin (35.87/1.05)
|   |   |   |   Ratio Minimum Endpoint to Any Point Distance to Overall Minimum Distance > 0.99597
|   |   |   |   |   Centroid Distance <= 0.129274
|   |   |   |   |   |   Horizontal Overlap <= 0.010185: Ignore (4.71/1.57)
|   |   |   |   |   |   Horizontal Overlap > 0.010185: NoJoin (3.14)
|   |   |   |   |   Centroid Distance > 0.129274: Ignore (5.23)
|   |   |   Vertical Overlap > 0.055927: Ignore (12.33/1.05)
|   |   Distance Ratio A > 0.981036
|   |   |   Vertical Overlap <= 0.009451
|   |   |   |   Distance Ratio B <= 0.982968
|   |   |   |   |   Distance Ratio B <= 0.982213
|   |   |   |   |   |   Minimum Endpoint to Any Point Distance <= 0.018735
|   |   |   |   |   |   |   Distance Ratio B <= 0.980419: Ignore (2.62)
|   |   |   |   |   |   |   Distance Ratio B > 0.980419: Join (3.66/1.05)
|   |   |   |   |   |   Minimum Endpoint to Any Point Distance > 0.018735: NoJoin (2.09)
|   |   |   |   |   Distance Ratio B > 0.982213: Join (47.23)
|   |   |   |   Distance Ratio B > 0.982968
|   |   |   |   |   Time Gap <= 87909
|   |   |   |   |   |   Minimum Endpoint to Any Point Distance <= 0.0082
|   |   |   |   |   |   |   Minimum Endpoint to Any Point Distance <= 0.000896: Join (51.79)
|   |   |   |   |   |   |   Minimum Endpoint to Any Point Distance > 0.000896
|   |   |   |   |   |   |   |   Centroid Distance <= 0.1921
|   |   |   |   |   |   |   |   |   Horizontal Overlap <= 0.044417
|   |   |   |   |   |   |   |   |   |   Horizontal Overlap <= 0.042346
|   |   |   |   |   |   |   |   |   |   |   Minimum Distance <= 0.000112
|   |   |   |   |   |   |   |   |   |   |   |   Time Gap <= 11863: Join (2.62)
|   |   |   |   |   |   |   |   |   |   |   |   Time Gap > 11863: NoJoin (23.09/0.52)
|   |   |   |   |   |   |   |   |   |   |   Minimum Distance > 0.000112
|   |   |   |   |   |   |   |   |   |   |   |   Horizontal Overlap <= 0.004963
|   |   |   |   |   |   |   |   |   |   |   |   |   Minimum Endpoint to Any Point Distance <= 0.000934: NoJoin (23.09/0.52)
|   |   |   |   |   |   |   |   |   |   |   |   |   Minimum Endpoint to Any Point Distance > 0.000934
|   |   |   |   |   |   |   |   |   |   |   |   |   |   Vertical Overlap <= 0.004052
|   |   |   |   |   |   |   |   |   |   |   |   |   |   |   Minimum Endpoint to Endpoint Distance <= 0.052483
|   |   |   |   |   |   |   |   |   |   |   |   |   |   |   |   Ratio Minimum Endpoint to Endpoint Distance to Overall Minimum Distance <= 0.995229: Join (35.58)
|   |   |   |   |   |   |   |   |   |   |   |   |   |   |   |   Ratio Minimum Endpoint to Endpoint Distance to Overall Minimum Distance > 0.995229
|   |   |   |   |   |   |   |   |   |   |   |   |   |   |   |   |   Horizontal Overlap <= -0.000758: Join (32.21)
|   |   |   |   |   |   |   |   |   |   |   |   |   |   |   |   |   Horizontal Overlap > -0.000758
|   |   |   |   |   |   |   |   |   |   |   |   |   |   |   |   |   |   Maximum Distance <= 0.08072: Join (6.28)
|   |   |   |   |   |   |   |   |   |   |   |   |   |   |   |   |   |   Maximum Distance > 0.08072
|   |   |   |   |   |   |   |   |   |   |   |   |   |   |   |   |   |   |   Minimum Distance <= 0.002421
|   |   |   |   |   |   |   |   |   |   |   |   |   |   |   |   |   |   |   |   Centroid Distance <= 0.036182: NoJoin (11.28)
|   |   |   |   |   |   |   |   |   |   |   |   |   |   |   |   |   |   |   |   Centroid Distance > 0.036182: Join (16.74)
|   |   |   |   |   |   |   |   |   |   |   |   |   |   |   |   |   |   |   Minimum Distance > 0.002421
|   |   |   |   |   |   |   |   |   |   |   |   |   |   |   |   |   |   |   |   Distance Ratio B <= 0.996266: Join (5.23/1.05)
|   |   |   |   |   |   |   |   |   |   |   |   |   |   |   |   |   |   |   |   Distance Ratio B > 0.996266
|   |   |   |   |   |   |   |   |   |   |   |   |   |   |   |   |   |   |   |   |   Distance Ratio B <= 0.999609: NoJoin (34.38/0.52)
|   |   |   |   |   |   |   |   |   |   |   |   |   |   |   |   |   |   |   |   |   Distance Ratio B > 0.999609
|   |   |   |   |   |   |   |   |   |   |   |   |   |   |   |   |   |   |   |   |   |   Centroid Distance <= 0.042809: NoJoin (11.28)
|   |   |   |   |   |   |   |   |   |   |   |   |   |   |   |   |   |   |   |   |   |   Centroid Distance > 0.042809: Join (3.66)
|   |   |   |   |   |   |   |   |   |   |   |   |   |   |   Minimum Endpoint to Endpoint Distance > 0.052483
|   |   |   |   |   |   |   |   |   |   |   |   |   |   |   |   Vertical Overlap <= 0.000993: Join (2.09)
|   |   |   |   |   |   |   |   |   |   |   |   |   |   |   |   Vertical Overlap > 0.000993
|   |   |   |   |   |   |   |   |   |   |   |   |   |   |   |   |   Distance Ratio B <= 0.997116: NoJoin (34.38/0.52)
|   |   |   |   |   |   |   |   |   |   |   |   |   |   |   |   |   Distance Ratio B > 0.997116
|   |   |   |   |   |   |   |   |   |   |   |   |   |   |   |   |   |   Maximum Distance <= 0.105327: NoJoin (11.28)
|   |   |   |   |   |   |   |   |   |   |   |   |   |   |   |   |   |   Maximum Distance > 0.105327: Join (2.62)
|   |   |   |   |   |   |   |   |   |   |   |   |   |   Vertical Overlap > 0.004052: Join (28.25)
|   |   |   |   |   |   |   |   |   |   |   |   Horizontal Overlap > 0.004963
|   |   |   |   |   |   |   |   |   |   |   |   |   Horizontal Overlap <= 0.032922: Join (123.77)
|   |   |   |   |   |   |   |   |   |   |   |   |   Horizontal Overlap > 0.032922
|   |   |   |   |   |   |   |   |   |   |   |   |   |   Ratio Minimum Endpoint to Any Point Distance to Overall Minimum Distance <= 0.997171: NoJoin (11.81/0.52)
|   |   |   |   |   |   |   |   |   |   |   |   |   |   Ratio Minimum Endpoint to Any Point Distance to Overall Minimum Distance > 0.997171: Join (8.89)
|   |   |   |   |   |   |   |   |   |   Horizontal Overlap > 0.042346: NoJoin (23.09/0.52)
|   |   |   |   |   |   |   |   |   Horizontal Overlap > 0.044417: Join (34.01)
|   |   |   |   |   |   |   |   Centroid Distance > 0.1921: Join (37.67)
|   |   |   |   |   |   Minimum Endpoint to Any Point Distance > 0.0082
|   |   |   |   |   |   |   Minimum Endpoint to Endpoint Distance <= 0.03833
|   |   |   |   |   |   |   |   Horizontal Overlap <= 0.005122: Join (44.24/4.71)
|   |   |   |   |   |   |   |   Horizontal Overlap > 0.005122
|   |   |   |   |   |   |   |   |   Ratio Minimum Endpoint to Endpoint Distance to Overall Minimum Distance <= 0.977983: Join (21.75/2.62)
|   |   |   |   |   |   |   |   |   Ratio Minimum Endpoint to Endpoint Distance to Overall Minimum Distance > 0.977983
|   |   |   |   |   |   |   |   |   |   Minimum Distance <= 0.005365
|   |   |   |   |   |   |   |   |   |   |   Ratio Minimum Endpoint to Endpoint Distance to Overall Minimum Distance <= 0.979637: NoJoin (11.28)
|   |   |   |   |   |   |   |   |   |   |   Ratio Minimum Endpoint to Endpoint Distance to Overall Minimum Distance > 0.979637
|   |   |   |   |   |   |   |   |   |   |   |   Horizontal Overlap <= 0.040782: Join (11.51)
|   |   |   |   |   |   |   |   |   |   |   |   Horizontal Overlap > 0.040782: NoJoin (2.09/0.52)
|   |   |   |   |   |   |   |   |   |   Minimum Distance > 0.005365: NoJoin (43.2/5.23)
|   |   |   |   |   |   |   Minimum Endpoint to Endpoint Distance > 0.03833
|   |   |   |   |   |   |   |   Vertical Overlap <= 0.002341
|   |   |   |   |   |   |   |   |   Time Gap <= 5404
|   |   |   |   |   |   |   |   |   |   Vertical Overlap <= -0.001872: NoJoin (23.09)
|   |   |   |   |   |   |   |   |   |   Vertical Overlap > -0.001872: Join (2.09)
|   |   |   |   |   |   |   |   |   Time Gap > 5404: Join (19.13/1.57)
|   |   |   |   |   |   |   |   Vertical Overlap > 0.002341: NoJoin (127.87/4.71)
|   |   |   |   |   Time Gap > 87909: Join (44.54)
|   |   |   Vertical Overlap > 0.009451
|   |   |   |   Minimum Endpoint to Any Point Distance <= 0.001544: Join (22.5)
|   |   |   |   Minimum Endpoint to Any Point Distance > 0.001544
|   |   |   |   |   Minimum Distance <= 0.000337
|   |   |   |   |   |   Minimum Endpoint to Endpoint Distance <= 0.064201: Join (39.09/2.09)
|   |   |   |   |   |   Minimum Endpoint to Endpoint Distance > 0.064201
|   |   |   |   |   |   |   Horizontal Overlap <= 0.035648: Join (2.09/0.52)
|   |   |   |   |   |   |   Horizontal Overlap > 0.035648: NoJoin (2.62)
|   |   |   |   |   Minimum Distance > 0.000337
|   |   |   |   |   |   Centroid Distance <= 0.18489
|   |   |   |   |   |   |   Distance Ratio B <= 0.993577
|   |   |   |   |   |   |   |   Part of Same Closed Path <= 0
|   |   |   |   |   |   |   |   |   Minimum Endpoint to Any Point Distance <= 0.007782: Join (8.37)
|   |   |   |   |   |   |   |   |   Minimum Endpoint to Any Point Distance > 0.007782: NoJoin (30.64/2.62)
|   |   |   |   |   |   |   |   Part of Same Closed Path > 0: Join (11.28)
|   |   |   |   |   |   |   Distance Ratio B > 0.993577
|   |   |   |   |   |   |   |   Ratio Minimum Endpoint to Any Point Distance to Overall Minimum Distance <= 0.983363
|   |   |   |   |   |   |   |   |   Ratio Minimum Endpoint to Endpoint Distance to Overall Minimum Distance <= 0.966568: NoJoin (183.19/2.09)
|   |   |   |   |   |   |   |   |   Ratio Minimum Endpoint to Endpoint Distance to Overall Minimum Distance > 0.966568
|   |   |   |   |   |   |   |   |   |   Horizontal Overlap <= 0.046838: Join (2.62)
|   |   |   |   |   |   |   |   |   |   Horizontal Overlap > 0.046838: NoJoin (4.19)
|   |   |   |   |   |   |   |   Ratio Minimum Endpoint to Any Point Distance to Overall Minimum Distance > 0.983363
|   |   |   |   |   |   |   |   |   Minimum Endpoint to Endpoint Distance <= 0.129268
|   |   |   |   |   |   |   |   |   |   Minimum Endpoint to Endpoint Distance <= 0.095973
|   |   |   |   |   |   |   |   |   |   |   Time Gap <= 1263: Join (4.71)
|   |   |   |   |   |   |   |   |   |   |   Time Gap > 1263
|   |   |   |   |   |   |   |   |   |   |   |   Distance Ratio A <= 0.99978
|   |   |   |   |   |   |   |   |   |   |   |   |   Minimum Distance <= 0.001943: Join (12.56/1.05)
|   |   |   |   |   |   |   |   |   |   |   |   |   Minimum Distance > 0.001943
|   |   |   |   |   |   |   |   |   |   |   |   |   |   Distance Ratio A <= 0.99664
|   |   |   |   |   |   |   |   |   |   |   |   |   |   |   Minimum Distance <= 0.005468: Join (4.19)
|   |   |   |   |   |   |   |   |   |   |   |   |   |   |   Minimum Distance > 0.005468: NoJoin (22.57)
|   |   |   |   |   |   |   |   |   |   |   |   |   |   Distance Ratio A > 0.99664: NoJoin (46.18/0.52)
|   |   |   |   |   |   |   |   |   |   |   |   Distance Ratio A > 0.99978: NoJoin (33.85)
|   |   |   |   |   |   |   |   |   |   Minimum Endpoint to Endpoint Distance > 0.095973: NoJoin (46.18/1.05)
|   |   |   |   |   |   |   |   |   Minimum Endpoint to Endpoint Distance > 0.129268: Join (9.42)
|   |   |   |   |   |   Centroid Distance > 0.18489
|   |   |   |   |   |   |   Minimum Distance <= 0.000835: NoJoin (28.85/1.57)
|   |   |   |   |   |   |   Minimum Distance > 0.000835
|   |   |   |   |   |   |   |   Distance Ratio B <= 0.999496
|   |   |   |   |   |   |   |   |   Minimum Endpoint to Any Point Distance <= 0.00761: Join (24.07)
|   |   |   |   |   |   |   |   |   Minimum Endpoint to Any Point Distance > 0.00761
|   |   |   |   |   |   |   |   |   |   Horizontal Overlap <= 0.023164: NoJoin (13.08/1.05)
|   |   |   |   |   |   |   |   |   |   Horizontal Overlap > 0.023164
|   |   |   |   |   |   |   |   |   |   |   Ratio Minimum Endpoint to Any Point Distance to Overall Minimum Distance <= 0.92459: Join (35.42/0.52)
|   |   |   |   |   |   |   |   |   |   |   Ratio Minimum Endpoint to Any Point Distance to Overall Minimum Distance > 0.92459: NoJoin (7.32/1.05)
|   |   |   |   |   |   |   |   Distance Ratio B > 0.999496
|   |   |   |   |   |   |   |   |   Ratio Minimum Endpoint to Any Point Distance to Overall Minimum Distance <= 0.997609: NoJoin (19.13/1.57)
|   |   |   |   |   |   |   |   |   Ratio Minimum Endpoint to Any Point Distance to Overall Minimum Distance > 0.997609: Join (3.14)
|   Distance Ratio A > 0.999924
|   |   Minimum Endpoint to Any Point Distance <= 0.010884
|   |   |   Time Gap <= 10
|   |   |   |   Time Gap <= 8: Join (8.37)
|   |   |   |   Time Gap > 8: NoJoin (23.09)
|   |   |   Time Gap > 10
|   |   |   |   Minimum Distance <= 0.005727
|   |   |   |   |   Minimum Endpoint to Endpoint Distance <= 0.001461
|   |   |   |   |   |   Maximum Distance <= 0.233795: Join (68.01)
|   |   |   |   |   |   Maximum Distance > 0.233795
|   |   |   |   |   |   |   Centroid Distance <= 0.126636: NoJoin (34.9/1.05)
|   |   |   |   |   |   |   Centroid Distance > 0.126636: Join (16.74)
|   |   |   |   |   Minimum Endpoint to Endpoint Distance > 0.001461
|   |   |   |   |   |   Ratio Minimum Endpoint to Endpoint Distance to Overall Minimum Distance <= 0.810027
|   |   |   |   |   |   |   Ratio Minimum Endpoint to Endpoint Distance to Overall Minimum Distance <= 0.808461: Join (24.07)
|   |   |   |   |   |   |   Ratio Minimum Endpoint to Endpoint Distance to Overall Minimum Distance > 0.808461: NoJoin (11.28)
|   |   |   |   |   |   Ratio Minimum Endpoint to Endpoint Distance to Overall Minimum Distance > 0.810027
|   |   |   |   |   |   |   Centroid Distance <= 0.024855
|   |   |   |   |   |   |   |   Centroid Distance <= 0.024635: Join (53.36)
|   |   |   |   |   |   |   |   Centroid Distance > 0.024635: NoJoin (11.81/0.52)
|   |   |   |   |   |   |   Centroid Distance > 0.024855: Join (550.68)
|   |   |   |   Minimum Distance > 0.005727
|   |   |   |   |   Centroid Distance <= 0.034022: NoJoin (12.85/1.05)
|   |   |   |   |   Centroid Distance > 0.034022: Join (12.56/0.52)
|   |   Minimum Endpoint to Any Point Distance > 0.010884
|   |   |   Minimum Endpoint to Any Point Distance <= 0.011383: NoJoin (23.62/0.52)
|   |   |   Minimum Endpoint to Any Point Distance > 0.011383
|   |   |   |   Minimum Endpoint to Endpoint Distance <= 0.130264
|   |   |   |   |   Centroid Distance <= 0.027437
|   |   |   |   |   |   Time Gap <= 1165: Join (2.09)
|   |   |   |   |   |   Time Gap > 1165: NoJoin (13.9/0.52)
|   |   |   |   |   Centroid Distance > 0.027437
|   |   |   |   |   |   Vertical Overlap <= 0.052171
|   |   |   |   |   |   |   Vertical Overlap <= -0.006109: NoJoin (6.28/0.52)
|   |   |   |   |   |   |   Vertical Overlap > -0.006109
|   |   |   |   |   |   |   |   Maximum Distance <= 0.244506: Join (99.32/6.8)
|   |   |   |   |   |   |   |   Maximum Distance > 0.244506
|   |   |   |   |   |   |   |   |   Vertical Overlap <= 0.021152
|   |   |   |   |   |   |   |   |   |   Minimum Endpoint to Any Point Distance <= 0.027848: Join (26.75/1.05)
|   |   |   |   |   |   |   |   |   |   Minimum Endpoint to Any Point Distance > 0.027848
|   |   |   |   |   |   |   |   |   |   |   Ratio Minimum Endpoint to Any Point Distance to Overall Minimum Distance <= 0.808701: Join (13.9)
|   |   |   |   |   |   |   |   |   |   |   Ratio Minimum Endpoint to Any Point Distance to Overall Minimum Distance > 0.808701: NoJoin (17.26/4.71)
|   |   |   |   |   |   |   |   |   Vertical Overlap > 0.021152: NoJoin (8.89/1.05)
|   |   |   |   |   |   Vertical Overlap > 0.052171: NoJoin (13.08/1.05)
|   |   |   |   Minimum Endpoint to Endpoint Distance > 0.130264: NoJoin (18.31/1.57)
Minimum Distance > 0.012608
|   Horizontal Overlap <= -0.033008
|   |   Maximum Distance <= 0.264629
|   |   |   Distance Ratio B <= 0.954983
|   |   |   |   Distance Ratio A <= 0.954045
|   |   |   |   |   Ratio Minimum Endpoint to Endpoint Distance to Overall Minimum Distance <= 0.979377
|   |   |   |   |   |   Time Gap <= 52206
|   |   |   |   |   |   |   Maximum Distance <= 0.117975: Ignore (12.85/1.57)
|   |   |   |   |   |   |   Maximum Distance > 0.117975: NoJoin (146.49)
|   |   |   |   |   |   Time Gap > 52206
|   |   |   |   |   |   |   Ratio Minimum Endpoint to Endpoint Distance to Overall Minimum Distance <= 0.947027: NoJoin (23.02)
|   |   |   |   |   |   |   Ratio Minimum Endpoint to Endpoint Distance to Overall Minimum Distance > 0.947027
|   |   |   |   |   |   |   |   Time Gap <= 82706
|   |   |   |   |   |   |   |   |   Maximum Distance <= 0.212579: NoJoin (3.14)
|   |   |   |   |   |   |   |   |   Maximum Distance > 0.212579
|   |   |   |   |   |   |   |   |   |   Horizontal Overlap <= -0.143926: NoJoin (3.14)
|   |   |   |   |   |   |   |   |   |   Horizontal Overlap > -0.143926
|   |   |   |   |   |   |   |   |   |   |   Vertical Overlap <= -0.044122: NoJoin (2.09)
|   |   |   |   |   |   |   |   |   |   |   Vertical Overlap > -0.044122: Ignore (57.99/1.57)
|   |   |   |   |   |   |   |   Time Gap > 82706: NoJoin (6.28)
|   |   |   |   |   Ratio Minimum Endpoint to Endpoint Distance to Overall Minimum Distance > 0.979377
|   |   |   |   |   |   Centroid Distance <= 0.114793
|   |   |   |   |   |   |   Distance Ratio A <= 0.941262
|   |   |   |   |   |   |   |   Vertical Overlap <= -0.036725
|   |   |   |   |   |   |   |   |   Centroid Distance <= 0.103532: NoJoin (23.54)
|   |   |   |   |   |   |   |   |   Centroid Distance > 0.103532
|   |   |   |   |   |   |   |   |   |   Centroid Distance <= 0.110817
|   |   |   |   |   |   |   |   |   |   |   Time Gap <= 31710: Ignore (73.98/6.28)
|   |   |   |   |   |   |   |   |   |   |   Time Gap > 31710: NoJoin (4.71)
|   |   |   |   |   |   |   |   |   |   Centroid Distance > 0.110817: NoJoin (9.42)
|   |   |   |   |   |   |   |   Vertical Overlap > -0.036725
|   |   |   |   |   |   |   |   |   Time Gap <= 40418
|   |   |   |   |   |   |   |   |   |   Ratio Minimum Endpoint to Endpoint Distance to Overall Minimum Distance <= 0.992907
|   |   |   |   |   |   |   |   |   |   |   Time Gap <= 8675: NoJoin (16.74)
|   |   |   |   |   |   |   |   |   |   |   Time Gap > 8675
|   |   |   |   |   |   |   |   |   |   |   |   Vertical Overlap <= -0.0115: NoJoin (5.75)
|   |   |   |   |   |   |   |   |   |   |   |   Vertical Overlap > -0.0115
|   |   |   |   |   |   |   |   |   |   |   |   |   Vertical Overlap <= 0.001245: Ignore (46.71/1.57)
|   |   |   |   |   |   |   |   |   |   |   |   |   Vertical Overlap > 0.001245
|   |   |   |   |   |   |   |   |   |   |   |   |   |   Minimum Distance <= 0.086239: NoJoin (8.89/0.52)
|   |   |   |   |   |   |   |   |   |   |   |   |   |   Minimum Distance > 0.086239: Ignore (11.28)
|   |   |   |   |   |   |   |   |   |   Ratio Minimum Endpoint to Endpoint Distance to Overall Minimum Distance > 0.992907
|   |   |   |   |   |   |   |   |   |   |   Ratio Minimum Endpoint to Any Point Distance to Overall Minimum Distance <= 0.960653: Ignore (33.85)
|   |   |   |   |   |   |   |   |   |   |   Ratio Minimum Endpoint to Any Point Distance to Overall Minimum Distance > 0.960653
|   |   |   |   |   |   |   |   |   |   |   |   Centroid Distance <= 0.11447
|   |   |   |   |   |   |   |   |   |   |   |   |   Ratio Minimum Endpoint to Any Point Distance to Overall Minimum Distance <= 0.998435
|   |   |   |   |   |   |   |   |   |   |   |   |   |   Distance Ratio B <= 0.915984
|   |   |   |   |   |   |   |   |   |   |   |   |   |   |   Ratio Minimum Endpoint to Any Point Distance to Overall Minimum Distance <= 0.997767
|   |   |   |   |   |   |   |   |   |   |   |   |   |   |   |   Distance Ratio B <= 0.869398: NoJoin (4.71)
|   |   |   |   |   |   |   |   |   |   |   |   |   |   |   |   Distance Ratio B > 0.869398
|   |   |   |   |   |   |   |   |   |   |   |   |   |   |   |   |   Ratio Minimum Endpoint to Endpoint Distance to Overall Minimum Distance <= 0.993868: Ignore (34.38/0.52)
|   |   |   |   |   |   |   |   |   |   |   |   |   |   |   |   |   Ratio Minimum Endpoint to Endpoint Distance to Overall Minimum Distance > 0.993868
|   |   |   |   |   |   |   |   |   |   |   |   |   |   |   |   |   |   Ratio Minimum Endpoint to Endpoint Distance to Overall Minimum Distance <= 0.99771
|   |   |   |   |   |   |   |   |   |   |   |   |   |   |   |   |   |   |   Minimum Endpoint to Endpoint Distance <= 0.046206: Ignore (23.62/1.05)
|   |   |   |   |   |   |   |   |   |   |   |   |   |   |   |   |   |   |   Minimum Endpoint to Endpoint Distance > 0.046206: NoJoin (10.99)
|   |   |   |   |   |   |   |   |   |   |   |   |   |   |   |   |   |   Ratio Minimum Endpoint to Endpoint Distance to Overall Minimum Distance > 0.99771: Ignore (35.42/1.57)
|   |   |   |   |   |   |   |   |   |   |   |   |   |   |   Ratio Minimum Endpoint to Any Point Distance to Overall Minimum Distance > 0.997767: NoJoin (5.75)
|   |   |   |   |   |   |   |   |   |   |   |   |   |   Distance Ratio B > 0.915984: NoJoin (9.94)
|   |   |   |   |   |   |   |   |   |   |   |   |   Ratio Minimum Endpoint to Any Point Distance to Overall Minimum Distance > 0.998435
|   |   |   |   |   |   |   |   |   |   |   |   |   |   Maximum Distance <= 0.136522
|   |   |   |   |   |   |   |   |   |   |   |   |   |   |   Centroid Distance <= 0.074488: NoJoin (7.85/2.62)
|   |   |   |   |   |   |   |   |   |   |   |   |   |   |   Centroid Distance > 0.074488: Ignore (207.53/15.17)
|   |   |   |   |   |   |   |   |   |   |   |   |   |   Maximum Distance > 0.136522
|   |   |   |   |   |   |   |   |   |   |   |   |   |   |   Time Gap <= 20626
|   |   |   |   |   |   |   |   |   |   |   |   |   |   |   |   Distance Ratio B <= 0.929978
|   |   |   |   |   |   |   |   |   |   |   |   |   |   |   |   |   Ratio Minimum Endpoint to Any Point Distance to Overall Minimum Distance <= 0.999763
|   |   |   |   |   |   |   |   |   |   |   |   |   |   |   |   |   |   Ratio Minimum Endpoint to Any Point Distance to Overall Minimum Distance <= 0.998451: Ignore (11.28)
|   |   |   |   |   |   |   |   |   |   |   |   |   |   |   |   |   |   Ratio Minimum Endpoint to Any Point Distance to Overall Minimum Distance > 0.998451: NoJoin (7.32)
|   |   |   |   |   |   |   |   |   |   |   |   |   |   |   |   |   Ratio Minimum Endpoint to Any Point Distance to Overall Minimum Distance > 0.999763
|   |   |   |   |   |   |   |   |   |   |   |   |   |   |   |   |   |   Ratio Minimum Endpoint to Any Point Distance to Overall Minimum Distance <= 0.999815: Ignore (11.28)
|   |   |   |   |   |   |   |   |   |   |   |   |   |   |   |   |   |   Ratio Minimum Endpoint to Any Point Distance to Overall Minimum Distance > 0.999815
|   |   |   |   |   |   |   |   |   |   |   |   |   |   |   |   |   |   |   Vertical Overlap <= -0.00628
|   |   |   |   |   |   |   |   |   |   |   |   |   |   |   |   |   |   |   |   Ratio Minimum Endpoint to Endpoint Distance to Overall Minimum Distance <= 0.994786: Ignore (11.28)
|   |   |   |   |   |   |   |   |   |   |   |   |   |   |   |   |   |   |   |   Ratio Minimum Endpoint to Endpoint Distance to Overall Minimum Distance > 0.994786: NoJoin (5.23)
|   |   |   |   |   |   |   |   |   |   |   |   |   |   |   |   |   |   |   Vertical Overlap > -0.00628: Ignore (83.7/4.71)
|   |   |   |   |   |   |   |   |   |   |   |   |   |   |   |   Distance Ratio B > 0.929978: NoJoin (5.75)
|   |   |   |   |   |   |   |   |   |   |   |   |   |   |   Time Gap > 20626: NoJoin (8.89)
|   |   |   |   |   |   |   |   |   |   |   |   Centroid Distance > 0.11447: Ignore (45.66/0.52)
|   |   |   |   |   |   |   |   |   Time Gap > 40418
|   |   |   |   |   |   |   |   |   |   Ratio Minimum Endpoint to Endpoint Distance to Overall Minimum Distance <= 0.998411: Ignore (215.68/8.37)
|   |   |   |   |   |   |   |   |   |   Ratio Minimum Endpoint to Endpoint Distance to Overall Minimum Distance > 0.998411
|   |   |   |   |   |   |   |   |   |   |   Ratio Minimum Endpoint to Any Point Distance to Overall Minimum Distance <= 0.999239: NoJoin (5.75)
|   |   |   |   |   |   |   |   |   |   |   Ratio Minimum Endpoint to Any Point Distance to Overall Minimum Distance > 0.999239
|   |   |   |   |   |   |   |   |   |   |   |   Horizontal Overlap <= -0.060674: NoJoin (3.14)
|   |   |   |   |   |   |   |   |   |   |   |   Horizontal Overlap > -0.060674: Ignore (25.18/1.57)
|   |   |   |   |   |   |   Distance Ratio A > 0.941262
|   |   |   |   |   |   |   |   Distance Ratio A <= 0.95049
|   |   |   |   |   |   |   |   |   Maximum Distance <= 0.081742: Ignore (2.09/0.52)
|   |   |   |   |   |   |   |   |   Maximum Distance > 0.081742: NoJoin (31.69)
|   |   |   |   |   |   |   |   Distance Ratio A > 0.95049
|   |   |   |   |   |   |   |   |   Time Gap <= 42935: NoJoin (4.19)
|   |   |   |   |   |   |   |   |   Time Gap > 42935: Ignore (23.09)
|   |   |   |   |   |   Centroid Distance > 0.114793
|   |   |   |   |   |   |   Distance Ratio B <= 0.942081
|   |   |   |   |   |   |   |   Ratio Minimum Endpoint to Any Point Distance to Overall Minimum Distance <= 0.981497
|   |   |   |   |   |   |   |   |   Time Gap <= 4280: Ignore (12.33/1.05)
|   |   |   |   |   |   |   |   |   Time Gap > 4280: NoJoin (64.87)
|   |   |   |   |   |   |   |   Ratio Minimum Endpoint to Any Point Distance to Overall Minimum Distance > 0.981497
|   |   |   |   |   |   |   |   |   Vertical Overlap <= 0.13262
|   |   |   |   |   |   |   |   |   |   Distance Ratio B <= 0.631792: Ignore (61.13/4.71)
|   |   |   |   |   |   |   |   |   |   Distance Ratio B > 0.631792
|   |   |   |   |   |   |   |   |   |   |   Time Gap <= 107533
|   |   |   |   |   |   |   |   |   |   |   |   Ratio Minimum Endpoint to Endpoint Distance to Overall Minimum Distance <= 0.999993
|   |   |   |   |   |   |   |   |   |   |   |   |   Horizontal Overlap <= -0.040085
|   |   |   |   |   |   |   |   |   |   |   |   |   |   Ratio Minimum Endpoint to Endpoint Distance to Overall Minimum Distance <= 0.989061
|   |   |   |   |   |   |   |   |   |   |   |   |   |   |   Vertical Overlap <= -0.036307
|   |   |   |   |   |   |   |   |   |   |   |   |   |   |   |   Ratio Minimum Endpoint to Endpoint Distance to Overall Minimum Distance <= 0.986917
|   |   |   |   |   |   |   |   |   |   |   |   |   |   |   |   |   Ratio Minimum Endpoint to Any Point Distance to Overall Minimum Distance <= 0.998111
|   |   |   |   |   |   |   |   |   |   |   |   |   |   |   |   |   |   Time Gap <= 15122: NoJoin (5.75)
|   |   |   |   |   |   |   |   |   |   |   |   |   |   |   |   |   |   Time Gap > 15122
|   |   |   |   |   |   |   |   |   |   |   |   |   |   |   |   |   |   |   Horizontal Overlap <= -0.071773
|   |   |   |   |   |   |   |   |   |   |   |   |   |   |   |   |   |   |   |   Ratio Minimum Endpoint to Endpoint Distance to Overall Minimum Distance <= 0.981211: Ignore (24.14/1.57)
|   |   |   |   |   |   |   |   |   |   |   |   |   |   |   |   |   |   |   |   Ratio Minimum Endpoint to Endpoint Distance to Overall Minimum Distance > 0.981211: NoJoin (12.56)
|   |   |   |   |   |   |   |   |   |   |   |   |   |   |   |   |   |   |   Horizontal Overlap > -0.071773: Ignore (47.23/2.09)
|   |   |   |   |   |   |   |   |   |   |   |   |   |   |   |   |   Ratio Minimum Endpoint to Any Point Distance to Overall Minimum Distance > 0.998111: NoJoin (8.37)
|   |   |   |   |   |   |   |   |   |   |   |   |   |   |   |   Ratio Minimum Endpoint to Endpoint Distance to Overall Minimum Distance > 0.986917: NoJoin (16.74)
|   |   |   |   |   |   |   |   |   |   |   |   |   |   |   Vertical Overlap > -0.036307: NoJoin (60.17/0.52)
|   |   |   |   |   |   |   |   |   |   |   |   |   |   Ratio Minimum Endpoint to Endpoint Distance to Overall Minimum Distance > 0.989061
|   |   |   |   |   |   |   |   |   |   |   |   |   |   |   Time Gap <= 2790
|   |   |   |   |   |   |   |   |   |   |   |   |   |   |   |   Distance Ratio A <= 0.858319
|   |   |   |   |   |   |   |   |   |   |   |   |   |   |   |   |   Time Gap <= 1429: NoJoin (5.23)
|   |   |   |   |   |   |   |   |   |   |   |   |   |   |   |   |   Time Gap > 1429
|   |   |   |   |   |   |   |   |   |   |   |   |   |   |   |   |   |   Horizontal Overlap <= -0.07858: Ignore (130.41/6.28)
|   |   |   |   |   |   |   |   |   |   |   |   |   |   |   |   |   |   Horizontal Overlap > -0.07858: NoJoin (4.71)
|   |   |   |   |   |   |   |   |   |   |   |   |   |   |   |   Distance Ratio A > 0.858319: NoJoin (19.36)
|   |   |   |   |   |   |   |   |   |   |   |   |   |   |   Time Gap > 2790
|   |   |   |   |   |   |   |   |   |   |   |   |   |   |   |   Maximum Distance <= 0.206707
|   |   |   |   |   |   |   |   |   |   |   |   |   |   |   |   |   Maximum Distance <= 0.205902
|   |   |   |   |   |   |   |   |   |   |   |   |   |   |   |   |   |   Time Gap <= 36866
|   |   |   |   |   |   |   |   |   |   |   |   |   |   |   |   |   |   |   Distance Ratio B <= 0.907044
|   |   |   |   |   |   |   |   |   |   |   |   |   |   |   |   |   |   |   |   Horizontal Overlap <= -0.10429
|   |   |   |   |   |   |   |   |   |   |   |   |   |   |   |   |   |   |   |   |   Ratio Minimum Endpoint to Endpoint Distance to Overall Minimum Distance <= 0.999242
|   |   |   |   |   |   |   |   |   |   |   |   |   |   |   |   |   |   |   |   |   |   Maximum Distance <= 0.14574: Ignore (57.47/0.52)
|   |   |   |   |   |   |   |   |   |   |   |   |   |   |   |   |   |   |   |   |   |   Maximum Distance > 0.14574
|   |   |   |   |   |   |   |   |   |   |   |   |   |   |   |   |   |   |   |   |   |   |   Minimum Endpoint to Endpoint Distance <= 0.185931
|   |   |   |   |   |   |   |   |   |   |   |   |   |   |   |   |   |   |   |   |   |   |   |   Distance Ratio B <= 0.898794
|   |   |   |   |   |   |   |   |   |   |   |   |   |   |   |   |   |   |   |   |   |   |   |   |   Time Gap <= 23802
|   |   |   |   |   |   |   |   |   |   |   |   |   |   |   |   |   |   |   |   |   |   |   |   |   |   Time Gap <= 6346: NoJoin (9.42)
|   |   |   |   |   |   |   |   |   |   |   |   |   |   |   |   |   |   |   |   |   |   |   |   |   |   Time Gap > 6346
|   |   |   |   |   |   |   |   |   |   |   |   |   |   |   |   |   |   |   |   |   |   |   |   |   |   |   Distance Ratio B <= 0.814841
|   |   |   |   |   |   |   |   |   |   |   |   |   |   |   |   |   |   |   |   |   |   |   |   |   |   |   |   Ratio Minimum Endpoint to Any Point Distance to Overall Minimum Distance <= 0.998199
|   |   |   |   |   |   |   |   |   |   |   |   |   |   |   |   |   |   |   |   |   |   |   |   |   |   |   |   |   Ratio Minimum Endpoint to Any Point Distance to Overall Minimum Distance <= 0.9975
|   |   |   |   |   |   |   |   |   |   |   |   |   |   |   |   |   |   |   |   |   |   |   |   |   |   |   |   |   |   Distance Ratio A <= 0.780347
|   |   |   |   |   |   |   |   |   |   |   |   |   |   |   |   |   |   |   |   |   |   |   |   |   |   |   |   |   |   |   Ratio Minimum Endpoint to Endpoint Distance to Overall Minimum Distance <= 0.99669: NoJoin (7.85)
|   |   |   |   |   |   |   |   |   |   |   |   |   |   |   |   |   |   |   |   |   |   |   |   |   |   |   |   |   |   |   Ratio Minimum Endpoint to Endpoint Distance to Overall Minimum Distance > 0.99669: Ignore (11.81)
|   |   |   |   |   |   |   |   |   |   |   |   |   |   |   |   |   |   |   |   |   |   |   |   |   |   |   |   |   |   Distance Ratio A > 0.780347
|   |   |   |   |   |   |   |   |   |   |   |   |   |   |   |   |   |   |   |   |   |   |   |   |   |   |   |   |   |   |   Ratio Minimum Endpoint to Endpoint Distance to Overall Minimum Distance <= 0.992659: Ignore (45.66)
|   |   |   |   |   |   |   |   |   |   |   |   |   |   |   |   |   |   |   |   |   |   |   |   |   |   |   |   |   |   |   Ratio Minimum Endpoint to Endpoint Distance to Overall Minimum Distance > 0.992659
|   |   |   |   |   |   |   |   |   |   |   |   |   |   |   |   |   |   |   |   |   |   |   |   |   |   |   |   |   |   |   |   Ratio Minimum Endpoint to Endpoint Distance to Overall Minimum Distance <= 0.996063
|   |   |   |   |   |   |   |   |   |   |   |   |   |   |   |   |   |   |   |   |   |   |   |   |   |   |   |   |   |   |   |   |   Distance Ratio A <= 0.781565: Ignore (11.28)
|   |   |   |   |   |   |   |   |   |   |   |   |   |   |   |   |   |   |   |   |   |   |   |   |   |   |   |   |   |   |   |   |   Distance Ratio A > 0.781565: NoJoin (4.19)
|   |   |   |   |   |   |   |   |   |   |   |   |   |   |   |   |   |   |   |   |   |   |   |   |   |   |   |   |   |   |   |   Ratio Minimum Endpoint to Endpoint Distance to Overall Minimum Distance > 0.996063: Ignore (23.09/0.52)
|   |   |   |   |   |   |   |   |   |   |   |   |   |   |   |   |   |   |   |   |   |   |   |   |   |   |   |   |   Ratio Minimum Endpoint to Any Point Distance to Overall Minimum Distance > 0.9975: Ignore (56.95/0.52)
|   |   |   |   |   |   |   |   |   |   |   |   |   |   |   |   |   |   |   |   |   |   |   |   |   |   |   |   Ratio Minimum Endpoint to Any Point Distance to Overall Minimum Distance > 0.998199
|   |   |   |   |   |   |   |   |   |   |   |   |   |   |   |   |   |   |   |   |   |   |   |   |   |   |   |   |   Ratio Minimum Endpoint to Any Point Distance to Overall Minimum Distance <= 0.999938: NoJoin (10.46)
|   |   |   |   |   |   |   |   |   |   |   |   |   |   |   |   |   |   |   |   |   |   |   |   |   |   |   |   |   Ratio Minimum Endpoint to Any Point Distance to Overall Minimum Distance > 0.999938
|   |   |   |   |   |   |   |   |   |   |   |   |   |   |   |   |   |   |   |   |   |   |   |   |   |   |   |   |   |   Horizontal Overlap <= -0.139444: Ignore (34.38/0.52)
|   |   |   |   |   |   |   |   |   |   |   |   |   |   |   |   |   |   |   |   |   |   |   |   |   |   |   |   |   |   Horizontal Overlap > -0.139444: NoJoin (3.66)
|   |   |   |   |   |   |   |   |   |   |   |   |   |   |   |   |   |   |   |   |   |   |   |   |   |   |   Distance Ratio B > 0.814841
|   |   |   |   |   |   |   |   |   |   |   |   |   |   |   |   |   |   |   |   |   |   |   |   |   |   |   |   Horizontal Overlap <= -0.112048: NoJoin (15.17)
|   |   |   |   |   |   |   |   |   |   |   |   |   |   |   |   |   |   |   |   |   |   |   |   |   |   |   |   Horizontal Overlap > -0.112048
|   |   |   |   |   |   |   |   |   |   |   |   |   |   |   |   |   |   |   |   |   |   |   |   |   |   |   |   |   Time Gap <= 13111: NoJoin (2.62)
|   |   |   |   |   |   |   |   |   |   |   |   |   |   |   |   |   |   |   |   |   |   |   |   |   |   |   |   |   Time Gap > 13111: Ignore (23.62/1.05)
|   |   |   |   |   |   |   |   |   |   |   |   |   |   |   |   |   |   |   |   |   |   |   |   |   Time Gap > 23802
|   |   |   |   |   |   |   |   |   |   |   |   |   |   |   |   |   |   |   |   |   |   |   |   |   |   Maximum Distance <= 0.203461: NoJoin (17.26)
|   |   |   |   |   |   |   |   |   |   |   |   |   |   |   |   |   |   |   |   |   |   |   |   |   |   Maximum Distance > 0.203461: Ignore (12.33/1.05)
|   |   |   |   |   |   |   |   |   |   |   |   |   |   |   |   |   |   |   |   |   |   |   |   Distance Ratio B > 0.898794: Ignore (22.57)
|   |   |   |   |   |   |   |   |   |   |   |   |   |   |   |   |   |   |   |   |   |   |   Minimum Endpoint to Endpoint Distance > 0.185931: Ignore (22.57)
|   |   |   |   |   |   |   |   |   |   |   |   |   |   |   |   |   |   |   |   |   Ratio Minimum Endpoint to Endpoint Distance to Overall Minimum Distance > 0.999242
|   |   |   |   |   |   |   |   |   |   |   |   |   |   |   |   |   |   |   |   |   |   Time Gap <= 36819: NoJoin (18.31/1.05)
|   |   |   |   |   |   |   |   |   |   |   |   |   |   |   |   |   |   |   |   |   |   Time Gap > 36819: Ignore (11.28)
|   |   |   |   |   |   |   |   |   |   |   |   |   |   |   |   |   |   |   |   Horizontal Overlap > -0.10429
|   |   |   |   |   |   |   |   |   |   |   |   |   |   |   |   |   |   |   |   |   Horizontal Overlap <= -0.072209
|   |   |   |   |   |   |   |   |   |   |   |   |   |   |   |   |   |   |   |   |   |   Ratio Minimum Endpoint to Endpoint Distance to Overall Minimum Distance <= 0.997562: NoJoin (46.56)
|   |   |   |   |   |   |   |   |   |   |   |   |   |   |   |   |   |   |   |   |   |   Ratio Minimum Endpoint to Endpoint Distance to Overall Minimum Distance > 0.997562
|   |   |   |   |   |   |   |   |   |   |   |   |   |   |   |   |   |   |   |   |   |   |   Horizontal Overlap <= -0.086427
|   |   |   |   |   |   |   |   |   |   |   |   |   |   |   |   |   |   |   |   |   |   |   |   Distance Ratio A <= 0.824712: NoJoin (8.37)
|   |   |   |   |   |   |   |   |   |   |   |   |   |   |   |   |   |   |   |   |   |   |   |   Distance Ratio A > 0.824712
|   |   |   |   |   |   |   |   |   |   |   |   |   |   |   |   |   |   |   |   |   |   |   |   |   Time Gap <= 9389: NoJoin (5.75)
|   |   |   |   |   |   |   |   |   |   |   |   |   |   |   |   |   |   |   |   |   |   |   |   |   Time Gap > 9389
|   |   |   |   |   |   |   |   |   |   |   |   |   |   |   |   |   |   |   |   |   |   |   |   |   |   Ratio Minimum Endpoint to Endpoint Distance to Overall Minimum Distance <= 0.998121: Ignore (46.71/1.57)
|   |   |   |   |   |   |   |   |   |   |   |   |   |   |   |   |   |   |   |   |   |   |   |   |   |   Ratio Minimum Endpoint to Endpoint Distance to Overall Minimum Distance > 0.998121
|   |   |   |   |   |   |   |   |   |   |   |   |   |   |   |   |   |   |   |   |   |   |   |   |   |   |   Horizontal Overlap <= -0.087051: NoJoin (9.42)
|   |   |   |   |   |   |   |   |   |   |   |   |   |   |   |   |   |   |   |   |   |   |   |   |   |   |   Horizontal Overlap > -0.087051: Ignore (11.28)
|   |   |   |   |   |   |   |   |   |   |   |   |   |   |   |   |   |   |   |   |   |   |   Horizontal Overlap > -0.086427: NoJoin (18.83)
|   |   |   |   |   |   |   |   |   |   |   |   |   |   |   |   |   |   |   |   |   Horizontal Overlap > -0.072209
|   |   |   |   |   |   |   |   |   |   |   |   |   |   |   |   |   |   |   |   |   |   Vertical Overlap <= -0.023384
|   |   |   |   |   |   |   |   |   |   |   |   |   |   |   |   |   |   |   |   |   |   |   Ratio Minimum Endpoint to Endpoint Distance to Overall Minimum Distance <= 0.999418
|   |   |   |   |   |   |   |   |   |   |   |   |   |   |   |   |   |   |   |   |   |   |   |   Centroid Distance <= 0.159797
|   |   |   |   |   |   |   |   |   |   |   |   |   |   |   |   |   |   |   |   |   |   |   |   |   Distance Ratio A <= 0.801415
|   |   |   |   |   |   |   |   |   |   |   |   |   |   |   |   |   |   |   |   |   |   |   |   |   |   Ratio Minimum Endpoint to Endpoint Distance to Overall Minimum Distance <= 0.999087: NoJoin (8.37)
|   |   |   |   |   |   |   |   |   |   |   |   |   |   |   |   |   |   |   |   |   |   |   |   |   |   Ratio Minimum Endpoint to Endpoint Distance to Overall Minimum Distance > 0.999087: Ignore (11.28)
|   |   |   |   |   |   |   |   |   |   |   |   |   |   |   |   |   |   |   |   |   |   |   |   |   Distance Ratio A > 0.801415: Ignore (163.44/16.74)
|   |   |   |   |   |   |   |   |   |   |   |   |   |   |   |   |   |   |   |   |   |   |   |   Centroid Distance > 0.159797
|   |   |   |   |   |   |   |   |   |   |   |   |   |   |   |   |   |   |   |   |   |   |   |   |   Ratio Minimum Endpoint to Endpoint Distance to Overall Minimum Distance <= 0.99252: Ignore (11.81/0.52)
|   |   |   |   |   |   |   |   |   |   |   |   |   |   |   |   |   |   |   |   |   |   |   |   |   Ratio Minimum Endpoint to Endpoint Distance to Overall Minimum Distance > 0.99252: NoJoin (9.94)
|   |   |   |   |   |   |   |   |   |   |   |   |   |   |   |   |   |   |   |   |   |   |   Ratio Minimum Endpoint to Endpoint Distance to Overall Minimum Distance > 0.999418: NoJoin (7.85)
|   |   |   |   |   |   |   |   |   |   |   |   |   |   |   |   |   |   |   |   |   |   Vertical Overlap > -0.023384
|   |   |   |   |   |   |   |   |   |   |   |   |   |   |   |   |   |   |   |   |   |   |   Minimum Distance <= 0.04564: Ignore (11.28)
|   |   |   |   |   |   |   |   |   |   |   |   |   |   |   |   |   |   |   |   |   |   |   Minimum Distance > 0.04564: NoJoin (15.7)
|   |   |   |   |   |   |   |   |   |   |   |   |   |   |   |   |   |   |   Distance Ratio B > 0.907044
|   |   |   |   |   |   |   |   |   |   |   |   |   |   |   |   |   |   |   |   Maximum Distance <= 0.203461: NoJoin (25.11)
|   |   |   |   |   |   |   |   |   |   |   |   |   |   |   |   |   |   |   |   Maximum Distance > 0.203461: Ignore (11.81/0.52)
|   |   |   |   |   |   |   |   |   |   |   |   |   |   |   |   |   |   Time Gap > 36866
|   |   |   |   |   |   |   |   |   |   |   |   |   |   |   |   |   |   |   Distance Ratio A <= 0.820333: NoJoin (46.56/0.52)
|   |   |   |   |   |   |   |   |   |   |   |   |   |   |   |   |   |   |   Distance Ratio A > 0.820333
|   |   |   |   |   |   |   |   |   |   |   |   |   |   |   |   |   |   |   |   Centroid Distance <= 0.123378: NoJoin (7.85)
|   |   |   |   |   |   |   |   |   |   |   |   |   |   |   |   |   |   |   |   Centroid Distance > 0.123378
|   |   |   |   |   |   |   |   |   |   |   |   |   |   |   |   |   |   |   |   |   Maximum Distance <= 0.197065
|   |   |   |   |   |   |   |   |   |   |   |   |   |   |   |   |   |   |   |   |   |   Minimum Distance <= 0.060961: Ignore (22.57)
|   |   |   |   |   |   |   |   |   |   |   |   |   |   |   |   |   |   |   |   |   |   Minimum Distance > 0.060961
|   |   |   |   |   |   |   |   |   |   |   |   |   |   |   |   |   |   |   |   |   |   |   Time Gap <= 46882: NoJoin (9.94)
|   |   |   |   |   |   |   |   |   |   |   |   |   |   |   |   |   |   |   |   |   |   |   Time Gap > 46882
|   |   |   |   |   |   |   |   |   |   |   |   |   |   |   |   |   |   |   |   |   |   |   |   Minimum Distance <= 0.092508: NoJoin (4.71)
|   |   |   |   |   |   |   |   |   |   |   |   |   |   |   |   |   |   |   |   |   |   |   |   Minimum Distance > 0.092508
|   |   |   |   |   |   |   |   |   |   |   |   |   |   |   |   |   |   |   |   |   |   |   |   |   Maximum Distance <= 0.188716
|   |   |   |   |   |   |   |   |   |   |   |   |   |   |   |   |   |   |   |   |   |   |   |   |   |   Maximum Distance <= 0.163517
|   |   |   |   |   |   |   |   |   |   |   |   |   |   |   |   |   |   |   |   |   |   |   |   |   |   |   Vertical Overlap <= -0.078199: NoJoin (4.71)
|   |   |   |   |   |   |   |   |   |   |   |   |   |   |   |   |   |   |   |   |   |   |   |   |   |   |   Vertical Overlap > -0.078199: Ignore (36.99/2.09)
|   |   |   |   |   |   |   |   |   |   |   |   |   |   |   |   |   |   |   |   |   |   |   |   |   |   Maximum Distance > 0.163517: NoJoin (10.99)
|   |   |   |   |   |   |   |   |   |   |   |   |   |   |   |   |   |   |   |   |   |   |   |   |   Maximum Distance > 0.188716: Ignore (34.38/0.52)
|   |   |   |   |   |   |   |   |   |   |   |   |   |   |   |   |   |   |   |   |   Maximum Distance > 0.197065: NoJoin (6.28)
|   |   |   |   |   |   |   |   |   |   |   |   |   |   |   |   |   Maximum Distance > 0.205902: Ignore (46.71/1.57)
|   |   |   |   |   |   |   |   |   |   |   |   |   |   |   |   Maximum Distance > 0.206707
|   |   |   |   |   |   |   |   |   |   |   |   |   |   |   |   |   Time Gap <= 14859
|   |   |   |   |   |   |   |   |   |   |   |   |   |   |   |   |   |   Ratio Minimum Endpoint to Any Point Distance to Overall Minimum Distance <= 0.993645
|   |   |   |   |   |   |   |   |   |   |   |   |   |   |   |   |   |   |   Maximum Distance <= 0.22087: NoJoin (4.19)
|   |   |   |   |   |   |   |   |   |   |   |   |   |   |   |   |   |   |   Maximum Distance > 0.22087
|   |   |   |   |   |   |   |   |   |   |   |   |   |   |   |   |   |   |   |   Horizontal Overlap <= -0.152885: NoJoin (3.66)
|   |   |   |   |   |   |   |   |   |   |   |   |   |   |   |   |   |   |   |   Horizontal Overlap > -0.152885
|   |   |   |   |   |   |   |   |   |   |   |   |   |   |   |   |   |   |   |   |   Centroid Distance <= 0.161782: Ignore (34.9/1.05)
|   |   |   |   |   |   |   |   |   |   |   |   |   |   |   |   |   |   |   |   |   Centroid Distance > 0.161782
|   |   |   |   |   |   |   |   |   |   |   |   |   |   |   |   |   |   |   |   |   |   Minimum Distance <= 0.159483: NoJoin (7.85)
|   |   |   |   |   |   |   |   |   |   |   |   |   |   |   |   |   |   |   |   |   |   Minimum Distance > 0.159483: Ignore (22.57)
|   |   |   |   |   |   |   |   |   |   |   |   |   |   |   |   |   |   Ratio Minimum Endpoint to Any Point Distance to Overall Minimum Distance > 0.993645
|   |   |   |   |   |   |   |   |   |   |   |   |   |   |   |   |   |   |   Distance Ratio B <= 0.831456
|   |   |   |   |   |   |   |   |   |   |   |   |   |   |   |   |   |   |   |   Vertical Overlap <= -0.005882
|   |   |   |   |   |   |   |   |   |   |   |   |   |   |   |   |   |   |   |   |   Time Gap <= 7206
|   |   |   |   |   |   |   |   |   |   |   |   |   |   |   |   |   |   |   |   |   |   Vertical Overlap <= -0.096571: NoJoin (6.8)
|   |   |   |   |   |   |   |   |   |   |   |   |   |   |   |   |   |   |   |   |   |   Vertical Overlap > -0.096571
|   |   |   |   |   |   |   |   |   |   |   |   |   |   |   |   |   |   |   |   |   |   |   Distance Ratio A <= 0.84286
|   |   |   |   |   |   |   |   |   |   |   |   |   |   |   |   |   |   |   |   |   |   |   |   Ratio Minimum Endpoint to Endpoint Distance to Overall Minimum Distance <= 0.997835
|   |   |   |   |   |   |   |   |   |   |   |   |   |   |   |   |   |   |   |   |   |   |   |   |   Minimum Distance <= 0.111676: Ignore (23.09/0.52)
|   |   |   |   |   |   |   |   |   |   |   |   |   |   |   |   |   |   |   |   |   |   |   |   |   Minimum Distance > 0.111676: NoJoin (10.46)
|   |   |   |   |   |   |   |   |   |   |   |   |   |   |   |   |   |   |   |   |   |   |   |   Ratio Minimum Endpoint to Endpoint Distance to Overall Minimum Distance > 0.997835: Ignore (59.56/3.14)
|   |   |   |   |   |   |   |   |   |   |   |   |   |   |   |   |   |   |   |   |   |   |   Distance Ratio A > 0.84286: NoJoin (3.66)
|   |   |   |   |   |   |   |   |   |   |   |   |   |   |   |   |   |   |   |   |   Time Gap > 7206
|   |   |   |   |   |   |   |   |   |   |   |   |   |   |   |   |   |   |   |   |   |   Maximum Distance <= 0.264374
|   |   |   |   |   |   |   |   |   |   |   |   |   |   |   |   |   |   |   |   |   |   |   Minimum Endpoint to Endpoint Distance <= 0.098424
|   |   |   |   |   |   |   |   |   |   |   |   |   |   |   |   |   |   |   |   |   |   |   |   Minimum Distance <= 0.097577: NoJoin (2.09)
|   |   |   |   |   |   |   |   |   |   |   |   |   |   |   |   |   |   |   |   |   |   |   |   Minimum Distance > 0.097577: Ignore (11.28)
|   |   |   |   |   |   |   |   |   |   |   |   |   |   |   |   |   |   |   |   |   |   |   Minimum Endpoint to Endpoint Distance > 0.098424: NoJoin (63.3)
|   |   |   |   |   |   |   |   |   |   |   |   |   |   |   |   |   |   |   |   |   |   Maximum Distance > 0.264374: Ignore (11.28)
|   |   |   |   |   |   |   |   |   |   |   |   |   |   |   |   |   |   |   |   Vertical Overlap > -0.005882: NoJoin (37.67)
|   |   |   |   |   |   |   |   |   |   |   |   |   |   |   |   |   |   |   Distance Ratio B > 0.831456: NoJoin (106.73)
|   |   |   |   |   |   |   |   |   |   |   |   |   |   |   |   |   Time Gap > 14859
|   |   |   |   |   |   |   |   |   |   |   |   |   |   |   |   |   |   Time Gap <= 16393
|   |   |   |   |   |   |   |   |   |   |   |   |   |   |   |   |   |   |   Horizontal Overlap <= -0.12016
|   |   |   |   |   |   |   |   |   |   |   |   |   |   |   |   |   |   |   |   Ratio Minimum Endpoint to Endpoint Distance to Overall Minimum Distance <= 0.999655: NoJoin (13.6)
|   |   |   |   |   |   |   |   |   |   |   |   |   |   |   |   |   |   |   |   Ratio Minimum Endpoint to Endpoint Distance to Overall Minimum Distance > 0.999655: Ignore (11.28)
|   |   |   |   |   |   |   |   |   |   |   |   |   |   |   |   |   |   |   Horizontal Overlap > -0.12016
|   |   |   |   |   |   |   |   |   |   |   |   |   |   |   |   |   |   |   |   Distance Ratio A <= 0.796229
|   |   |   |   |   |   |   |   |   |   |   |   |   |   |   |   |   |   |   |   |   Ratio Minimum Endpoint to Endpoint Distance to Overall Minimum Distance <= 0.996436: Ignore (11.81/0.52)
|   |   |   |   |   |   |   |   |   |   |   |   |   |   |   |   |   |   |   |   |   Ratio Minimum Endpoint to Endpoint Distance to Overall Minimum Distance > 0.996436: NoJoin (4.71)
|   |   |   |   |   |   |   |   |   |   |   |   |   |   |   |   |   |   |   |   Distance Ratio A > 0.796229
|   |   |   |   |   |   |   |   |   |   |   |   |   |   |   |   |   |   |   |   |   Minimum Distance <= 0.097354
|   |   |   |   |   |   |   |   |   |   |   |   |   |   |   |   |   |   |   |   |   |   Time Gap <= 16323: NoJoin (5.23)
|   |   |   |   |   |   |   |   |   |   |   |   |   |   |   |   |   |   |   |   |   |   Time Gap > 16323: Ignore (11.28)
|   |   |   |   |   |   |   |   |   |   |   |   |   |   |   |   |   |   |   |   |   Minimum Distance > 0.097354: Ignore (91.32/1.05)
|   |   |   |   |   |   |   |   |   |   |   |   |   |   |   |   |   |   Time Gap > 16393
|   |   |   |   |   |   |   |   |   |   |   |   |   |   |   |   |   |   |   Maximum Distance <= 0.261575
|   |   |   |   |   |   |   |   |   |   |   |   |   |   |   |   |   |   |   |   Ratio Minimum Endpoint to Endpoint Distance to Overall Minimum Distance <= 0.991495: NoJoin (32.96)
|   |   |   |   |   |   |   |   |   |   |   |   |   |   |   |   |   |   |   |   Ratio Minimum Endpoint to Endpoint Distance to Overall Minimum Distance > 0.991495
|   |   |   |   |   |   |   |   |   |   |   |   |   |   |   |   |   |   |   |   |   Maximum Distance <= 0.247248
|   |   |   |   |   |   |   |   |   |   |   |   |   |   |   |   |   |   |   |   |   |   Minimum Endpoint to Endpoint Distance <= 0.05719
|   |   |   |   |   |   |   |   |   |   |   |   |   |   |   |   |   |   |   |   |   |   |   Ratio Minimum Endpoint to Any Point Distance to Overall Minimum Distance <= 0.999339: NoJoin (2.09)
|   |   |   |   |   |   |   |   |   |   |   |   |   |   |   |   |   |   |   |   |   |   |   Ratio Minimum Endpoint to Any Point Distance to Overall Minimum Distance > 0.999339: Ignore (34.9/1.05)
|   |   |   |   |   |   |   |   |   |   |   |   |   |   |   |   |   |   |   |   |   |   Minimum Endpoint to Endpoint Distance > 0.05719
|   |   |   |   |   |   |   |   |   |   |   |   |   |   |   |   |   |   |   |   |   |   |   Minimum Endpoint to Endpoint Distance <= 0.086729: NoJoin (31.91)
|   |   |   |   |   |   |   |   |   |   |   |   |   |   |   |   |   |   |   |   |   |   |   Minimum Endpoint to Endpoint Distance > 0.086729
|   |   |   |   |   |   |   |   |   |   |   |   |   |   |   |   |   |   |   |   |   |   |   |   Minimum Endpoint to Any Point Distance <= 0.109422
|   |   |   |   |   |   |   |   |   |   |   |   |   |   |   |   |   |   |   |   |   |   |   |   |   Time Gap <= 52234
|   |   |   |   |   |   |   |   |   |   |   |   |   |   |   |   |   |   |   |   |   |   |   |   |   |   Distance Ratio A <= 0.812612: Ignore (24.14/1.57)
|   |   |   |   |   |   |   |   |   |   |   |   |   |   |   |   |   |   |   |   |   |   |   |   |   |   Distance Ratio A > 0.812612: NoJoin (14.65)
|   |   |   |   |   |   |   |   |   |   |   |   |   |   |   |   |   |   |   |   |   |   |   |   |   Time Gap > 52234
|   |   |   |   |   |   |   |   |   |   |   |   |   |   |   |   |   |   |   |   |   |   |   |   |   |   Maximum Distance <= 0.232265
|   |   |   |   |   |   |   |   |   |   |   |   |   |   |   |   |   |   |   |   |   |   |   |   |   |   |   Minimum Distance <= 0.087396: Ignore (11.28)
|   |   |   |   |   |   |   |   |   |   |   |   |   |   |   |   |   |   |   |   |   |   |   |   |   |   |   Minimum Distance > 0.087396: NoJoin (3.66)
|   |   |   |   |   |   |   |   |   |   |   |   |   |   |   |   |   |   |   |   |   |   |   |   |   |   Maximum Distance > 0.232265: Ignore (67.71)
|   |   |   |   |   |   |   |   |   |   |   |   |   |   |   |   |   |   |   |   |   |   |   |   Minimum Endpoint to Any Point Distance > 0.109422
|   |   |   |   |   |   |   |   |   |   |   |   |   |   |   |   |   |   |   |   |   |   |   |   |   Ratio Minimum Endpoint to Endpoint Distance to Overall Minimum Distance <= 0.992866
|   |   |   |   |   |   |   |   |   |   |   |   |   |   |   |   |   |   |   |   |   |   |   |   |   |   Time Gap <= 37887
|   |   |   |   |   |   |   |   |   |   |   |   |   |   |   |   |   |   |   |   |   |   |   |   |   |   |   Horizontal Overlap <= -0.113715: Ignore (57.99/1.57)
|   |   |   |   |   |   |   |   |   |   |   |   |   |   |   |   |   |   |   |   |   |   |   |   |   |   |   Horizontal Overlap > -0.113715: NoJoin (2.09)
|   |   |   |   |   |   |   |   |   |   |   |   |   |   |   |   |   |   |   |   |   |   |   |   |   |   Time Gap > 37887: NoJoin (4.71)
|   |   |   |   |   |   |   |   |   |   |   |   |   |   |   |   |   |   |   |   |   |   |   |   |   Ratio Minimum Endpoint to Endpoint Distance to Overall Minimum Distance > 0.992866
|   |   |   |   |   |   |   |   |   |   |   |   |   |   |   |   |   |   |   |   |   |   |   |   |   |   Centroid Distance <= 0.17958: NoJoin (59.12)
|   |   |   |   |   |   |   |   |   |   |   |   |   |   |   |   |   |   |   |   |   |   |   |   |   |   Centroid Distance > 0.17958
|   |   |   |   |   |   |   |   |   |   |   |   |   |   |   |   |   |   |   |   |   |   |   |   |   |   |   Horizontal Overlap <= -0.186971: NoJoin (17.79)
|   |   |   |   |   |   |   |   |   |   |   |   |   |   |   |   |   |   |   |   |   |   |   |   |   |   |   Horizontal Overlap > -0.186971
|   |   |   |   |   |   |   |   |   |   |   |   |   |   |   |   |   |   |   |   |   |   |   |   |   |   |   |   Centroid Distance <= 0.182893
|   |   |   |   |   |   |   |   |   |   |   |   |   |   |   |   |   |   |   |   |   |   |   |   |   |   |   |   |   Time Gap <= 51280
|   |   |   |   |   |   |   |   |   |   |   |   |   |   |   |   |   |   |   |   |   |   |   |   |   |   |   |   |   |   Ratio Minimum Endpoint to Endpoint Distance to Overall Minimum Distance <= 0.999199: Ignore (70.85/3.14)
|   |   |   |   |   |   |   |   |   |   |   |   |   |   |   |   |   |   |   |   |   |   |   |   |   |   |   |   |   |   Ratio Minimum Endpoint to Endpoint Distance to Overall Minimum Distance > 0.999199: NoJoin (2.62)
|   |   |   |   |   |   |   |   |   |   |   |   |   |   |   |   |   |   |   |   |   |   |   |   |   |   |   |   |   Time Gap > 51280: NoJoin (4.19)
|   |   |   |   |   |   |   |   |   |   |   |   |   |   |   |   |   |   |   |   |   |   |   |   |   |   |   |   Centroid Distance > 0.182893
|   |   |   |   |   |   |   |   |   |   |   |   |   |   |   |   |   |   |   |   |   |   |   |   |   |   |   |   |   Horizontal Overlap <= -0.071062
|   |   |   |   |   |   |   |   |   |   |   |   |   |   |   |   |   |   |   |   |   |   |   |   |   |   |   |   |   |   Horizontal Overlap <= -0.08042
|   |   |   |   |   |   |   |   |   |   |   |   |   |   |   |   |   |   |   |   |   |   |   |   |   |   |   |   |   |   |   Horizontal Overlap <= -0.172543
|   |   |   |   |   |   |   |   |   |   |   |   |   |   |   |   |   |   |   |   |   |   |   |   |   |   |   |   |   |   |   |   Time Gap <= 40656
|   |   |   |   |   |   |   |   |   |   |   |   |   |   |   |   |   |   |   |   |   |   |   |   |   |   |   |   |   |   |   |   |   Distance Ratio A <= 0.79089
|   |   |   |   |   |   |   |   |   |   |   |   |   |   |   |   |   |   |   |   |   |   |   |   |   |   |   |   |   |   |   |   |   |   Ratio Minimum Endpoint to Endpoint Distance to Overall Minimum Distance <= 0.998048
|   |   |   |   |   |   |   |   |   |   |   |   |   |   |   |   |   |   |   |   |   |   |   |   |   |   |   |   |   |   |   |   |   |   |   Minimum Distance <= 0.179524: Ignore (11.28)
|   |   |   |   |   |   |   |   |   |   |   |   |   |   |   |   |   |   |   |   |   |   |   |   |   |   |   |   |   |   |   |   |   |   |   Minimum Distance > 0.179524: NoJoin (2.09)
|   |   |   |   |   |   |   |   |   |   |   |   |   |   |   |   |   |   |   |   |   |   |   |   |   |   |   |   |   |   |   |   |   |   Ratio Minimum Endpoint to Endpoint Distance to Overall Minimum Distance > 0.998048: Ignore (33.85)
|   |   |   |   |   |   |   |   |   |   |   |   |   |   |   |   |   |   |   |   |   |   |   |   |   |   |   |   |   |   |   |   |   Distance Ratio A > 0.79089: NoJoin (2.09)
|   |   |   |   |   |   |   |   |   |   |   |   |   |   |   |   |   |   |   |   |   |   |   |   |   |   |   |   |   |   |   |   Time Gap > 40656: NoJoin (6.28)
|   |   |   |   |   |   |   |   |   |   |   |   |   |   |   |   |   |   |   |   |   |   |   |   |   |   |   |   |   |   |   Horizontal Overlap > -0.172543
|   |   |   |   |   |   |   |   |   |   |   |   |   |   |   |   |   |   |   |   |   |   |   |   |   |   |   |   |   |   |   |   Maximum Distance <= 0.23556: NoJoin (69.06)
|   |   |   |   |   |   |   |   |   |   |   |   |   |   |   |   |   |   |   |   |   |   |   |   |   |   |   |   |   |   |   |   Maximum Distance > 0.23556
|   |   |   |   |   |   |   |   |   |   |   |   |   |   |   |   |   |   |   |   |   |   |   |   |   |   |   |   |   |   |   |   |   Horizontal Overlap <= -0.145918: NoJoin (13.08)
|   |   |   |   |   |   |   |   |   |   |   |   |   |   |   |   |   |   |   |   |   |   |   |   |   |   |   |   |   |   |   |   |   Horizontal Overlap > -0.145918
|   |   |   |   |   |   |   |   |   |   |   |   |   |   |   |   |   |   |   |   |   |   |   |   |   |   |   |   |   |   |   |   |   |   Minimum Endpoint to Endpoint Distance <= 0.159512
|   |   |   |   |   |   |   |   |   |   |   |   |   |   |   |   |   |   |   |   |   |   |   |   |   |   |   |   |   |   |   |   |   |   |   Ratio Minimum Endpoint to Any Point Distance to Overall Minimum Distance <= 0.994231: Ignore (11.81/0.52)
|   |   |   |   |   |   |   |   |   |   |   |   |   |   |   |   |   |   |   |   |   |   |   |   |   |   |   |   |   |   |   |   |   |   |   Ratio Minimum Endpoint to Any Point Distance to Overall Minimum Distance > 0.994231: NoJoin (19.36)
|   |   |   |   |   |   |   |   |   |   |   |   |   |   |   |   |   |   |   |   |   |   |   |   |   |   |   |   |   |   |   |   |   |   Minimum Endpoint to Endpoint Distance > 0.159512
|   |   |   |   |   |   |   |   |   |   |   |   |   |   |   |   |   |   |   |   |   |   |   |   |   |   |   |   |   |   |   |   |   |   |   Time Gap <= 53478
|   |   |   |   |   |   |   |   |   |   |   |   |   |   |   |   |   |   |   |   |   |   |   |   |   |   |   |   |   |   |   |   |   |   |   |   Minimum Distance <= 0.183636: NoJoin (7.85)
|   |   |   |   |   |   |   |   |   |   |   |   |   |   |   |   |   |   |   |   |   |   |   |   |   |   |   |   |   |   |   |   |   |   |   |   Minimum Distance > 0.183636
|   |   |   |   |   |   |   |   |   |   |   |   |   |   |   |   |   |   |   |   |   |   |   |   |   |   |   |   |   |   |   |   |   |   |   |   |   Ratio Minimum Endpoint to Endpoint Distance to Overall Minimum Distance <= 0.997927: Ignore (36.47/2.62)
|   |   |   |   |   |   |   |   |   |   |   |   |   |   |   |   |   |   |   |   |   |   |   |   |   |   |   |   |   |   |   |   |   |   |   |   |   Ratio Minimum Endpoint to Endpoint Distance to Overall Minimum Distance > 0.997927: NoJoin (3.14)
|   |   |   |   |   |   |   |   |   |   |   |   |   |   |   |   |   |   |   |   |   |   |   |   |   |   |   |   |   |   |   |   |   |   |   Time Gap > 53478: Ignore (34.38/0.52)
|   |   |   |   |   |   |   |   |   |   |   |   |   |   |   |   |   |   |   |   |   |   |   |   |   |   |   |   |   |   Horizontal Overlap > -0.08042
|   |   |   |   |   |   |   |   |   |   |   |   |   |   |   |   |   |   |   |   |   |   |   |   |   |   |   |   |   |   |   Ratio Minimum Endpoint to Any Point Distance to Overall Minimum Distance <= 0.999527: Ignore (47.23/2.09)
|   |   |   |   |   |   |   |   |   |   |   |   |   |   |   |   |   |   |   |   |   |   |   |   |   |   |   |   |   |   |   Ratio Minimum Endpoint to Any Point Distance to Overall Minimum Distance > 0.999527: NoJoin (2.09)
|   |   |   |   |   |   |   |   |   |   |   |   |   |   |   |   |   |   |   |   |   |   |   |   |   |   |   |   |   Horizontal Overlap > -0.071062: NoJoin (18.83)
|   |   |   |   |   |   |   |   |   |   |   |   |   |   |   |   |   |   |   |   |   Maximum Distance > 0.247248
|   |   |   |   |   |   |   |   |   |   |   |   |   |   |   |   |   |   |   |   |   |   Horizontal Overlap <= -0.121502: NoJoin (78.48)
|   |   |   |   |   |   |   |   |   |   |   |   |   |   |   |   |   |   |   |   |   |   Horizontal Overlap > -0.121502
|   |   |   |   |   |   |   |   |   |   |   |   |   |   |   |   |   |   |   |   |   |   |   Ratio Minimum Endpoint to Any Point Distance to Overall Minimum Distance <= 0.99789: NoJoin (20.93)
|   |   |   |   |   |   |   |   |   |   |   |   |   |   |   |   |   |   |   |   |   |   |   Ratio Minimum Endpoint to Any Point Distance to Overall Minimum Distance > 0.99789
|   |   |   |   |   |   |   |   |   |   |   |   |   |   |   |   |   |   |   |   |   |   |   |   Ratio Minimum Endpoint to Endpoint Distance to Overall Minimum Distance <= 0.995798: NoJoin (9.42)
|   |   |   |   |   |   |   |   |   |   |   |   |   |   |   |   |   |   |   |   |   |   |   |   Ratio Minimum Endpoint to Endpoint Distance to Overall Minimum Distance > 0.995798
|   |   |   |   |   |   |   |   |   |   |   |   |   |   |   |   |   |   |   |   |   |   |   |   |   Time Gap <= 34362
|   |   |   |   |   |   |   |   |   |   |   |   |   |   |   |   |   |   |   |   |   |   |   |   |   |   Maximum Distance <= 0.253566: NoJoin (13.6)
|   |   |   |   |   |   |   |   |   |   |   |   |   |   |   |   |   |   |   |   |   |   |   |   |   |   Maximum Distance > 0.253566
|   |   |   |   |   |   |   |   |   |   |   |   |   |   |   |   |   |   |   |   |   |   |   |   |   |   |   Maximum Distance <= 0.256368
|   |   |   |   |   |   |   |   |   |   |   |   |   |   |   |   |   |   |   |   |   |   |   |   |   |   |   |   Horizontal Overlap <= -0.071356: Ignore (24.66/2.09)
|   |   |   |   |   |   |   |   |   |   |   |   |   |   |   |   |   |   |   |   |   |   |   |   |   |   |   |   Horizontal Overlap > -0.071356: NoJoin (3.14)
|   |   |   |   |   |   |   |   |   |   |   |   |   |   |   |   |   |   |   |   |   |   |   |   |   |   |   Maximum Distance > 0.256368: NoJoin (7.85)
|   |   |   |   |   |   |   |   |   |   |   |   |   |   |   |   |   |   |   |   |   |   |   |   |   Time Gap > 34362
|   |   |   |   |   |   |   |   |   |   |   |   |   |   |   |   |   |   |   |   |   |   |   |   |   |   Horizontal Overlap <= -0.080783
|   |   |   |   |   |   |   |   |   |   |   |   |   |   |   |   |   |   |   |   |   |   |   |   |   |   |   Ratio Minimum Endpoint to Endpoint Distance to Overall Minimum Distance <= 0.996205: Ignore (11.28)
|   |   |   |   |   |   |   |   |   |   |   |   |   |   |   |   |   |   |   |   |   |   |   |   |   |   |   Ratio Minimum Endpoint to Endpoint Distance to Overall Minimum Distance > 0.996205: NoJoin (15.7)
|   |   |   |   |   |   |   |   |   |   |   |   |   |   |   |   |   |   |   |   |   |   |   |   |   |   Horizontal Overlap > -0.080783
|   |   |   |   |   |   |   |   |   |   |   |   |   |   |   |   |   |   |   |   |   |   |   |   |   |   |   Ratio Minimum Endpoint to Any Point Distance to Overall Minimum Distance <= 0.999405: Ignore (46.18/1.05)
|   |   |   |   |   |   |   |   |   |   |   |   |   |   |   |   |   |   |   |   |   |   |   |   |   |   |   Ratio Minimum Endpoint to Any Point Distance to Overall Minimum Distance > 0.999405
|   |   |   |   |   |   |   |   |   |   |   |   |   |   |   |   |   |   |   |   |   |   |   |   |   |   |   |   Minimum Distance <= 0.091645: Ignore (11.81/0.52)
|   |   |   |   |   |   |   |   |   |   |   |   |   |   |   |   |   |   |   |   |   |   |   |   |   |   |   |   Minimum Distance > 0.091645: NoJoin (5.23)
|   |   |   |   |   |   |   |   |   |   |   |   |   |   |   |   |   |   |   Maximum Distance > 0.261575
|   |   |   |   |   |   |   |   |   |   |   |   |   |   |   |   |   |   |   |   Ratio Minimum Endpoint to Endpoint Distance to Overall Minimum Distance <= 0.998062
|   |   |   |   |   |   |   |   |   |   |   |   |   |   |   |   |   |   |   |   |   Vertical Overlap <= -0.058335
|   |   |   |   |   |   |   |   |   |   |   |   |   |   |   |   |   |   |   |   |   |   Maximum Distance <= 0.264339: NoJoin (8.89)
|   |   |   |   |   |   |   |   |   |   |   |   |   |   |   |   |   |   |   |   |   |   Maximum Distance > 0.264339: Ignore (11.28)
|   |   |   |   |   |   |   |   |   |   |   |   |   |   |   |   |   |   |   |   |   Vertical Overlap > -0.058335: Ignore (96.55/6.28)
|   |   |   |   |   |   |   |   |   |   |   |   |   |   |   |   |   |   |   |   Ratio Minimum Endpoint to Endpoint Distance to Overall Minimum Distance > 0.998062: NoJoin (11.51)
|   |   |   |   |   |   |   |   |   |   |   |   |   Horizontal Overlap > -0.040085
|   |   |   |   |   |   |   |   |   |   |   |   |   |   Horizontal Overlap <= -0.034514: NoJoin (43.42)
|   |   |   |   |   |   |   |   |   |   |   |   |   |   Horizontal Overlap > -0.034514
|   |   |   |   |   |   |   |   |   |   |   |   |   |   |   Maximum Distance <= 0.190984
|   |   |   |   |   |   |   |   |   |   |   |   |   |   |   |   Horizontal Overlap <= -0.034299: Ignore (11.28)
|   |   |   |   |   |   |   |   |   |   |   |   |   |   |   |   Horizontal Overlap > -0.034299
|   |   |   |   |   |   |   |   |   |   |   |   |   |   |   |   |   Maximum Distance <= 0.185354: NoJoin (2.09)
|   |   |   |   |   |   |   |   |   |   |   |   |   |   |   |   |   Maximum Distance > 0.185354: Ignore (11.28)
|   |   |   |   |   |   |   |   |   |   |   |   |   |   |   Maximum Distance > 0.190984: NoJoin (7.85)
|   |   |   |   |   |   |   |   |   |   |   |   Ratio Minimum Endpoint to Endpoint Distance to Overall Minimum Distance > 0.999993
|   |   |   |   |   |   |   |   |   |   |   |   |   Time Gap <= 17925
|   |   |   |   |   |   |   |   |   |   |   |   |   |   Distance Ratio A <= 0.864381
|   |   |   |   |   |   |   |   |   |   |   |   |   |   |   Maximum Distance <= 0.175626
|   |   |   |   |   |   |   |   |   |   |   |   |   |   |   |   Maximum Distance <= 0.170969: NoJoin (10.46)
|   |   |   |   |   |   |   |   |   |   |   |   |   |   |   |   Maximum Distance > 0.170969: Ignore (11.81/0.52)
|   |   |   |   |   |   |   |   |   |   |   |   |   |   |   Maximum Distance > 0.175626
|   |   |   |   |   |   |   |   |   |   |   |   |   |   |   |   Maximum Distance <= 0.246578
|   |   |   |   |   |   |   |   |   |   |   |   |   |   |   |   |   Horizontal Overlap <= -0.15158: Ignore (136.46/1.05)
|   |   |   |   |   |   |   |   |   |   |   |   |   |   |   |   |   Horizontal Overlap > -0.15158
|   |   |   |   |   |   |   |   |   |   |   |   |   |   |   |   |   |   Distance Ratio B <= 0.794074
|   |   |   |   |   |   |   |   |   |   |   |   |   |   |   |   |   |   |   Minimum Distance <= 0.152713: NoJoin (9.94)
|   |   |   |   |   |   |   |   |   |   |   |   |   |   |   |   |   |   |   Minimum Distance > 0.152713
|   |   |   |   |   |   |   |   |   |   |   |   |   |   |   |   |   |   |   |   Vertical Overlap <= -0.087331: Ignore (46.71/1.57)
|   |   |   |   |   |   |   |   |   |   |   |   |   |   |   |   |   |   |   |   Vertical Overlap > -0.087331: NoJoin (2.62)
|   |   |   |   |   |   |   |   |   |   |   |   |   |   |   |   |   |   Distance Ratio B > 0.794074
|   |   |   |   |   |   |   |   |   |   |   |   |   |   |   |   |   |   |   Horizontal Overlap <= -0.094312
|   |   |   |   |   |   |   |   |   |   |   |   |   |   |   |   |   |   |   |   Minimum Distance <= 0.144306: NoJoin (5.75)
|   |   |   |   |   |   |   |   |   |   |   |   |   |   |   |   |   |   |   |   Minimum Distance > 0.144306: Ignore (11.28)
|   |   |   |   |   |   |   |   |   |   |   |   |   |   |   |   |   |   |   Horizontal Overlap > -0.094312
|   |   |   |   |   |   |   |   |   |   |   |   |   |   |   |   |   |   |   |   Centroid Distance <= 0.139343
|   |   |   |   |   |   |   |   |   |   |   |   |   |   |   |   |   |   |   |   |   Maximum Distance <= 0.208721: NoJoin (2.09)
|   |   |   |   |   |   |   |   |   |   |   |   |   |   |   |   |   |   |   |   |   Maximum Distance > 0.208721: Ignore (11.28)
|   |   |   |   |   |   |   |   |   |   |   |   |   |   |   |   |   |   |   |   Centroid Distance > 0.139343: Ignore (113.89/1.05)
|   |   |   |   |   |   |   |   |   |   |   |   |   |   |   |   Maximum Distance > 0.246578
|   |   |   |   |   |   |   |   |   |   |   |   |   |   |   |   |   Minimum Distance <= 0.142704
|   |   |   |   |   |   |   |   |   |   |   |   |   |   |   |   |   |   Distance Ratio A <= 0.7993: Ignore (23.62/1.05)
|   |   |   |   |   |   |   |   |   |   |   |   |   |   |   |   |   |   Distance Ratio A > 0.7993: NoJoin (3.66)
|   |   |   |   |   |   |   |   |   |   |   |   |   |   |   |   |   Minimum Distance > 0.142704: NoJoin (8.37)
|   |   |   |   |   |   |   |   |   |   |   |   |   |   Distance Ratio A > 0.864381
|   |   |   |   |   |   |   |   |   |   |   |   |   |   |   Maximum Distance <= 0.18295: Ignore (24.14/1.57)
|   |   |   |   |   |   |   |   |   |   |   |   |   |   |   Maximum Distance > 0.18295: NoJoin (20.4)
|   |   |   |   |   |   |   |   |   |   |   |   |   Time Gap > 17925
|   |   |   |   |   |   |   |   |   |   |   |   |   |   Horizontal Overlap <= -0.061669
|   |   |   |   |   |   |   |   |   |   |   |   |   |   |   Distance Ratio B <= 0.867782
|   |   |   |   |   |   |   |   |   |   |   |   |   |   |   |   Maximum Distance <= 0.253839
|   |   |   |   |   |   |   |   |   |   |   |   |   |   |   |   |   Time Gap <= 21433: NoJoin (8.37)
|   |   |   |   |   |   |   |   |   |   |   |   |   |   |   |   |   Time Gap > 21433
|   |   |   |   |   |   |   |   |   |   |   |   |   |   |   |   |   |   Horizontal Overlap <= -0.071008
|   |   |   |   |   |   |   |   |   |   |   |   |   |   |   |   |   |   |   Distance Ratio A <= 0.815808
|   |   |   |   |   |   |   |   |   |   |   |   |   |   |   |   |   |   |   |   Vertical Overlap <= -0.106818: NoJoin (8.89)
|   |   |   |   |   |   |   |   |   |   |   |   |   |   |   |   |   |   |   |   Vertical Overlap > -0.106818
|   |   |   |   |   |   |   |   |   |   |   |   |   |   |   |   |   |   |   |   |   Ratio Minimum Endpoint to Any Point Distance to Overall Minimum Distance <= 0.99016: Ignore (11.28)
|   |   |   |   |   |   |   |   |   |   |   |   |   |   |   |   |   |   |   |   |   Ratio Minimum Endpoint to Any Point Distance to Overall Minimum Distance > 0.99016
|   |   |   |   |   |   |   |   |   |   |   |   |   |   |   |   |   |   |   |   |   |   Horizontal Overlap <= -0.107223
|   |   |   |   |   |   |   |   |   |   |   |   |   |   |   |   |   |   |   |   |   |   |   Distance Ratio B <= 0.651255
|   |   |   |   |   |   |   |   |   |   |   |   |   |   |   |   |   |   |   |   |   |   |   |   Time Gap <= 38220: Ignore (23.09/0.52)
|   |   |   |   |   |   |   |   |   |   |   |   |   |   |   |   |   |   |   |   |   |   |   |   Time Gap > 38220: NoJoin (2.62)
|   |   |   |   |   |   |   |   |   |   |   |   |   |   |   |   |   |   |   |   |   |   |   Distance Ratio B > 0.651255: NoJoin (21.45)
|   |   |   |   |   |   |   |   |   |   |   |   |   |   |   |   |   |   |   |   |   |   Horizontal Overlap > -0.107223: Ignore (38.56/4.71)
|   |   |   |   |   |   |   |   |   |   |   |   |   |   |   |   |   |   |   Distance Ratio A > 0.815808: NoJoin (14.13)
|   |   |   |   |   |   |   |   |   |   |   |   |   |   |   |   |   |   Horizontal Overlap > -0.071008: Ignore (35.42/1.57)
|   |   |   |   |   |   |   |   |   |   |   |   |   |   |   |   Maximum Distance > 0.253839: NoJoin (12.03)
|   |   |   |   |   |   |   |   |   |   |   |   |   |   |   Distance Ratio B > 0.867782: NoJoin (14.13)
|   |   |   |   |   |   |   |   |   |   |   |   |   |   Horizontal Overlap > -0.061669: NoJoin (19.88)
|   |   |   |   |   |   |   |   |   |   |   Time Gap > 107533
|   |   |   |   |   |   |   |   |   |   |   |   Horizontal Overlap <= -0.147728: NoJoin (6.8)
|   |   |   |   |   |   |   |   |   |   |   |   Horizontal Overlap > -0.147728
|   |   |   |   |   |   |   |   |   |   |   |   |   Maximum Distance <= 0.177287
|   |   |   |   |   |   |   |   |   |   |   |   |   |   Vertical Overlap <= -0.008986: NoJoin (10.46)
|   |   |   |   |   |   |   |   |   |   |   |   |   |   Vertical Overlap > -0.008986: Ignore (11.81/0.52)
|   |   |   |   |   |   |   |   |   |   |   |   |   Maximum Distance > 0.177287
|   |   |   |   |   |   |   |   |   |   |   |   |   |   Horizontal Overlap <= -0.066806
|   |   |   |   |   |   |   |   |   |   |   |   |   |   |   Time Gap <= 132160
|   |   |   |   |   |   |   |   |   |   |   |   |   |   |   |   Vertical Overlap <= -0.002619
|   |   |   |   |   |   |   |   |   |   |   |   |   |   |   |   |   Centroid Distance <= 0.195489: NoJoin (6.8)
|   |   |   |   |   |   |   |   |   |   |   |   |   |   |   |   |   Centroid Distance > 0.195489: Ignore (23.09/0.52)
|   |   |   |   |   |   |   |   |   |   |   |   |   |   |   |   Vertical Overlap > -0.002619: Ignore (34.38/0.52)
|   |   |   |   |   |   |   |   |   |   |   |   |   |   |   Time Gap > 132160: NoJoin (7.85)
|   |   |   |   |   |   |   |   |   |   |   |   |   |   Horizontal Overlap > -0.066806: Ignore (92.89/2.62)
|   |   |   |   |   |   |   |   |   Vertical Overlap > 0.13262: Ignore (45.66/0.52)
|   |   |   |   |   |   |   Distance Ratio B > 0.942081: NoJoin (26.68)
|   |   |   |   Distance Ratio A > 0.954045: NoJoin (131.84)
|   |   |   Distance Ratio B > 0.954983: NoJoin (118.76)
|   |   Maximum Distance > 0.264629
|   |   |   Horizontal Overlap <= -0.633331: NoJoin (406.51)
|   |   |   Horizontal Overlap > -0.633331
|   |   |   |   Vertical Overlap <= -0.255895
|   |   |   |   |   Horizontal Overlap <= -0.318531: NoJoin (91.56)
|   |   |   |   |   Horizontal Overlap > -0.318531
|   |   |   |   |   |   Ratio Minimum Endpoint to Endpoint Distance to Overall Minimum Distance <= 0.981875: NoJoin (32.96)
|   |   |   |   |   |   Ratio Minimum Endpoint to Endpoint Distance to Overall Minimum Distance > 0.981875
|   |   |   |   |   |   |   Maximum Distance <= 0.566559
|   |   |   |   |   |   |   |   Distance Ratio B <= 0.554222
|   |   |   |   |   |   |   |   |   Minimum Endpoint to Endpoint Distance <= 0.486105: NoJoin (72.72)
|   |   |   |   |   |   |   |   |   Minimum Endpoint to Endpoint Distance > 0.486105
|   |   |   |   |   |   |   |   |   |   Time Gap <= 44560: Ignore (34.38/0.52)
|   |   |   |   |   |   |   |   |   |   Time Gap > 44560: NoJoin (4.19)
|   |   |   |   |   |   |   |   Distance Ratio B > 0.554222
|   |   |   |   |   |   |   |   |   Time Gap <= 3295: Ignore (57.47/1.05)
|   |   |   |   |   |   |   |   |   Time Gap > 3295
|   |   |   |   |   |   |   |   |   |   Minimum Distance <= 0.374324
|   |   |   |   |   |   |   |   |   |   |   Centroid Distance <= 0.405375
|   |   |   |   |   |   |   |   |   |   |   |   Distance Ratio A <= 0.587952: NoJoin (20.93)
|   |   |   |   |   |   |   |   |   |   |   |   Distance Ratio A > 0.587952
|   |   |   |   |   |   |   |   |   |   |   |   |   Ratio Minimum Endpoint to Endpoint Distance to Overall Minimum Distance <= 0.998239
|   |   |   |   |   |   |   |   |   |   |   |   |   |   Minimum Distance <= 0.351505
|   |   |   |   |   |   |   |   |   |   |   |   |   |   |   Ratio Minimum Endpoint to Any Point Distance to Overall Minimum Distance <= 0.999197
|   |   |   |   |   |   |   |   |   |   |   |   |   |   |   |   Ratio Minimum Endpoint to Endpoint Distance to Overall Minimum Distance <= 0.997906
|   |   |   |   |   |   |   |   |   |   |   |   |   |   |   |   |   Ratio Minimum Endpoint to Any Point Distance to Overall Minimum Distance <= 0.994744
|   |   |   |   |   |   |   |   |   |   |   |   |   |   |   |   |   |   Ratio Minimum Endpoint to Endpoint Distance to Overall Minimum Distance <= 0.989805: NoJoin (5.23)
|   |   |   |   |   |   |   |   |   |   |   |   |   |   |   |   |   |   Ratio Minimum Endpoint to Endpoint Distance to Overall Minimum Distance > 0.989805
|   |   |   |   |   |   |   |   |   |   |   |   |   |   |   |   |   |   |   Vertical Overlap <= -0.26474
|   |   |   |   |   |   |   |   |   |   |   |   |   |   |   |   |   |   |   |   Minimum Distance <= 0.337543: NoJoin (2.62)
|   |   |   |   |   |   |   |   |   |   |   |   |   |   |   |   |   |   |   |   Minimum Distance > 0.337543: Ignore (11.28)
|   |   |   |   |   |   |   |   |   |   |   |   |   |   |   |   |   |   |   Vertical Overlap > -0.26474: Ignore (33.85)
|   |   |   |   |   |   |   |   |   |   |   |   |   |   |   |   |   Ratio Minimum Endpoint to Any Point Distance to Overall Minimum Distance > 0.994744: NoJoin (28.25)
|   |   |   |   |   |   |   |   |   |   |   |   |   |   |   |   Ratio Minimum Endpoint to Endpoint Distance to Overall Minimum Distance > 0.997906: Ignore (34.38/0.52)
|   |   |   |   |   |   |   |   |   |   |   |   |   |   |   Ratio Minimum Endpoint to Any Point Distance to Overall Minimum Distance > 0.999197
|   |   |   |   |   |   |   |   |   |   |   |   |   |   |   |   Time Gap <= 56255
|   |   |   |   |   |   |   |   |   |   |   |   |   |   |   |   |   Ratio Minimum Endpoint to Any Point Distance to Overall Minimum Distance <= 0.999588: Ignore (80.04/1.05)
|   |   |   |   |   |   |   |   |   |   |   |   |   |   |   |   |   Ratio Minimum Endpoint to Any Point Distance to Overall Minimum Distance > 0.999588
|   |   |   |   |   |   |   |   |   |   |   |   |   |   |   |   |   |   Horizontal Overlap <= -0.08432: NoJoin (5.75)
|   |   |   |   |   |   |   |   |   |   |   |   |   |   |   |   |   |   Horizontal Overlap > -0.08432
|   |   |   |   |   |   |   |   |   |   |   |   |   |   |   |   |   |   |   Ratio Minimum Endpoint to Endpoint Distance to Overall Minimum Distance <= 0.99664: Ignore (46.18/1.05)
|   |   |   |   |   |   |   |   |   |   |   |   |   |   |   |   |   |   |   Ratio Minimum Endpoint to Endpoint Distance to Overall Minimum Distance > 0.99664: NoJoin (2.62)
|   |   |   |   |   |   |   |   |   |   |   |   |   |   |   |   Time Gap > 56255: NoJoin (5.75)
|   |   |   |   |   |   |   |   |   |   |   |   |   |   Minimum Distance > 0.351505: NoJoin (11.51)
|   |   |   |   |   |   |   |   |   |   |   |   |   Ratio Minimum Endpoint to Endpoint Distance to Overall Minimum Distance > 0.998239
|   |   |   |   |   |   |   |   |   |   |   |   |   |   Ratio Minimum Endpoint to Endpoint Distance to Overall Minimum Distance <= 0.999482: NoJoin (37.15)
|   |   |   |   |   |   |   |   |   |   |   |   |   |   Ratio Minimum Endpoint to Endpoint Distance to Overall Minimum Distance > 0.999482
|   |   |   |   |   |   |   |   |   |   |   |   |   |   |   Minimum Endpoint to Endpoint Distance <= 0.310239: NoJoin (14.65)
|   |   |   |   |   |   |   |   |   |   |   |   |   |   |   Minimum Endpoint to Endpoint Distance > 0.310239
|   |   |   |   |   |   |   |   |   |   |   |   |   |   |   |   Ratio Minimum Endpoint to Endpoint Distance to Overall Minimum Distance <= 0.99965: Ignore (35.42/1.57)
|   |   |   |   |   |   |   |   |   |   |   |   |   |   |   |   Ratio Minimum Endpoint to Endpoint Distance to Overall Minimum Distance > 0.99965
|   |   |   |   |   |   |   |   |   |   |   |   |   |   |   |   |   Horizontal Overlap <= -0.047827: NoJoin (17.26)
|   |   |   |   |   |   |   |   |   |   |   |   |   |   |   |   |   Horizontal Overlap > -0.047827: Ignore (23.62/1.05)
|   |   |   |   |   |   |   |   |   |   |   Centroid Distance > 0.405375: NoJoin (35.58)
|   |   |   |   |   |   |   |   |   |   Minimum Distance > 0.374324
|   |   |   |   |   |   |   |   |   |   |   Distance Ratio A <= 0.696532
|   |   |   |   |   |   |   |   |   |   |   |   Centroid Distance <= 0.475481
|   |   |   |   |   |   |   |   |   |   |   |   |   Minimum Endpoint to Any Point Distance <= 0.383147
|   |   |   |   |   |   |   |   |   |   |   |   |   |   Ratio Minimum Endpoint to Any Point Distance to Overall Minimum Distance <= 0.999504
|   |   |   |   |   |   |   |   |   |   |   |   |   |   |   Minimum Endpoint to Any Point Distance <= 0.381725: NoJoin (4.71)
|   |   |   |   |   |   |   |   |   |   |   |   |   |   |   Minimum Endpoint to Any Point Distance > 0.381725: Ignore (11.28)
|   |   |   |   |   |   |   |   |   |   |   |   |   |   Ratio Minimum Endpoint to Any Point Distance to Overall Minimum Distance > 0.999504
|   |   |   |   |   |   |   |   |   |   |   |   |   |   |   Horizontal Overlap <= -0.239905: Ignore (56.42)
|   |   |   |   |   |   |   |   |   |   |   |   |   |   |   Horizontal Overlap > -0.239905
|   |   |   |   |   |   |   |   |   |   |   |   |   |   |   |   Distance Ratio B <= 0.660411: NoJoin (4.19)
|   |   |   |   |   |   |   |   |   |   |   |   |   |   |   |   Distance Ratio B > 0.660411: Ignore (33.85)
|   |   |   |   |   |   |   |   |   |   |   |   |   Minimum Endpoint to Any Point Distance > 0.383147
|   |   |   |   |   |   |   |   |   |   |   |   |   |   Distance Ratio A <= 0.625649
|   |   |   |   |   |   |   |   |   |   |   |   |   |   |   Distance Ratio B <= 0.591291
|   |   |   |   |   |   |   |   |   |   |   |   |   |   |   |   Time Gap <= 41937: NoJoin (11.51)
|   |   |   |   |   |   |   |   |   |   |   |   |   |   |   |   Time Gap > 41937
|   |   |   |   |   |   |   |   |   |   |   |   |   |   |   |   |   Distance Ratio A <= 0.58225
|   |   |   |   |   |   |   |   |   |   |   |   |   |   |   |   |   |   Minimum Distance <= 0.419711: Ignore (46.71/1.57)
|   |   |   |   |   |   |   |   |   |   |   |   |   |   |   |   |   |   Minimum Distance > 0.419711: NoJoin (3.66)
|   |   |   |   |   |   |   |   |   |   |   |   |   |   |   |   |   Distance Ratio A > 0.58225: NoJoin (5.23)
|   |   |   |   |   |   |   |   |   |   |   |   |   |   |   Distance Ratio B > 0.591291
|   |   |   |   |   |   |   |   |   |   |   |   |   |   |   |   Time Gap <= 46070
|   |   |   |   |   |   |   |   |   |   |   |   |   |   |   |   |   Distance Ratio A <= 0.609959
|   |   |   |   |   |   |   |   |   |   |   |   |   |   |   |   |   |   Minimum Distance <= 0.418856: NoJoin (3.66)
|   |   |   |   |   |   |   |   |   |   |   |   |   |   |   |   |   |   Minimum Distance > 0.418856: Ignore (58.51/2.09)
|   |   |   |   |   |   |   |   |   |   |   |   |   |   |   |   |   Distance Ratio A > 0.609959: Ignore (67.71)
|   |   |   |   |   |   |   |   |   |   |   |   |   |   |   |   Time Gap > 46070
|   |   |   |   |   |   |   |   |   |   |   |   |   |   |   |   |   Ratio Minimum Endpoint to Any Point Distance to Overall Minimum Distance <= 0.997297
|   |   |   |   |   |   |   |   |   |   |   |   |   |   |   |   |   |   Distance Ratio A <= 0.61119: NoJoin (2.62)
|   |   |   |   |   |   |   |   |   |   |   |   |   |   |   |   |   |   Distance Ratio A > 0.61119: Ignore (34.9/1.05)
|   |   |   |   |   |   |   |   |   |   |   |   |   |   |   |   |   Ratio Minimum Endpoint to Any Point Distance to Overall Minimum Distance > 0.997297: NoJoin (6.28)
|   |   |   |   |   |   |   |   |   |   |   |   |   |   Distance Ratio A > 0.625649
|   |   |   |   |   |   |   |   |   |   |   |   |   |   |   Maximum Distance <= 0.559015: NoJoin (20.4)
|   |   |   |   |   |   |   |   |   |   |   |   |   |   |   Maximum Distance > 0.559015: Ignore (11.28)
|   |   |   |   |   |   |   |   |   |   |   |   Centroid Distance > 0.475481
|   |   |   |   |   |   |   |   |   |   |   |   |   Horizontal Overlap <= -0.317117: Ignore (11.28)
|   |   |   |   |   |   |   |   |   |   |   |   |   Horizontal Overlap > -0.317117: NoJoin (17.26)
|   |   |   |   |   |   |   |   |   |   |   Distance Ratio A > 0.696532: NoJoin (23.54)
|   |   |   |   |   |   |   Maximum Distance > 0.566559
|   |   |   |   |   |   |   |   Time Gap <= 76461: NoJoin (47.61)
|   |   |   |   |   |   |   |   Time Gap > 76461
|   |   |   |   |   |   |   |   |   Time Gap <= 85852
|   |   |   |   |   |   |   |   |   |   Distance Ratio B <= 0.548713: Ignore (23.62/1.05)
|   |   |   |   |   |   |   |   |   |   Distance Ratio B > 0.548713: NoJoin (2.62)
|   |   |   |   |   |   |   |   |   Time Gap > 85852: NoJoin (17.26)
|   |   |   |   Vertical Overlap > -0.255895
|   |   |   |   |   Maximum Distance <= 0.494384
|   |   |   |   |   |   Distance Ratio A <= 0.95432
|   |   |   |   |   |   |   Distance Ratio A <= 0.468944
|   |   |   |   |   |   |   |   Minimum Endpoint to Any Point Distance <= 0.441597
|   |   |   |   |   |   |   |   |   Distance Ratio A <= 0.459754: Ignore (33.85)
|   |   |   |   |   |   |   |   |   Distance Ratio A > 0.459754
|   |   |   |   |   |   |   |   |   |   Vertical Overlap <= -0.140331: Ignore (23.09/0.52)
|   |   |   |   |   |   |   |   |   |   Vertical Overlap > -0.140331
|   |   |   |   |   |   |   |   |   |   |   Minimum Distance <= 0.438735: NoJoin (4.19)
|   |   |   |   |   |   |   |   |   |   |   Minimum Distance > 0.438735: Ignore (11.28)
|   |   |   |   |   |   |   |   Minimum Endpoint to Any Point Distance > 0.441597: NoJoin (4.71)
|   |   |   |   |   |   |   Distance Ratio A > 0.468944
|   |   |   |   |   |   |   |   Vertical Overlap <= -0.013581
